-0.0920574618,-0.0992079363,-0.145060765,-0.0627722612,0.179475091,0.125771781,-0.0188640981,-0.208054343,-0.136016587,0.0352663849,-0.0929052703,-0.101850781,0.127944609,0.159714529,0.0424613562,-0.0582208279,0.107247314,-0.172219586,-0.0484967833,0.0929977371,-0.056435349,0.0374529137,-0.0435190439,-0.0198235636,0.0308050451,-0.119329873,-0.121220923,0.0965791475,0.111120516,-0.174044937,-0.0614028113,0.143920861,-0.15532143,0.118617192,-0.214837413,0.0476979049,-0.0277418002,0.0387417277,0.206784278,-0.00653074747,0.0916861314,0.21333823,0.30764993,-0.12871855,0.00260207725,-0.00718583425,-0.00964135407,-0.00246443713,-0.206085024,-0.0687745454,0.0952304319,-0.040904045,0.291257696,-0.133572871,0.181389051,-0.0161104888,0.0352957451,-0.0486397915,-0.0827722873,0.0246769309,-0.121415379,-0.0472472719,0.111055793,0.026255247,0.106566665,0.0612731117,0.00847147908,-0.0873546253,-0.0246726917,-0.0864432304,0.00961874505,0.0655501711,-0.102560129,0.00664445235,0.0283072198,-0.0573079811,0.041087502,0.0142666139,-0.0283689797,0.0354291518,0.00757140634,-0.0483745011,-0.0618888631,0.0124492835,0.0116821365,-0.0436661207,-0.0544548675,0.0101202802,0.00762395671,-0.0519328269,-0.0110723976,0.0185394493,-0.0419477837,0.0452840574,-0.0125145216,-0.0209834963,-0.0122564508,0.0205838044,-0.00554422046,0.0135253186,-0.0015655085,0.0436378816,0.0217173694,0.0197510304,0.0126793339,0.0327909168,0.0400387599,0.0111622184,0.019963974,-0.0190582452,0.0185538772,-0.0121988168,0.0271237392,0.00296750515,0.0154188567,0.0013634149,-0.0142791125,-0.00556498977
-0.0920574618,0.0105402636,-0.159249062,0.0526096231,-0.0747422998,0.196630726,0.0532799969,0.0906566541,0.0208194571,0.23029317,0.079485109,0.0223332006,-0.0879488821,-0.100374149,0.203438368,-0.0438059643,-0.101408695,0.100371332,-0.0677756374,-0.106354021,-0.223231417,-0.155436984,-0.0724497493,0.0646432929,-0.11660132,0.130163367,0.169548171,-0.010890396,-0.0646685493,0.0438631715,-0.138422592,0.134488373,-0.0108562986,0.0610545659,0.0364160356,0.135391286,-0.179597668,0.0279610555,0.251369711,0.0918957046,0.0136504132,0.0371275566,0.214194725,-0.127295454,-0.132041498,0.0893582541,-0.0288410485,-0.0906605565,-0.0129961162,0.0498321099,0.0330656312,0.227879507,-0.195444647,0.195012441,0.0559907782,-0.183456169,-0.120407282,0.153917443,0.172477363,-0.120824364,0.0608901092,0.0645097181,0.00645112211,0.0614187501,0.0560834874,-0.0677423026,0.0553497789,-0.0694347172,-0.0104251765,0.0463803779,-0.0951428485,0.00820375929,-0.000434750953,0.0670391807,0.0425166784,0.00891106063,0.089619106,-0.0868480602,-0.0614652036,-0.00809814245,0.00799517516,0.00547812539,-0.00820841114,-0.0197680642,-0.00177534715,-0.0257494351,-0.00767511087,-0.0246597256,-0.0515593429,-0.00820472035,-0.0147503124,-0.0503447453,0.0386095435,0.0349618049,-0.00857581812,0.00615876557,-0.00840622242,-0.0241901399,-0.0452199285,0.0266600274,-0.0178720096,-0.0242748346,0.0220495371,0.0292930555,0.000737684058,0.0512727829,-0.000845939829,-0.0147865195,0.00605502617,-0.0232030054,-0.00889560745,0.00614641251,0.0435107398,0.00520665902,0.00617006396,-0.0161940147,-0.0227762603,-0.00197301573
-0.0920574618,-0.0498207628,-0.152652525,0.01922426,0.062513915,0.14448087,0.0736103837,-0.0866057614,0.0499648631,0.132093873,-0.0124828276,0.0260938308,0.116437835,-0.118866227,0.0383646016,0.0661082822,0.0405950144,0.0883764857,0.054769419,0.063854975,0.111190408,0.0913102276,-0.015698607,-0.0147868507,0.0285165205,0.0150879128,-0.0380371949,-0.0366447709,0.00393754523,0.0527986937,0.0858301063,-0.107534532,0.096318604,0.00578450338,0.037084386,0.0278817248,0.0501798498,-0.0255476196,-0.141880287,-0.128508593,-0.00373344848,-0.05392848,-0.115176037,0.102906314,0.0304347693,0.147505736,0.0614294437,-0.0682989121,0.029268251,0.00975546769,-0.169659521,-0.0332782645,0.0275652258,0.0255422341,0.0957015102,-0.0197284427,0.150138428,-0.0247935347,0.110080291,-0.0193385437,-0.00679240557,-0.169400632,0.0694422958,-0.048394089,-0.0701709418,-0.131221254,0.0663633426,-0.133965751,0.130949758,-0.0590647118,0.0208231848,0.090735217,-0.0745153393,-0.0153526514,-0.194006555,-0.118106817,0.140925455,-0.156002054,-0.181031578,-0.0136645426,0.00456302692,0.119821189,-0.140868876,-0.0230616018,-0.0282654516,0.0620164982,-0.0379873076,0.167629424,-0.122755178,-0.142675013,-0.162320962,-0.134425537,-0.108933406,0.0285000334,-0.139777344,0.0890968294,0.093512879,0.0213722267,-0.140198189,0.0988903803,-0.0541455829,0.0806061929,0.124626837,0.11700982,0.101753557,0.13006681,0.124009576,0.069610858,0.037803062,-0.144944136,0.0423570654,-0.0475446786,0.165437641,0.030734038,0.02290999,-0.0453378037,-0.089749314,-0.00783560162
-0.0920574618,0.0683862581,-0.122974933,0.0392521906,-0.154289666,0.111216027,-0.0283616078,0.161346119,-0.0753035473,0.0278150565,0.00547301716,0.000663915294,-0.14393767,0.116750883,-0.013999827,-0.0680261451,0.0446589299,-0.0852365319,0.0135948567,-0.0415631768,0.018615755,0.0667921167,0.0302299978,-0.0275042648,0.070338017,-0.0739027242,-0.0267067597,0.00797966638,0.0759838237,-0.0622118703,0.0698441478,0.0175591871,-0.0620103299,0.034020979,0.0943662711,-0.0972651988,0.0454020688,-0.0242663235,-0.0716669713,-0.0865142824,-0.0960646349,-0.088052805,-0.00487745451,0.109319038,-0.0276708209,-0.134973358,-0.0575435347,0.0137534325,-0.0629358734,-0.0193296921,-0.140306595,-0.0793345028,0.0600741527,-0.117041635,0.0353277973,0.116662218,-0.115391297,0.0565790318,-0.0260136131,-0.154483627,-0.0181109761,-0.0783679587,0.0212405426,0.142218321,-0.103671475,0.0146233039,0.0804149115,-0.143770205,-0.20563633,0.148587752,-0.0990252457,-0.04072571,-0.0494356696,0.0276377815,-0.143423463,0.0572681933,0.125900424,-0.0937753229,-0.0786297512,0.0213415916,0.0678906031,-0.269538646,0.110345858,-0.0507156337,0.0507122258,0.145832084,0.0274362299,-0.0182836263,-0.0945397306,0.0411782412,0.129284554,-0.0262552858,0.180192753,0.240983026,0.020189463,-0.145075698,0.0220658384,-0.178561251,-0.0214804005,0.0933172036,0.116793945,-0.108748745,-0.00501752688,0.0511064193,-0.0809753472,0.161583593,-0.14042953,-0.0760368063,0.0666726941,0.00818751713,-0.0901384113,0.0307016204,0.12696406,-0.00684388139,0.0269475177,-0.0775114896,-0.0592146381,-0.0077243958
-0.0920574618,-0.0961932664,-0.112402113,-0.0403157987,0.125490583,0.0254714854,0.0242589048,-0.0532754124,-0.00588747188,-0.0632335239,-0.0852710964,0.0626089662,-0.0300406129,-0.00795762223,-0.0990685429,-0.026841436,0.08703659,0.0502892061,0.130369976,-0.114377229,0.0112738148,0.0214770798,0.143165529,-0.0367173219,0.137818101,0.124274023,0.173052248,-0.0354244191,-0.0389284715,-0.101273402,0.0816065528,0.110499993,0.0663518908,-0.0754187384,0.100390089,0.0529289125,-0.135664319,-0.00220598186,0.0503426311,-0.0199690996,0.0262812695,-0.0219216687,-0.0622699856,-0.0647277956,-0.171642062,0.0204070159,-0.0445070531,0.17318022,0.0770079534,-0.0485796861,0.0324219304,-0.088934039,-0.118545793,-0.0336690726,-0.165861631,0.105254649,-0.0405819847,0.00847685631,0.0111538842,0.0889415357,0.022113643,0.0865292036,-0.0997393314,-0.0192267264,-0.00575135963,-0.015484324,-0.0570358444,0.0424327223,-0.134497458,-0.0617697288,-0.00930277519,-0.0918059914,-0.0646293462,-0.0185496673,0.126181099,0.0197843357,-0.0140569448,0.167965511,-0.0470409812,0.0366643982,-0.106042106,-0.227583046,-0.0691871482,-0.0515694587,0.0319064614,-0.0289994878,-0.0953418439,-0.115543071,-0.0572316547,-0.0513724859,-0.00251399422,0.0956485083,-0.180907739,0.159687486,0.125685919,-0.145112098,-0.0428682663,0.0285604417,0.0425099211,-0.0874780213,-0.0286257017,0.176436558,0.164936948,0.11143834,-0.0115517323,0.065393131,0.23965473,0.081261782,0.129578296,-0.120648164,0.164399245,-0.0831365226,0.145576285,0.0470867168,0.0520442256,-0.00653028645,-0.103946798,-0.0149899474
-0.0920574618,0.00847541174,-0.131397643,0.0761222881,-0.0627851713,0.0894324849,0.0380885326,0.03324738,0.100582334,0.0356358011,0.088232065,-0.0330876237,-0.00278565342,-0.0566904776,-0.127373204,0.0164854699,-0.121605325,-0.0389684334,-0.0870747856,0.0415567182,0.0617648082,-0.120804195,0.188255489,-0.0149623742,-0.075545748,-0.085483564,-0.090850062,-0.0253456213,-0.021611032,-0.0301167424,0.182630121,-0.0370525473,-0.0565102348,-0.0508249346,-0.169289062,-0.0742466169,0.0560523236,0.0219724401,0.0104139054,-0.114419638,0.112648771,0.144688107,-0.0297857342,-0.086180249,0.0916646886,-0.0929293487,0.0305909901,0.114782841,0.0421789435,0.00153183652,0.0466073504,0.001749241,-0.0676618956,-0.00895265315,-0.144583227,-0.0158978281,-0.00130784169,-0.0522523685,-0.0721421032,0.142439453,0.0304624428,0.0634965317,-0.136574184,-0.00277806064,0.112041763,0.0291968276,-0.0656769858,0.16429928,0.0391353856,-0.0859612347,-0.00945184339,0.0520762262,0.0308602465,0.0892102955,0.207284664,0.179364302,-0.018564528,-0.0523586352,0.0569397936,-0.0984348659,0.0165774535,0.056124923,-0.0389784454,0.0563832809,-0.106618763,-0.207755703,-0.026843958,-0.070250933,0.0183613608,0.0201704148,0.0376725661,-0.063699553,0.203622792,0.0164563077,-0.0984661484,0.0915896909,-0.0745876904,-0.0386797696,-0.159289495,0.193139418,-0.0756511645,-0.117066238,-0.0205749875,0.0439076647,0.0735339679,0.216091012,-0.065541702,-0.00365292492,0.0107298866,-0.127993452,-0.100514185,-0.0104450814,0.259225973,0.0222083535,0.0244485222,-0.102960335,-0.14262842,-0.00424627055
-0.0920574618,-0.0485396825,-0.107347668,0.0516616309,0.0369271193,-0.00677975636,0.10346385,-0.0171618537,0.148635471,-0.0688003062,-0.00239751273,0.0995863764,0.0103424478,-0.0345657655,-0.162267352,0.118196026,-0.0111463297,-0.0757751955,0.0308727618,-0.118713884,0.129609869,0.0163114736,0.00882241244,0.0390204482,-0.0671034873,0.147816685,-0.110936595,-0.0358469989,0.0978882969,0.0489370274,-0.0903449182,-0.0130805306,0.0284767602,0.135924648,0.0404598563,0.0170037136,0.0562731446,0.0131716383,0.0345396011,0.164830088,-0.107944658,-0.0763609403,0.112811491,0.0251296002,0.0491744741,-0.121115917,-0.080061526,-0.138515697,-0.104981081,-0.0282060989,0.146164329,0.0750575335,0.0813249577,-0.0284073341,0.0147845512,0.00561015216,-0.125788128,0.0744135682,-0.0758787461,-0.0853999097,-0.0187039471,0.129626174,0.0721626171,-0.0597672175,-0.0814516463,0.116635196,0.0210936213,0.0335300571,0.0226022403,0.167246281,0.0449648134,-0.0311894753,0.165640694,0.00539223812,-0.126426034,-0.0704238418,-0.144597619,0.0504552057,0.108116124,-0.0508682563,0.0201298271,0.141946807,0.0240095965,-0.054138624,0.0125444204,0.060361605,0.0593160767,0.145747531,-0.0775646513,0.0896395155,0.211006123,0.0916750481,-0.0573067789,-0.162957577,0.0387247869,0.058677251,-0.0722163443,0.00691750616,0.112835345,0.00254458329,0.185482486,-0.0578177308,0.122279149,0.010834088,0.164852045,0.0599307915,0.163771714,0.05303525,-0.0602766599,-0.124780907,0.0280021714,-0.0581594946,0.248142153,0.0482718372,-0.0068342441,-0.0575971536,-0.188141199,-0.00723833363
-0.0920574618,0.0601764484,-0.0890488856,0.0859938813,-0.110790043,0.000626025721,-0.082103547,0.00604485038,0.0319934891,-0.111490216,0.0196359977,-0.156662635,0.0426120457,-0.00939778969,-0.1413311,-0.0938682731,0.0258727198,0.067098896,-0.0823001976,0.151660986,-0.0423195102,0.0517028082,0.0920650815,0.0402737278,0.00840679484,-0.115240444,0.145447963,0.0406324015,0.0829266996,-0.0417111138,-0.0419276432,-0.00390837061,0.0573794481,0.044404529,0.12623478,0.00920743243,-0.0274997591,0.0316089892,-0.0889008157,0.141342666,0.0209559385,-0.0510012739,-0.0597536327,-0.0694730871,-0.0255040732,0.182628185,-0.0454668514,-0.0963389098,-0.0965308947,-0.0973186739,0.124440177,0.0486619114,0.0539593073,0.0954804866,0.0867945996,-0.100676223,0.0703960965,-0.0769149286,0.113457589,-0.0035394702,0.0477621763,0.0698657035,0.0722687731,-0.200134344,-0.00731327983,-0.019630333,-0.038580284,-0.0711034802,0.0658493157,-0.0774984008,0.0366480992,-0.0561200131,0.153791774,-0.181636523,-0.00924877833,0.00623053314,-0.111198073,0.216722926,0.102577225,0.0852063123,-0.0172546636,-0.0531297074,-0.132483864,-0.0919045381,0.0224888263,0.151595242,-0.0185001163,-0.0020989884,0.166159249,-0.0635087456,-0.07134178,-0.0363914296,0.0788630827,0.0373676814,0.110762489,-0.0724430032,0.177884202,0.1325469,-0.0774144613,-0.0551691514,0.000866355883,0.0623518423,-0.125084095,-0.0167923952,-0.0480018378,0.0644601671,-0.228753599,-0.115853169,0.116956956,-0.00348463708,-0.149527029,0.0549329388,0.203124211,0.00683096131,0.0745256196,-0.126859752,-0.118102829,-0.00832414465
-0.0920574618,-0.128152996,-0.0890447921,-0.12085861,0.149471194,0.0132173834,-0.136030343,-0.0349113793,-0.150871282,-0.0905806549,0.0633643618,-0.0893672798,-0.113668648,0.09684298,-0.0163804445,0.0151897255,-0.168352829,0.0392719039,-0.0647524322,-0.0682280651,0.0351136962,-0.065632793,-0.0219858671,0.049508387,-0.0471259124,0.0409422185,0.0775817905,-0.0437354034,-0.0545524465,0.0916984077,0.0428811799,-0.0276797704,0.093621884,-0.17952771,0.0982129183,-0.0691691189,0.0901453055,0.0258696127,0.000258345321,-0.000379874397,-0.15065443,-0.0906358237,-0.157080498,-0.0761282642,0.218186231,-0.0845250128,0.058836863,-0.0909175202,-0.115950964,0.272809888,-0.0467785321,0.124886804,0.0390431837,0.16272056,0.0788897374,-0.106674336,-0.000973827345,-0.0876529699,-0.16028368,-0.16977975,0.00446945222,0.00872918542,0.0980314823,0.141318674,0.114394582,0.24584326,-0.14247199,-0.110160284,0.12405439,-0.0568379098,0.0981086261,0.154517186,-0.162804632,-0.129191568,0.0594674754,0.0990284456,0.121212469,-0.0482036753,0.0665310867,-0.114153223,0.0404459114,-0.0568479078,-0.072056806,-0.0102951848,0.101573585,-0.00647093792,-0.011517523,-0.0777572053,0.0752925286,-0.0780485089,0.0372004712,0.0669135399,0.0051738509,0.00322914019,0.0168516,-0.107268638,-0.0696284072,0.066606229,0.0164962899,-0.0374625845,0.0331759268,0.0307987051,-0.0035084169,0.0458008506,-0.043223615,0.0317275487,0.0616976106,0.0143357083,0.0228946746,-0.00608461189,0.0737633368,-0.0147464025,0.0241704364,0.0162766749,0.0332719651,0.0100062012,-0.0280090889,0.00220363944
-0.0920574618,-0.0883416581,-0.0680022458,0.00143981088,0.0660323275,-0.0936521765,0.105926699,0.0767460485,0.0913189378,-0.125666678,-0.128358935,0.168129977,-0.109261553,-0.0396061071,-0.0383297754,-0.0569351904,0.112938041,0.061221129,0.00936851761,-0.0758239222,-0.151525604,0.0199961064,-0.037035447,0.114129697,-0.0851234243,-0.153031604,0.0738253332,0.193705242,0.0853071801,0.101321125,-0.035197173,-0.132041644,-0.213315221,-0.00829548479,-0.111902708,-0.0646904129,-0.117606131,-0.0485479033,-0.0974497087,-0.00408304829,0.122193106,0.109173209,-0.0313552155,0.0133835379,0.0853469115,-0.024442071,0.157344293,0.0586222709,0.0148122294,0.210988697,-0.113996111,-0.041656519,0.0435348571,0.133081507,0.143962135,-0.0759300243,0.0722067737,-0.174240441,-0.0166875476,-0.126954378,0.149230678,-0.144831799,-0.0333857533,0.151977124,0.0320018455,-0.185905327,0.0462862782,0.0497822605,0.0472497028,0.0938022962,-0.20649096,-0.0888192325,0.0944700928,-0.0770380655,0.0287215052,-0.0266376262,-0.115519784,0.111930449,-0.0212709226,0.156821012,0.121614747,0.0559260999,0.115303506,-0.010107171,-0.0682562587,-0.0515738686,-0.183220816,0.00222581124,0.0912295047,0.0135442678,0.00335157477,0.0501992102,0.0366232334,0.0182966465,0.011607345,-0.0258003928,-0.0324772534,-0.0445142032,0.129252238,0.0178505078,0.0558866014,0.0222907491,-0.00800777294,0.0429583222,0.0133792591,-0.0158064194,0.0839397784,0.00618500479,0.0119490221,0.0219257976,0.0983002449,-0.0548804528,0.0663752428,0.0295832649,0.0104193843,-0.0103130229,-0.0896529355,-0.00420557126
-0.0920574618,0.00603315524,-0.0749659421,0.113072939,-0.0381368824,-0.0626893585,0.0234319248,-0.0501976947,0.133756014,-0.106157349,0.123039575,-0.0648679922,0.05791373,0.0509041323,-0.0735332148,0.0364082598,-0.116689635,-0.11579859,0.0235628078,0.0542445629,-0.00967642255,-0.068731784,-0.104214697,-0.0920263705,0.11853304,-0.0144842223,-0.0349598192,0.0681976553,-0.1643672,0.00622606047,-0.161518671,0.0428039239,-0.0335071698,-0.162900565,-0.028418227,0.0849563814,-0.0926823815,-0.0572939656,0.0428954522,0.0591695282,-0.0512097378,-0.0320966941,0.0155837171,0.101952452,-0.122037336,0.0648554946,0.0767008919,0.0817748465,0.087405208,0.0962674142,-0.157170152,-0.0815145293,-0.00801626696,0.00768023594,0.0321599221,-0.010032464,0.00371430661,-0.0222124818,0.0127056246,-0.0744582944,-0.153839967,-0.17641455,0.0402587577,0.15673219,-0.0777659581,0.000642631008,-0.0110530513,0.0155374074,-0.171145322,-0.0748873918,0.11218872,-0.0923752828,-0.120905137,-0.0321997296,-0.0453146687,-0.126079455,0.0648599003,-0.0929761128,0.00603968365,0.120754422,-0.124724376,0.0629168065,0.0545060289,0.162063575,0.0282185992,-0.0726889905,0.160380565,-0.129795384,0.0858862983,0.061698698,-0.076473564,-0.00193270564,-0.0350972074,-0.104590661,0.13310792,0.0646454458,-0.146001902,0.10326685,0.0187955333,-0.151084183,-0.127828209,-0.0893554178,-0.0385058724,-0.208017559,-0.00243520744,-0.0312018142,-0.000389451163,-0.0778017816,-0.0435940482,-0.0181739291,-0.131193467,0.0368036798,0.231431702,0.0208941018,0.0011375476,-0.00757700509,-0.244546573,-0.0132810478
-0.0920574618,0.0883220108,-0.0666413031,0.0532879654,-0.106341148,-0.01879615,-0.12253215,-0.00569354339,-0.029732421,-0.116502199,-0.0884757001,-0.118676449,0.0547515666,-0.0422345749,-0.0553603768,-0.0248830687,0.121144382,0.137371807,-0.0904008745,0.0588550026,0.00154210144,0.0976411719,-0.00165058383,0.0451925655,-0.135095373,0.0536967958,0.112910799,-0.112075275,0.0537810083,0.0144881525,-0.07332618,0.0983585812,0.0125196926,0.0917906989,0.0311103445,0.110762463,0.108726158,0.0202164906,-0.0303935118,0.062057808,-0.0846177742,0.0818137178,0.0313599133,0.0785332197,0.0973139896,0.13382404,0.104018225,0.117397587,0.00695979298,0.0444971822,0.124777543,-0.126677692,0.0287358591,0.0763882989,-0.0723495054,-0.120683519,0.0336488397,-0.0918426661,0.109185118,0.00717916281,-0.116965856,0.0629830696,-0.0874626571,0.122989552,-0.0116174224,-0.039892242,-0.0744568108,0.148513919,-0.0916305644,-0.0426713967,0.180599396,0.0401490565,-0.0495179247,0.027548408,-0.0893662829,0.0224782481,0.0102906492,-0.0326722731,0.189264253,0.110840608,0.201694541,-0.0335057749,0.0147292805,-0.033540767,-0.102085919,0.0126136372,0.0867859539,0.0773818169,-0.0132392958,-0.109476188,0.00223556886,-0.0836169874,0.0195250702,0.20988833,-0.0525974178,0.0648821624,-0.112322991,-0.141604113,-0.049364433,-0.0794909162,0.0359936322,-0.252731787,0.148263075,-0.00581899187,-0.0290846438,0.0824606223,0.221486917,-0.0412110617,-0.00920223727,0.0487128292,0.0772762775,0.0868454985,-0.0792521648,-0.0757488942,-0.170889324,0.174636805,-0.00726224901,-0.0483835125
-0.0920574618,0.163936836,-0.0395704014,-0.186626566,-0.0919982006,-0.0326931839,0.099117989,-0.017776339,-0.19152791,-0.0965957421,0.0444836331,0.284145144,0.277399626,0.0475675477,-0.00206068339,0.0403254212,-0.222295739,0.0220824499,0.235257661,0.188737693,-0.120430414,-0.163895151,0.0710372947,0.360406849,0.0450342162,-0.0304161303,0.0019823449,-0.187017063,0.0798533954,-0.0985220228,-0.0217097782,-0.020019987,-0.141903511,-0.0604810625,0.0587103797,0.0953068157,-0.011492544,0.371679847,-0.0457948768,0.00164309192,0.0715214454,-0.121343201,0.0351453935,0.156542534,0.0651656407,0.0161925103,-0.0961149552,0.0824625774,-0.0415363456,0.0797423201,-0.0196991199,-0.0679226146,0.0338057557,-0.0144259774,0.0703252959,-0.0211727592,-0.0588902005,0.0454643142,0.0579437619,0.0475719888,-0.0034486632,-0.00313161141,-0.077594339,0.047189639,-0.0456886767,0.0393330176,-0.0681503124,-0.0297544745,-2.14607289e-06,-0.0140600759,-0.0782282228,0.0439898399,3.96558962e-06,0.0641468307,-0.00944945068,0.0408477677,-0.0436585531,-0.00783779573,-0.0255734808,-0.00815837584,-0.0390184861,0.0291068795,-0.0149690934,-0.000790411554,0.0647612582,-0.0156858969,-0.0248633277,0.0300878538,0.034165267,0.00306429729,0.0117611832,0.000533851717,0.00403533328,0.0049496,0.037205117,0.039650055,0.0270604928,0.00729076696,-0.00316874081,-0.0357009343,-0.0107370707,0.0064646631,-0.0310617534,0.0215635556,0.0232821085,0.0128467027,0.00453085169,-0.0157782095,0.00527686649,-0.0116868043,0.0133990936,0.0158747352,-0.00203974557,-0.00541850238,-0.0198472505,0.0178035809,-0.0019387004,-0.00575508421
-0.0920574618,-0.119827728,-0.0423937151,-0.0822558236,0.0626698167,-0.0746742721,-0.0402194399,0.108634082,-0.016087309,-0.0727266036,-0.0278755324,0.0428369769,-0.0961082196,-0.0945277923,0.00927068332,-0.11209935,-0.00375327806,0.112900007,0.0837748391,0.0830303249,-0.0575257356,-0.0949560563,0.0552530891,-0.16517996,0.0711117502,-0.0632522179,-0.037961713,-0.116448803,-0.1800569,-0.0130317893,-0.082571025,0.00172637497,0.00214823586,0.046525915,-0.0737113002,-0.047960167,0.185004909,0.0141399293,-0.0201349486,0.0216430143,-0.0232779884,0.0428902227,0.132560353,0.114285554,0.0410281786,0.0485565178,-0.090724512,-0.133832755,0.0124207248,-0.200627651,0.00735125672,0.0981113462,0.0262679764,-0.0992857536,0.0475608746,-0.0113481668,0.107121878,0.143483323,0.0815444225,0.045169103,-0.0652214177,-0.0686980407,-0.081540243,-0.00480341839,-0.055188811,-0.0216431661,0.140576392,0.085669748,0.0716348131,0.0213819726,0.0524492391,-0.00349832331,0.0853322407,0.0447735567,-0.0415851657,0.099833073,-0.00638558971,-0.193526508,0.0873836804,-0.0420685556,0.0243990146,0.0803269586,0.129754534,0.0826055136,0.0362690541,0.00668791554,0.102020405,-0.0634014415,0.256830857,0.037545915,-0.100096338,0.0831375082,0.127908669,-0.0242378192,-0.0520274585,-0.212834732,0.0556028582,0.0587772679,0.0510353249,-0.0215297837,-0.0653412844,0.00338323451,-0.0483618225,0.15426657,-0.243380067,0.0391149662,0.100031981,0.0276097821,0.0869573446,0.0300080342,0.314023641,-0.0804343104,0.0355851469,0.0411149016,0.0387495015,-0.019351868,-0.114029908,0.0228716832
-0.0920574618,-0.0481723257,-0.0394120967,0.0775635498,0.0123740936,-0.130882558,0.126203562,0.0223204981,0.0903204865,-0.0767828232,0.00903845236,0.0625105212,-0.0159391096,0.116090252,0.104866811,0.100853587,-0.0100129746,-0.0814181257,-0.120247771,0.00661687157,-0.032507917,0.0698826228,-0.1833022,0.0437835413,-0.0705986856,-0.0460379332,0.04947154,-0.112185193,0.0137027923,-0.088203494,-0.0187722024,0.120288583,0.0865574218,0.0119808166,0.108688378,-0.121542068,0.11474262,0.0711076966,0.0332824283,-0.167040875,0.0556530188,0.0034395013,-0.0993144676,-0.110605988,-0.00225496405,0.0935115258,-0.0679272126,-0.0023666028,0.0472987461,-0.139542323,-0.0344621534,0.0505649556,-0.0636717093,-0.0913174862,-0.00645231442,0.0232315226,0.135532096,0.0436031837,0.0918717509,0.178160763,0.0194513044,0.0500091344,-0.0300894184,-0.0119173651,0.143309294,0.0218390418,-0.0586988088,-0.152364296,0.0156192376,0.0454458667,-0.0689930518,0.128376269,-0.105014956,-0.00270324302,0.132649178,0.0974843882,0.122202365,-0.00215955937,0.0847425371,0.0414170226,0.189341629,-0.10585656,0.151840476,0.018699,0.0208220373,0.128447193,-0.0156690241,-0.0380376633,0.0118362996,0.0459629515,-0.0835490836,-0.0813842131,-0.0454014801,-0.0256234909,-0.00543302793,0.176364282,0.161518324,-0.116945216,0.222015113,0.0163926126,0.071551713,0.04163196,-0.0318974549,-0.0977972301,0.152830673,-0.135196537,0.0594144402,-0.0747897735,-0.175092333,0.143021494,0.050133109,-0.0502954011,0.106485024,0.0334075553,0.0404751283,0.0313215306,-0.252286766,-0.0122276588
-0.0920574618,0.0569611873,-0.0350227364,0.114529409,-0.0447314828,-0.0890108578,-0.116222567,-0.112707986,0.0371987237,-0.0870456016,0.0355897512,-0.110923731,0.0648094983,-0.0594213307,0.0697947302,-0.124259415,0.00749073484,0.0713872557,0.1155696,-0.0618910323,-0.113434647,-0.00151808038,-0.0683326104,0.0866652588,0.100689956,0.1269483,-0.0751924352,0.0734276283,0.036333039,0.0471639944,0.0596327952,-0.113364704,0.0722596439,0.0453650174,-0.0490662628,-0.0917583357,-0.01089666,-0.0083898284,0.114562107,-0.163564703,0.0220149547,-0.0414901146,0.0468071332,-0.00608687206,0.0414022357,-0.220383411,-0.0616186707,-0.0595850764,0.0559897949,0.0245744974,-0.0279950314,0.0174381077,0.00675973216,-0.11427637,-0.018617355,0.109318755,0.0408637637,0.141735427,0.0195282487,0.00811777788,0.0805040838,0.151565119,0.061375336,0.106119951,0.0387745309,-0.143223648,-0.0790711569,-0.00335908386,0.213903415,0.0749674583,-0.0647831971,0.0436979493,-0.169985503,0.100821995,0.082170776,0.0239381417,-0.0607203985,0.111634066,-0.0998363223,-0.0357285576,-0.0476755132,0.0483835387,0.0531077454,-0.133152948,-0.134593372,-0.0114300364,0.0506023413,0.181694838,0.0507324621,-0.099876034,-0.0938612333,0.119256419,-0.0667724494,0.0530504725,-0.117304756,-0.139586952,0.0570950506,0.0835706531,-0.087811005,-0.128773888,0.0699463478,-0.139171431,0.00685144211,-0.184732483,-0.172693534,-0.0838889595,0.0269707268,-0.000127518535,0.141192203,-0.00485706679,-0.158231719,0.0883215587,0.0664299279,0.00322713289,-0.100402712,0.139908936,-0.18258489,0.00630282979
-0.0920574618,0.135168331,-0.0339190952,-0.075851643,-0.067311272,-0.0248784756,-0.0395129024,0.000919215959,-0.0843341383,-0.0593125523,-0.128777168,0.0520843964,0.0632430527,-0.0174939902,0.0300112657,0.185981885,0.0400006474,0.0383081441,-0.0372621647,0.00538951312,0.066367874,-0.10585796,-0.0437113147,-0.133773381,-0.119048041,0.0574533106,0.0441518471,0.135255066,-0.132819647,0.0191300859,0.0159090394,0.0900752465,0.041577863,0.021103177,-0.197727792,0.0287286938,-0.111751215,-0.0729640483,0.0423884324,0.0244047865,0.0851227406,-0.0611939201,-0.197350401,-0.0605368766,0.0934461338,-0.054540911,-0.0704706867,-0.12480182,0.0351327166,-0.13573918,0.0155757623,0.00324608556,0.0550921522,-0.0514589083,-0.0613575386,0.0599436964,0.0599661183,-0.0138704583,-0.0237565138,-0.0889330634,0.100083034,0.00672535061,0.158385349,0.061735583,-0.0591123086,0.01829864,0.0521236524,-0.094592488,-0.0412573337,-0.040317441,-0.18616977,-0.133987726,1.38614343e-05,0.0547157303,-0.0601527661,0.0991085899,0.0863813506,-0.0281294628,0.0324206897,-0.0324173352,-0.188055891,-0.0550188577,-0.0727783359,-0.0550922055,0.0333191819,0.0564857984,-0.0501610385,0.0270071704,0.242889156,0.0572771483,0.0985227092,0.045533683,0.0994953838,0.119147898,0.0892453554,0.239864568,0.0887376995,0.0607168494,-0.0468494412,-0.0678701149,-0.0835796864,-0.0693768951,-0.177252088,0.0491985675,0.204996456,0.077432426,0.10709026,-0.0104343839,0.0305282552,-0.109313367,0.119596452,0.101013045,-0.0413631268,-0.0202249149,-0.18968157,0.193039089,-0.0102596252,-0.0316534081
-0.0920574618,-0.139842595,-8.22258928e-16,-0.147645168,4.16333634e-16,-0.0518688795,-0.202190615,0.117030956,-7.77156117e-16,-1.2490009e-16,0.216764486,5.06539255e-16,3.60822483e-15,-0.0919631599,0.0353333752,0.154260009,1.1969592e-15,-1.2490009e-16,-0.00133195356,0.0293085202,-7.84178278e-13,0.124342162,-3.26128013e-16,0.032880105,4.57966998e-16,5.17294541e-15,-0.0759000912,0.0412094785,-1.07552856e-16,-0.0668927366,-0.0518395447,-4.30211422e-16,-0.0600320556,0.219013185,7.93809463e-15,-0.0228824401,-3.46944695e-16,1.08246745e-15,0.0113090741,8.49320614e-15,0.279138965,-0.0687342667,-8.67361738e-16,3.44863027e-15,-0.212563879,1.02137049e-13,0.205456073,-3.04617442e-15,0.105328574,-7.9068696e-15,0.00769802803,-0.291440968,8.32667268e-16,0.0719404407,-0.108924818,1.18672433e-14,-0.242669105,3.20576898e-15,0.0211262278,-2.31065167e-15,0.165926904,1.53436291e-15,0.223786609,-0.170213332,-3.64985819e-15,-1.19487753e-14,-0.24049129,6.4878658e-16,-2.53269627e-16,0.172903493,3.40005801e-16,0.173105589,-4.85722573e-17,0.00506168803,-0.0503852059,-1.70245762e-14,0.219306504,5.4609095e-15,0.107587978,0.0339286493,-1.88737914e-15,0.0842251737,-3.53536644e-15,0.148686448,0.0692793856,1.8769708e-15,-0.0321546138,-5.55111512e-16,6.66133815e-16,-0.077461448,2.30197805e-14,0.114185245,0.103537267,1.76560155e-14,-0.0331417722,5.55111512e-17,-0.0159522944,0.0881018669,1.12410081e-15,4.51028104e-16,0.033235852,-4.23272528e-16,-0.0294216896,7.53563878e-15,-0.096031109,0.0376279526,1.78676518e-16,7.84095011e-16,0.000355920771,0.0112915918,0.0962638793,-0.00541682032,8.74300632e-16,4.99825875e-14,0.0336151562,0.00892347638,-0.026413596,0.0121743493
-0.0920574618,-0.0923374574,-1.70002901e-16,-0.00124696486,-1.38777878e-17,-0.13740813,0.102037732,0.12844772,-1.55778168e-15,7.3378803e-16,-0.121688185,-2.91433544e-16,7.45931095e-16,-0.0247558555,0.119826875,-0.11623684,-1.11022302e-15,2.35922393e-16,-0.124620568,0.156959769,1.07224993e-13,-0.0170600851,-8.18789481e-16,0.0534626061,3.1918912e-16,1.10883525e-14,-0.159179687,0.0756349956,-2.42861287e-16,0.0132678665,0.170245322,4.16333634e-16,0.127850846,-0.0818709475,-5.19723153e-15,0.218642656,-1.12410081e-15,1.22991894e-15,0.076311874,-3.81986109e-15,-0.141937224,-0.119753555,1.29063427e-15,2.19269047e-15,-0.0776138215,1.08801856e-14,0.0232826444,7.00828284e-16,-0.0623254954,2.22738494e-15,0.0712474368,-0.0974863273,1.66533454e-16,0.0666550346,-0.118358862,1.1837753e-14,-0.230463965,4.19803081e-15,-0.111942121,-3.21270788e-15,-0.0762096161,1.51961776e-15,0.149548617,-0.0770617333,-1.0269563e-15,-2.52922683e-15,-0.075724413,-1.22124533e-15,1.51961776e-15,-0.183264305,8.32667268e-16,-0.0492870801,9.08995101e-16,0.0416178554,-0.0647050898,8.29891711e-15,-0.117664559,-1.13589693e-14,-0.259947472,-0.0220866242,-2.40085729e-15,0.0316545923,-1.76074433e-15,-0.152139245,-0.182251556,-1.91513472e-15,-0.0523696977,1.79023463e-15,3.35842465e-15,-0.0399090686,-7.01938507e-14,-0.258004167,0.0892562917,5.62223879e-15,-0.0157303698,1.01099684e-14,-0.153228339,-0.0477785233,-2.52575738e-15,-3.83720833e-15,0.0948911272,1.7590096e-15,-0.266923937,3.55618313e-15,-0.011421224,-0.0973949305,3.69149156e-15,5.02375919e-15,0.0312453564,0.208008256,0.241555529,-0.13363852,-8.92732069e-16,8.69616879e-15,0.007615461,-0.0236118946,-0.181483593,-0.0170954759
-0.0920574618,0.00540516926,3.81639165e-16,0.128396442,-1.94289029e-16,-0.131804914,0.0176161931,-0.0890987778,8.63892291e-16,-4.85722573e-16,0.139669893,6.0368377e-16,-4.54801127e-15,0.127512192,0.173849831,0.0278884653,5.55111512e-17,-6.45317133e-16,0.143245388,-0.0198261198,1.15532584e-13,-0.0183643758,1.34614542e-15,-0.165686436,-1.38777878e-16,-8.72565908e-15,0.118408821,-0.0412400245,2.11636264e-16,0.0529570255,0.159302347,8.32667268e-17,-0.146989846,0.107026599,2.50147125e-15,0.118268178,-9.50628465e-16,-2.77555756e-15,-0.17317261,1.66533454e-16,-0.00904786698,0.0821735583,-9.00321484e-16,-2.7339242e-15,0.0866721549,2.96707103e-14,0.0582046579,-4.99600361e-16,-0.141397889,7.93982935e-15,0.168479768,-0.00299799638,-5.29437605e-15,0.165952001,-0.0224038524,9.05525654e-16,-0.143007866,2.35922393e-15,-0.116007085,-2.38351006e-15,0.0678871328,-1.03389519e-15,-0.121764846,-0.181544825,4.16333634e-16,9.38832345e-15,0.189020134,1.61676228e-15,1.68615122e-15,-0.0764135716,4.71844785e-16,-0.0564919858,2.06779038e-15,0.0418530886,-0.208375982,-3.07046055e-16,0.0182390475,2.5231553e-15,-0.0368354513,-0.177650186,7.11930515e-15,-0.0933412366,2.81719092e-15,0.0168434141,0.185457895,4.16333634e-16,-0.179774845,-1.66533454e-15,2.32106001e-15,-0.122960713,4.44227988e-14,0.191554142,0.0393045299,1.39055434e-14,-0.098965715,3.81639165e-15,-0.0330739134,-0.122558303,-5.13478149e-15,5.70377079e-15,-0.280033957,1.23512311e-15,0.0713296946,2.34534614e-15,-0.0495591493,-0.195518965,-1.12410081e-15,-2.80331314e-15,-0.108730779,0.0940310425,-0.143144432,0.0393928332,2.70616862e-15,-3.14297199e-14,-0.0196779545,0.114739606,-0.271856459,0.000948811037
-0.0920574618,0.101527998,1.42941214e-15,0.038781896,1.73472348e-16,-0.0625288273,-0.149824668,-0.0749877879,1.03476255e-15,-4.28476699e-16,-0.155531338,-4.37150316e-16,5.32213162e-15,-0.142425179,0.0865648552,0.0642148924,6.24500451e-16,5.75928194e-16,-0.096584384,-0.16656183,2.26145491e-13,-0.0357570385,-1.78676518e-16,0.0187126758,-8.32667268e-17,1.12618248e-14,-0.152837798,-0.148244596,-2.68882139e-17,-0.130123586,-0.00238288277,6.80011603e-16,-0.161746914,-0.182856032,-6.22505519e-15,-0.0461727642,7.32053307e-16,-1.8179902e-15,-0.118674468,2.22044605e-16,-0.016238943,-0.0107026323,-7.21644966e-16,2.01921813e-15,-0.211551973,1.22991894e-14,0.0243032224,-3.35668993e-16,-0.0811403686,4.06619183e-15,-0.077291805,0.0905223171,-4.7219173e-15,0.0866191452,0.135636512,-1.59247615e-14,-0.0655764798,-2.11636264e-16,-0.0612328943,-1.50573998e-15,-0.103609983,-2.67147415e-15,-0.0590423502,-0.276568889,-1.13624388e-15,3.83026943e-15,0.0658924394,2.72351586e-15,-2.41993925e-16,0.0812517301,3.17671237e-16,-0.0411363465,-7.14055551e-15,-0.247622143,0.133774329,5.6378513e-16,-0.0197526826,-2.99304852e-15,-0.0380706052,-0.125451472,7.54236083e-15,-0.0407068692,-2.34599666e-15,0.277754225,0.01436834,1.96340882e-15,-0.12947247,-7.45388994e-16,-2.00056985e-15,0.17638746,-4.13419299e-14,-0.207065272,-0.0983451192,-2.14533252e-14,-0.106710559,1.85008259e-15,-0.00473090546,0.0114258842,1.27892488e-15,-4.36976844e-15,0.183906217,-2.77902701e-15,-0.0137285491,1.09023034e-14,-0.103348354,0.0781047554,2.178379e-15,1.68311545e-15,0.121169674,-0.0633092936,0.0169912474,0.166178561,-2.43902121e-15,-3.56995683e-13,-0.238220872,0.241778896,-0.0885479208,-0.0537058047
-0.0920574618,0.172938946,2.47024623e-15,-0.215563241,3.1918912e-16,-0.0554892941,0.127602139,-0.0712115107,3.78169718e-16,-3.15719673e-16,0.0925252718,4.37150316e-16,2.10248485e-15,-0.044879936,-0.00639405695,-0.0612188193,-5.93275429e-16,1.65611882e-16,-0.0810987681,-0.0539309322,-1.06453041e-13,0.0169704359,8.58688121e-16,-0.101379476,-4.78133158e-17,-2.56110237e-15,0.0254932952,0.1365445,-2.67147415e-16,-0.0121158445,0.0255645082,-1.38777878e-17,0.125479092,0.109074572,4.91273688e-15,-0.151768561,8.46545056e-16,-7.15573434e-16,-0.0137007148,-5.24580379e-15,-0.180987504,0.137934281,-2.34534614e-15,-9.36750677e-16,-0.106398916,4.33385966e-14,0.0866287075,-1.94462502e-15,0.0239175253,-1.80584714e-15,-0.000204126848,-0.0478185558,-3.81986109e-15,0.10673215,0.0610698086,-7.80625564e-15,-0.0321635214,5.04804532e-16,-0.00220550746,-7.05165093e-16,-0.19551439,-5.02722863e-15,-0.204478831,-0.0646328794,-1.84574578e-15,-2.99760217e-15,-0.0705890163,2.01227923e-16,-2.15279183e-15,0.167035015,-1.84574578e-15,0.278735295,-1.79023463e-15,-0.0428249802,0.0978031105,1.6549262e-14,-0.228539664,-1.47406501e-14,-0.319534284,0.0712699923,-6.28056634e-15,0.0793687364,3.46944695e-17,0.0394888572,0.18991034,4.22329272e-15,0.177329012,8.24861013e-16,3.95516953e-15,-0.213237021,2.8844982e-14,0.164751555,0.0616819616,1.31249178e-14,0.198292451,-5.17121068e-15,0.10490371,-0.17950638,1.07813064e-15,3.46597751e-15,-0.0623631406,2.74780199e-15,-0.197630208,-8.86443696e-15,0.125367145,0.0915685405,-5.53376789e-16,-2.38025745e-15,-0.00679096313,-0.0873648079,0.0600358344,0.0304706643,-7.96238075e-16,-1.34764595e-13,-0.0899428761,0.0912428117,-0.000957255376,-0.0101422757
-0.0920574618,-0.119827728,0.0423937151,-0.0822558236,-0.0626698167,-0.0746742721,-0.0402194399,0.108634082,0.016087309,0.0727266036,-0.0278755324,-0.0428369769,0.0961082196,-0.0945277923,0.00927068332,-0.11209935,0.00375327806,-0.112900007,0.0837748391,0.0830303249,0.0575257356,-0.0949560563,-0.0552530891,-0.16517996,-0.0711117502,0.0632522179,-0.037961713,-0.116448803,0.1800569,-0.0130317893,-0.082571025,-0.00172637497,0.00214823586,0.046525915,0.0737113002,-0.047960167,-0.185004909,-0.0141399293,-0.0201349486,-0.0216430143,-0.0232779884,0.0428902227,-0.132560353,-0.114285554,0.0410281786,-0.0485565178,-0.090724512,0.133832755,0.0124207248,0.200627651,0.00735125672,0.0981113462,-0.0262679764,-0.0992857536,0.0475608746,0.0113481668,0.107121878,-0.143483323,0.0815444225,-0.045169103,-0.0652214177,0.0686980407,-0.081540243,-0.00480341839,0.055188811,0.0216431661,0.140576392,-0.085669748,-0.0716348131,0.0213819726,-0.0524492391,-0.00349832331,-0.0853322407,0.0447735567,-0.0415851657,-0.099833073,-0.00638558971,0.193526508,0.0873836804,-0.0420685556,-0.0243990146,0.0803269586,-0.129754534,0.0826055136,0.0362690541,-0.00668791554,0.102020405,0.0634014415,-0.256830857,0.037545915,0.100096338,0.0831375082,0.127908669,0.0242378192,-0.0520274585,0.212834732,0.0556028582,0.0587772679,-0.0510353249,0.0215297837,-0.0653412844,-0.00338323451,-0.0483618225,-0.15426657,-0.243380067,0.0391149662,-0.100031981,-0.0276097821,0.0869573446,0.0300080342,0.314023641,-0.0804343104,-0.0355851469,-0.0411149016,0.0387495015,-0.019351868,-0.114029908,0.0228716832
-0.0920574618,-0.0481723257,0.0394120967,0.0775635498,-0.0123740936,-0.130882558,0.126203562,0.0223204981,-0.0903204865,0.0767828232,0.00903845236,-0.0625105212,0.0159391096,0.116090252,0.104866811,0.100853587,0.0100129746,0.0814181257,-0.120247771,0.00661687157,0.032507917,0.0698826228,0.1833022,0.0437835413,0.0705986856,0.0460379332,0.04947154,-0.112185193,-0.0137027923,-0.088203494,-0.0187722024,-0.120288583,0.0865574218,0.0119808166,-0.108688378,-0.121542068,-0.11474262,-0.0711076966,0.0332824283,0.167040875,0.0556530188,0.0034395013,0.0993144676,0.110605988,-0.00225496405,-0.0935115258,-0.0679272126,0.0023666028,0.0472987461,0.139542323,-0.0344621534,0.0505649556,0.0636717093,-0.0913174862,-0.00645231442,-0.0232315226,0.135532096,-0.0436031837,0.0918717509,-0.178160763,0.0194513044,-0.0500091344,-0.0300894184,-0.0119173651,-0.143309294,-0.0218390418,-0.0586988088,0.152364296,-0.0156192376,0.0454458667,0.0689930518,0.128376269,0.105014956,-0.00270324302,0.132649178,-0.0974843882,0.122202365,0.00215955937,0.0847425371,0.0414170226,-0.189341629,-0.10585656,-0.151840476,0.018699,0.0208220373,-0.128447193,-0.0156690241,0.0380376633,-0.0118362996,0.0459629515,0.0835490836,-0.0813842131,-0.0454014801,0.0256234909,-0.00543302793,-0.176364282,0.161518324,-0.116945216,-0.222015113,-0.0163926126,0.071551713,-0.04163196,-0.0318974549,0.0977972301,0.152830673,-0.135196537,-0.0594144402,0.0747897735,-0.175092333,0.143021494,0.050133109,-0.0502954011,-0.106485024,-0.0334075553,0.0404751283,0.0313215306,-0.252286766,-0.0122276588
-0.0920574618,0.0569611873,0.0350227364,0.114529409,0.0447314828,-0.0890108578,-0.116222567,-0.112707986,-0.0371987237,0.0870456016,0.0355897512,0.110923731,-0.0648094983,-0.0594213307,0.0697947302,-0.124259415,-0.00749073484,-0.0713872557,0.1155696,-0.0618910323,0.113434647,-0.00151808038,0.0683326104,0.0866652588,-0.100689956,-0.1269483,-0.0751924352,0.0734276283,-0.036333039,0.0471639944,0.0596327952,0.113364704,0.0722596439,0.0453650174,0.0490662628,-0.0917583357,0.01089666,0.0083898284,0.114562107,0.163564703,0.0220149547,-0.0414901146,-0.0468071332,0.00608687206,0.0414022357,0.220383411,-0.0616186707,0.0595850764,0.0559897949,-0.0245744974,-0.0279950314,0.0174381077,-0.00675973216,-0.11427637,-0.018617355,-0.109318755,0.0408637637,-0.141735427,0.0195282487,-0.00811777788,0.0805040838,-0.151565119,0.061375336,0.106119951,-0.0387745309,0.143223648,-0.0790711569,0.00335908386,-0.213903415,0.0749674583,0.0647831971,0.0436979493,0.169985503,0.100821995,0.082170776,-0.0239381417,-0.0607203985,-0.111634066,-0.0998363223,-0.0357285576,0.0476755132,0.0483835387,-0.0531077454,-0.133152948,-0.134593372,0.0114300364,0.0506023413,-0.181694838,-0.0507324621,-0.099876034,0.0938612333,0.119256419,-0.0667724494,-0.0530504725,-0.117304756,0.139586952,0.0570950506,0.0835706531,0.087811005,0.128773888,0.0699463478,0.139171431,0.00685144211,0.184732483,-0.172693534,-0.0838889595,-0.0269707268,0.000127518535,0.141192203,-0.00485706679,-0.158231719,0.0883215587,-0.0664299279,-0.00322713289,-0.100402712,0.139908936,-0.18258489,0.00630282979
-0.0920574618,0.135168331,0.0339190952,-0.075851643,0.067311272,-0.0248784756,-0.0395129024,0.000919215959,0.0843341383,0.0593125523,-0.128777168,-0.0520843964,-0.0632430527,-0.0174939902,0.0300112657,0.185981885,-0.0400006474,-0.0383081441,-0.0372621647,0.00538951312,-0.066367874,-0.10585796,0.0437113147,-0.133773381,0.119048041,-0.0574533106,0.0441518471,0.135255066,0.132819647,0.0191300859,0.0159090394,-0.0900752465,0.041577863,0.021103177,0.197727792,0.0287286938,0.111751215,0.0729640483,0.0423884324,-0.0244047865,0.0851227406,-0.0611939201,0.197350401,0.0605368766,0.0934461338,0.054540911,-0.0704706867,0.12480182,0.0351327166,0.13573918,0.0155757623,0.00324608556,-0.0550921522,-0.0514589083,-0.0613575386,-0.0599436964,0.0599661183,0.0138704583,-0.0237565138,0.0889330634,0.100083034,-0.00672535061,0.158385349,0.061735583,0.0591123086,-0.01829864,0.0521236524,0.094592488,0.0412573337,-0.040317441,0.18616977,-0.133987726,-1.38614343e-05,0.0547157303,-0.0601527661,-0.0991085899,0.0863813506,0.0281294628,0.0324206897,-0.0324173352,0.188055891,-0.0550188577,0.0727783359,-0.0550922055,0.0333191819,-0.0564857984,-0.0501610385,-0.0270071704,-0.242889156,0.0572771483,-0.0985227092,0.045533683,0.0994953838,-0.119147898,0.0892453554,-0.239864568,0.0887376995,0.0607168494,0.0468494412,0.0678701149,-0.0835796864,0.0693768951,-0.177252088,-0.0491985675,0.204996456,0.077432426,-0.10709026,0.0104343839,0.0305282552,-0.109313367,0.119596452,0.101013045,0.0413631268,0.0202249149,-0.18968157,0.193039089,-0.0102596252,-0.0316534081
-0.0920574618,-0.128152996,0.0890447921,-0.12085861,-0.149471194,0.0132173834,-0.136030343,-0.0349113793,0.150871282,0.0905806549,0.0633643618,0.0893672798,0.113668648,0.09684298,-0.0163804445,0.0151897255,0.168352829,-0.0392719039,-0.0647524322,-0.0682280651,-0.0351136962,-0.065632793,0.0219858671,0.049508387,0.0471259124,-0.0409422185,0.0775817905,-0.0437354034,0.0545524465,0.0916984077,0.0428811799,0.0276797704,0.093621884,-0.17952771,-0.0982129183,-0.0691691189,-0.0901453055,-0.0258696127,0.000258345321,0.000379874397,-0.15065443,-0.0906358237,0.157080498,0.0761282642,0.218186231,0.0845250128,0.058836863,0.0909175202,-0.115950964,-0.272809888,-0.0467785321,0.124886804,-0.0390431837,0.16272056,0.0788897374,0.106674336,-0.000973827345,0.0876529699,-0.16028368,0.16977975,0.00446945222,-0.00872918542,0.0980314823,0.141318674,-0.114394582,-0.24584326,-0.14247199,0.110160284,-0.12405439,-0.0568379098,-0.0981086261,0.154517186,0.162804632,-0.129191568,0.0594674754,-0.0990284456,0.121212469,0.0482036753,0.0665310867,-0.114153223,-0.0404459114,-0.0568479078,0.072056806,-0.0102951848,0.101573585,0.00647093792,-0.011517523,0.0777572053,-0.0752925286,-0.0780485089,-0.0372004712,0.0669135399,0.0051738509,-0.00322914019,0.0168516,0.107268638,-0.0696284072,0.066606229,-0.0164962899,0.0374625845,0.0331759268,-0.0307987051,-0.0035084169,-0.0458008506,-0.043223615,0.0317275487,-0.0616976106,-0.0143357083,0.0228946746,-0.00608461189,0.0737633368,-0.0147464025,-0.0241704364,-0.0162766749,0.0332719651,0.0100062012,-0.0280090889,0.00220363944
-0.0920574618,-0.0883416581,0.0680022458,0.00143981088,-0.0660323275,-0.0936521765,0.105926699,0.0767460485,-0.0913189378,0.125666678,-0.128358935,-0.168129977,0.109261553,-0.0396061071,-0.0383297754,-0.0569351904,-0.112938041,-0.061221129,0.00936851761,-0.0758239222,0.151525604,0.0199961064,0.037035447,0.114129697,0.0851234243,0.153031604,0.0738253332,0.193705242,-0.0853071801,0.101321125,-0.035197173,0.132041644,-0.213315221,-0.00829548479,0.111902708,-0.0646904129,0.117606131,0.0485479033,-0.0974497087,0.00408304829,0.122193106,0.109173209,0.0313552155,-0.0133835379,0.0853469115,0.024442071,0.157344293,-0.0586222709,0.0148122294,-0.210988697,-0.113996111,-0.041656519,-0.0435348571,0.133081507,0.143962135,0.0759300243,0.0722067737,0.174240441,-0.0166875476,0.126954378,0.149230678,0.144831799,-0.0333857533,0.151977124,-0.0320018455,0.185905327,0.0462862782,-0.0497822605,-0.0472497028,0.0938022962,0.20649096,-0.0888192325,-0.0944700928,-0.0770380655,0.0287215052,0.0266376262,-0.115519784,-0.111930449,-0.0212709226,0.156821012,-0.121614747,0.0559260999,-0.115303506,-0.010107171,-0.0682562587,0.0515738686,-0.183220816,-0.00222581124,-0.0912295047,0.0135442678,-0.00335157477,0.0501992102,0.0366232334,-0.0182966465,0.011607345,0.0258003928,-0.0324772534,-0.0445142032,-0.129252238,-0.0178505078,0.0558866014,-0.0222907491,-0.00800777294,-0.0429583222,0.0133792591,-0.0158064194,-0.0839397784,-0.00618500479,0.0119490221,0.0219257976,0.0983002449,-0.0548804528,-0.0663752428,-0.0295832649,0.0104193843,-0.0103130229,-0.0896529355,-0.00420557126
-0.0920574618,0.00603315524,0.0749659421,0.113072939,0.0381368824,-0.0626893585,0.0234319248,-0.0501976947,-0.133756014,0.106157349,0.123039575,0.0648679922,-0.05791373,0.0509041323,-0.0735332148,0.0364082598,0.116689635,0.11579859,0.0235628078,0.0542445629,0.00967642255,-0.068731784,0.104214697,-0.0920263705,-0.11853304,0.0144842223,-0.0349598192,0.0681976553,0.1643672,0.00622606047,-0.161518671,-0.0428039239,-0.0335071698,-0.162900565,0.028418227,0.0849563814,0.0926823815,0.0572939656,0.0428954522,-0.0591695282,-0.0512097378,-0.0320966941,-0.0155837171,-0.101952452,-0.122037336,-0.0648554946,0.0767008919,-0.0817748465,0.087405208,-0.0962674142,-0.157170152,-0.0815145293,0.00801626696,0.00768023594,0.0321599221,0.010032464,0.00371430661,0.0222124818,0.0127056246,0.0744582944,-0.153839967,0.17641455,0.0402587577,0.15673219,0.0777659581,-0.000642631008,-0.0110530513,-0.0155374074,0.171145322,-0.0748873918,-0.11218872,-0.0923752828,0.120905137,-0.0321997296,-0.0453146687,0.126079455,0.0648599003,0.0929761128,0.00603968365,0.120754422,0.124724376,0.0629168065,-0.0545060289,0.162063575,0.0282185992,0.0726889905,0.160380565,0.129795384,-0.0858862983,0.061698698,0.076473564,-0.00193270564,-0.0350972074,0.104590661,0.13310792,-0.0646454458,-0.146001902,0.10326685,-0.0187955333,0.151084183,-0.127828209,0.0893554178,-0.0385058724,0.208017559,-0.00243520744,-0.0312018142,0.000389451163,0.0778017816,-0.0435940482,-0.0181739291,-0.131193467,0.0368036798,-0.231431702,-0.0208941018,0.0011375476,-0.00757700509,-0.244546573,-0.0132810478
-0.0920574618,0.0883220108,0.0666413031,0.0532879654,0.106341148,-0.01879615,-0.12253215,-0.00569354339,0.029732421,0.116502199,-0.0884757001,0.118676449,-0.0547515666,-0.0422345749,-0.0553603768,-0.0248830687,-0.121144382,-0.137371807,-0.0904008745,0.0588550026,-0.00154210144,0.0976411719,0.00165058383,0.0451925655,0.135095373,-0.0536967958,0.112910799,-0.112075275,-0.0537810083,0.0144881525,-0.07332618,-0.0983585812,0.0125196926,0.0917906989,-0.0311103445,0.110762463,-0.108726158,-0.0202164906,-0.0303935118,-0.062057808,-0.0846177742,0.0818137178,-0.0313599133,-0.0785332197,0.0973139896,-0.13382404,0.104018225,-0.117397587,0.00695979298,-0.0444971822,0.124777543,-0.126677692,-0.0287358591,0.0763882989,-0.0723495054,0.120683519,0.0336488397,0.0918426661,0.109185118,-0.00717916281,-0.116965856,-0.0629830696,-0.0874626571,0.122989552,0.0116174224,0.039892242,-0.0744568108,-0.148513919,0.0916305644,-0.0426713967,-0.180599396,0.0401490565,0.0495179247,0.027548408,-0.0893662829,-0.0224782481,0.0102906492,0.0326722731,0.189264253,0.110840608,-0.201694541,-0.0335057749,-0.0147292805,-0.033540767,-0.102085919,-0.0126136372,0.0867859539,-0.0773818169,0.0132392958,-0.109476188,-0.00223556886,-0.0836169874,0.0195250702,-0.20988833,-0.0525974178,-0.0648821624,-0.112322991,-0.141604113,0.049364433,0.0794909162,0.0359936322,0.252731787,0.148263075,0.00581899187,-0.0290846438,0.0824606223,-0.221486917,0.0412110617,-0.00920223727,0.0487128292,0.0772762775,0.0868454985,0.0792521648,0.0757488942,-0.170889324,0.174636805,-0.00726224901,-0.0483835125
-0.0920574618,0.163936836,0.0395704014,-0.186626566,0.0919982006,-0.0326931839,0.099117989,-0.017776339,0.19152791,0.0965957421,0.0444836331,-0.284145144,-0.277399626,0.0475675477,-0.00206068339,0.0403254212,0.222295739,-0.0220824499,0.235257661,0.188737693,0.120430414,-0.163895151,-0.0710372947,0.360406849,-0.0450342162,0.0304161303,0.0019823449,-0.187017063,-0.0798533954,-0.0985220228,-0.0217097782,0.020019987,-0.141903511,-0.0604810625,-0.0587103797,0.0953068157,0.011492544,-0.371679847,-0.0457948768,-0.00164309192,0.0715214454,-0.121343201,-0.0351453935,-0.156542534,0.0651656407,-0.0161925103,-0.0961149552,-0.0824625774,-0.0415363456,-0.0797423201,-0.0196991199,-0.0679226146,-0.0338057557,-0.0144259774,0.0703252959,0.0211727592,-0.0588902005,-0.0454643142,0.0579437619,-0.0475719888,-0.0034486632,0.00313161141,-0.077594339,0.047189639,0.0456886767,-0.0393330176,-0.0681503124,0.0297544745,2.14607289e-06,-0.0140600759,0.0782282228,0.0439898399,-3.96558962e-06,0.0641468307,-0.00944945068,-0.0408477677,-0.0436585531,0.00783779573,-0.0255734808,-0.00815837584,0.0390184861,0.0291068795,0.0149690934,-0.000790411554,0.0647612582,0.0156858969,-0.0248633277,-0.0300878538,-0.034165267,0.00306429729,-0.0117611832,0.000533851717,0.00403533328,-0.0049496,0.037205117,-0.039650055,0.0270604928,0.00729076696,0.00316874081,0.0357009343,-0.0107370707,-0.0064646631,-0.0310617534,-0.0215635556,0.0232821085,0.0128467027,-0.00453085169,0.0157782095,0.00527686649,-0.0116868043,0.0133990936,0.0158747352,0.00203974557,0.00541850238,-0.0198472505,0.0178035809,-0.0019387004,-0.00575508421
-0.0920574618,-0.0485396825,0.107347668,0.0516616309,-0.0369271193,-0.00677975636,0.10346385,-0.0171618537,-0.148635471,0.0688003062,-0.00239751273,-0.0995863764,-0.0103424478,-0.0345657655,-0.162267352,0.118196026,0.0111463297,0.0757751955,0.0308727618,-0.118713884,-0.129609869,0.0163114736,-0.00882241244,0.0390204482,0.0671034873,-0.147816685,-0.110936595,-0.0358469989,-0.0978882969,0.0489370274,-0.0903449182,0.0130805306,0.0284767602,0.135924648,-0.0404598563,0.0170037136,-0.0562731446,-0.0131716383,0.0345396011,-0.164830088,-0.107944658,-0.0763609403,-0.112811491,-0.0251296002,0.0491744741,0.121115917,-0.080061526,0.138515697,-0.104981081,0.0282060989,0.146164329,0.0750575335,-0.0813249577,-0.0284073341,0.0147845512,-0.00561015216,-0.125788128,-0.0744135682,-0.0758787461,0.0853999097,-0.0187039471,-0.129626174,0.0721626171,-0.0597672175,0.0814516463,-0.116635196,0.0210936213,-0.0335300571,-0.0226022403,0.167246281,-0.0449648134,-0.0311894753,-0.165640694,0.00539223812,-0.126426034,0.0704238418,-0.144597619,-0.0504552057,0.108116124,-0.0508682563,-0.0201298271,0.141946807,-0.0240095965,-0.054138624,0.0125444204,-0.060361605,0.0593160767,-0.145747531,0.0775646513,0.0896395155,-0.211006123,0.0916750481,-0.0573067789,0.162957577,0.0387247869,-0.058677251,-0.0722163443,0.00691750616,-0.112835345,-0.00254458329,0.185482486,0.0578177308,0.122279149,-0.010834088,0.164852045,0.0599307915,-0.163771714,-0.05303525,-0.0602766599,-0.124780907,0.0280021714,-0.0581594946,-0.248142153,-0.0482718372,-0.0068342441,-0.0575971536,-0.188141199,-0.00723833363
-0.0920574618,0.0601764484,0.0890488856,0.0859938813,0.110790043,0.000626025721,-0.082103547,0.00604485038,-0.0319934891,0.111490216,0.0196359977,0.156662635,-0.0426120457,-0.00939778969,-0.1413311,-0.0938682731,-0.0258727198,-0.067098896,-0.0823001976,0.151660986,0.0423195102,0.0517028082,-0.0920650815,0.0402737278,-0.00840679484,0.115240444,0.145447963,0.0406324015,-0.0829266996,-0.0417111138,-0.0419276432,0.00390837061,0.0573794481,0.044404529,-0.12623478,0.00920743243,0.0274997591,-0.0316089892,-0.0889008157,-0.141342666,0.0209559385,-0.0510012739,0.0597536327,0.0694730871,-0.0255040732,-0.182628185,-0.0454668514,0.0963389098,-0.0965308947,0.0973186739,0.124440177,0.0486619114,-0.0539593073,0.0954804866,0.0867945996,0.100676223,0.0703960965,0.0769149286,0.113457589,0.0035394702,0.0477621763,-0.0698657035,0.0722687731,-0.200134344,0.00731327983,0.019630333,-0.038580284,0.0711034802,-0.0658493157,-0.0774984008,-0.0366480992,-0.0561200131,-0.153791774,-0.181636523,-0.00924877833,-0.00623053314,-0.111198073,-0.216722926,0.102577225,0.0852063123,0.0172546636,-0.0531297074,0.132483864,-0.0919045381,0.0224888263,-0.151595242,-0.0185001163,0.0020989884,-0.166159249,-0.0635087456,0.07134178,-0.0363914296,0.0788630827,-0.0373676814,0.110762489,0.0724430032,0.177884202,0.1325469,0.0774144613,0.0551691514,0.000866355883,-0.0623518423,-0.125084095,0.0167923952,-0.0480018378,0.0644601671,0.228753599,0.115853169,0.116956956,-0.00348463708,-0.149527029,0.0549329388,-0.203124211,-0.00683096131,0.0745256196,-0.126859752,-0.118102829,-0.00832414465
-0.0920574618,-0.0961932664,0.112402113,-0.0403157987,-0.125490583,0.0254714854,0.0242589048,-0.0532754124,0.00588747188,0.0632335239,-0.0852710964,-0.0626089662,0.0300406129,-0.00795762223,-0.0990685429,-0.026841436,-0.08703659,-0.0502892061,0.130369976,-0.114377229,-0.0112738148,0.0214770798,-0.143165529,-0.0367173219,-0.137818101,-0.124274023,0.173052248,-0.0354244191,0.0389284715,-0.101273402,0.0816065528,-0.110499993,0.0663518908,-0.0754187384,-0.100390089,0.0529289125,0.135664319,0.00220598186,0.0503426311,0.0199690996,0.0262812695,-0.0219216687,0.0622699856,0.0647277956,-0.171642062,-0.0204070159,-0.0445070531,-0.17318022,0.0770079534,0.0485796861,0.0324219304,-0.088934039,0.118545793,-0.0336690726,-0.165861631,-0.105254649,-0.0405819847,-0.00847685631,0.0111538842,-0.0889415357,0.022113643,-0.0865292036,-0.0997393314,-0.0192267264,0.00575135963,0.015484324,-0.0570358444,-0.0424327223,0.134497458,-0.0617697288,0.00930277519,-0.0918059914,0.0646293462,-0.0185496673,0.126181099,-0.0197843357,-0.0140569448,-0.167965511,-0.0470409812,0.0366643982,0.106042106,-0.227583046,0.0691871482,-0.0515694587,0.0319064614,0.0289994878,-0.0953418439,0.115543071,0.0572316547,-0.0513724859,0.00251399422,0.0956485083,-0.180907739,-0.159687486,0.125685919,0.145112098,-0.0428682663,0.0285604417,-0.0425099211,0.0874780213,-0.0286257017,-0.176436558,0.164936948,-0.11143834,-0.0115517323,0.065393131,-0.23965473,-0.081261782,0.129578296,-0.120648164,0.164399245,-0.0831365226,-0.145576285,-0.0470867168,0.0520442256,-0.00653028645,-0.103946798,-0.0149899474
-0.0920574618,0.00847541174,0.131397643,0.0761222881,0.0627851713,0.0894324849,0.0380885326,0.03324738,-0.100582334,-0.0356358011,0.088232065,0.0330876237,0.00278565342,-0.0566904776,-0.127373204,0.0164854699,0.121605325,0.0389684334,-0.0870747856,0.0415567182,-0.0617648082,-0.120804195,-0.188255489,-0.0149623742,0.075545748,0.085483564,-0.090850062,-0.0253456213,0.021611032,-0.0301167424,0.182630121,0.0370525473,-0.0565102348,-0.0508249346,0.169289062,-0.0742466169,-0.0560523236,-0.0219724401,0.0104139054,0.114419638,0.112648771,0.144688107,0.0297857342,0.086180249,0.0916646886,0.0929293487,0.0305909901,-0.114782841,0.0421789435,-0.00153183652,0.0466073504,0.001749241,0.0676618956,-0.00895265315,-0.144583227,0.0158978281,-0.00130784169,0.0522523685,-0.0721421032,-0.142439453,0.0304624428,-0.0634965317,-0.136574184,-0.00277806064,-0.112041763,-0.0291968276,-0.0656769858,-0.16429928,-0.0391353856,-0.0859612347,0.00945184339,0.0520762262,-0.0308602465,0.0892102955,0.207284664,-0.179364302,-0.018564528,0.0523586352,0.0569397936,-0.0984348659,-0.0165774535,0.056124923,0.0389784454,0.0563832809,-0.106618763,0.207755703,-0.026843958,0.070250933,-0.0183613608,0.0201704148,-0.0376725661,-0.063699553,0.203622792,-0.0164563077,-0.0984661484,-0.0915896909,-0.0745876904,-0.0386797696,0.159289495,-0.193139418,-0.0756511645,0.117066238,-0.0205749875,-0.0439076647,0.0735339679,0.216091012,0.065541702,0.00365292492,0.0107298866,-0.127993452,-0.100514185,-0.0104450814,-0.259225973,-0.0222083535,0.0244485222,-0.102960335,-0.14262842,-0.00424627055
-0.0920574618,-0.0498207628,0.152652525,0.01922426,-0.062513915,0.14448087,0.0736103837,-0.0866057614,-0.0499648631,-0.132093873,-0.0124828276,-0.0260938308,-0.116437835,-0.118866227,0.0383646016,0.0661082822,-0.0405950144,-0.0883764857,0.054769419,0.063854975,-0.111190408,0.0913102276,0.015698607,-0.0147868507,-0.0285165205,-0.0150879128,-0.0380371949,-0.0366447709,-0.00393754523,0.0527986937,0.0858301063,0.107534532,0.096318604,0.00578450338,-0.037084386,0.0278817248,-0.0501798498,0.0255476196,-0.141880287,0.128508593,-0.00373344848,-0.05392848,0.115176037,-0.102906314,0.0304347693,-0.147505736,0.0614294437,0.0682989121,0.029268251,-0.00975546769,-0.169659521,-0.0332782645,-0.0275652258,0.0255422341,0.0957015102,0.0197284427,0.150138428,0.0247935347,0.110080291,0.0193385437,-0.00679240557,0.169400632,0.0694422958,-0.048394089,0.0701709418,0.131221254,0.0663633426,0.133965751,-0.130949758,-0.0590647118,-0.0208231848,0.090735217,0.0745153393,-0.0153526514,-0.194006555,0.118106817,0.140925455,0.156002054,-0.181031578,-0.0136645426,-0.00456302692,0.119821189,0.140868876,-0.0230616018,-0.0282654516,-0.0620164982,-0.0379873076,-0.167629424,0.122755178,-0.142675013,0.162320962,-0.134425537,-0.108933406,-0.0285000334,-0.139777344,-0.0890968294,0.093512879,0.0213722267,0.140198189,-0.0988903803,-0.0541455829,-0.0806061929,0.124626837,-0.11700982,0.101753557,0.13006681,-0.124009576,-0.069610858,0.037803062,-0.144944136,0.0423570654,-0.0475446786,-0.165437641,-0.030734038,0.02290999,-0.0453378037,-0.089749314,-0.00783560162
-0.0920574618,0.0683862581,0.122974933,0.0392521906,0.154289666,0.111216027,-0.0283616078,0.161346119,0.0753035473,-0.0278150565,0.00547301716,-0.000663915294,0.14393767,0.116750883,-0.013999827,-0.0680261451,-0.0446589299,0.0852365319,0.0135948567,-0.0415631768,-0.018615755,0.0667921167,-0.0302299978,-0.0275042648,-0.070338017,0.0739027242,-0.0267067597,0.00797966638,-0.0759838237,-0.0622118703,0.0698441478,-0.0175591871,-0.0620103299,0.034020979,-0.0943662711,-0.0972651988,-0.0454020688,0.0242663235,-0.0716669713,0.0865142824,-0.0960646349,-0.088052805,0.00487745451,-0.109319038,-0.0276708209,0.134973358,-0.0575435347,-0.0137534325,-0.0629358734,0.0193296921,-0.140306595,-0.0793345028,-0.0600741527,-0.117041635,0.0353277973,-0.116662218,-0.115391297,-0.0565790318,-0.0260136131,0.154483627,-0.0181109761,0.0783679587,0.0212405426,0.142218321,0.103671475,-0.0146233039,0.0804149115,0.143770205,0.20563633,0.148587752,0.0990252457,-0.04072571,0.0494356696,0.0276377815,-0.143423463,-0.0572681933,0.125900424,0.0937753229,-0.0786297512,0.0213415916,-0.0678906031,-0.269538646,-0.110345858,-0.0507156337,0.0507122258,-0.145832084,0.0274362299,0.0182836263,0.0945397306,0.0411782412,-0.129284554,-0.0262552858,0.180192753,-0.240983026,0.020189463,0.145075698,0.0220658384,-0.178561251,0.0214804005,-0.0933172036,0.116793945,0.108748745,-0.00501752688,-0.0511064193,-0.0809753472,0.161583593,0.14042953,0.0760368063,0.0666726941,0.00818751713,-0.0901384113,0.0307016204,-0.12696406,0.0068438814,0.0269475177,-0.0775114896,-0.0592146381,-0.0077243958
-0.0920574618,-0.0992079363,0.145060765,-0.0627722612,-0.179475091,0.125771781,-0.0188640981,-0.208054343,0.136016587,-0.0352663849,-0.0929052703,0.101850781,-0.127944609,0.159714529,0.0424613562,-0.0582208279,-0.107247314,0.172219586,-0.0484967833,0.0929977371,0.056435349,0.0374529137,0.0435190439,-0.0198235636,-0.0308050451,0.119329873,-0.121220923,0.0965791475,-0.111120516,-0.174044937,-0.0614028113,-0.143920861,-0.15532143,0.118617192,0.214837413,0.0476979049,0.0277418002,-0.0387417277,0.206784278,0.00653074747,0.0916861314,0.21333823,-0.30764993,0.12871855,0.00260207725,0.00718583425,-0.00964135407,0.00246443713,-0.206085024,0.0687745454,0.0952304319,-0.040904045,-0.291257696,-0.133572871,0.181389051,0.0161104888,0.0352957451,0.0486397915,-0.0827722873,-0.0246769309,-0.121415379,0.0472472719,0.111055793,0.026255247,-0.106566665,-0.0612731117,0.00847147908,0.0873546253,0.0246726917,-0.0864432304,-0.00961874505,0.0655501711,0.102560129,0.00664445235,0.0283072198,0.0573079811,0.041087502,-0.0142666139,-0.0283689797,0.0354291518,-0.00757140634,-0.0483745011,0.0618888631,0.0124492835,0.0116821365,0.0436661207,-0.0544548675,-0.0101202802,-0.00762395671,-0.0519328269,0.0110723976,0.0185394493,-0.0419477837,-0.0452840574,-0.0125145216,0.0209834963,-0.0122564508,0.0205838044,0.00554422046,-0.0135253186,-0.0015655085,-0.0436378816,0.0217173694,-0.0197510304,0.0126793339,0.0327909168,-0.0400387599,-0.0111622184,0.019963974,-0.0190582452,0.0185538772,-0.0121988168,-0.0271237392,-0.00296750515,0.0154188567,0.0013634149,-0.0142791125,-0.00556498977
-0.0920574618,0.0105402636,0.159249062,0.0526096231,0.0747422998,0.196630726,0.0532799969,0.0906566541,-0.0208194571,-0.23029317,0.079485109,-0.0223332006,0.0879488821,-0.100374149,0.203438368,-0.0438059643,0.101408695,-0.100371332,-0.0677756374,-0.106354021,0.223231417,-0.155436984,0.0724497493,0.0646432929,0.11660132,-0.130163367,0.169548171,-0.010890396,0.0646685493,0.0438631715,-0.138422592,-0.134488373,-0.0108562986,0.0610545659,-0.0364160356,0.135391286,0.179597668,-0.0279610555,0.251369711,-0.0918957046,0.0136504132,0.0371275566,-0.214194725,0.127295454,-0.132041498,-0.0893582541,-0.0288410485,0.0906605565,-0.0129961162,-0.0498321099,0.0330656312,0.227879507,0.195444647,0.195012441,0.0559907782,0.183456169,-0.120407282,-0.153917443,0.172477363,0.120824364,0.0608901092,-0.0645097181,0.00645112211,0.0614187501,-0.0560834874,0.0677423026,0.0553497789,0.0694347172,0.0104251765,0.0463803779,0.0951428485,0.00820375929,0.000434750953,0.0670391807,0.0425166784,-0.00891106063,0.089619106,0.0868480602,-0.0614652036,-0.00809814245,-0.00799517516,0.00547812539,0.00820841114,-0.0197680642,-0.00177534715,0.0257494351,-0.00767511087,0.0246597256,0.0515593429,-0.00820472035,0.0147503124,-0.0503447453,0.0386095435,-0.0349618049,-0.00857581812,-0.00615876557,-0.00840622242,-0.0241901399,0.0452199285,-0.0266600274,-0.0178720096,0.0242748346,0.0220495371,-0.0292930555,0.000737684058,0.0512727829,0.000845939829,0.0147865195,0.00605502617,-0.0232030054,-0.00889560745,0.00614641251,-0.0435107398,-0.00520665902,0.00617006396,-0.0161940147,-0.0227762603,-0.00197301573
-0.0920574618,-0.118665245,0.127354812,-0.102703023,-0.202352864,0.0845997121,-0.0926410738,-0.187235367,0.212985321,0.0542050849,-0.0527347365,0.164905159,-0.00868042896,0.289000211,-0.00674389573,-0.095038959,0.0471931309,0.276578159,-0.201964982,-0.0444385847,0.159397861,-0.210549701,-0.0192547228,0.0817042098,0.282375876,-0.0663421099,-0.0963146143,-0.0288706746,0.0108304164,0.249621092,-0.0384888677,0.2382851,0.00243336162,0.137730924,-0.0591230077,0.0095265963,0.0355035328,0.0677697681,-0.218368778,-0.0398271586,0.045129754,-0.0663147224,0.0603253533,-0.201493371,-0.105125246,-0.0250751144,-0.0389283993,-0.0046475189,0.186044312,0.144466391,-0.0079392045,0.0165045134,0.137961248,-0.031386535,-0.0710035479,0.00225105261,-0.0303678025,-0.0610752911,0.0968911476,-0.0709324436,-0.0133218343,0.0194106746,-0.0305058401,-0.0326863019,0.0241589169,0.0781477496,0.0637879016,-0.0423022093,0.0411006196,-0.0153991798,0.0323893098,-0.0127273602,-0.00574946202,0.0390617954,-0.00601196301,0.0126604354,-0.043697663,-0.0285509895,-0.0126976345,0.00220059301,-0.00635722067,-0.0175416423,0.0267277712,0.0175591041,-0.0453065686,0.010389266,-0.0205193509,-0.00650660213,0.00624862318,-0.00134246073,-0.0403335973,0.00630698592,0.00889428957,0.00444366919,0.0319274357,0.00151861463,-0.004258043,0.00367667605,0.000104936998,-0.0116792738,0.0212237033,-0.00699846481,0.00529785948,0.0240311041,0.00664594055,-0.00340981565,-0.00573527534,0.0316896582,-0.0169892403,-0.00194308922,-0.0101054614,0.0131500749,0.00805732759,-0.0131226539,0.013940034,0.011919087,0.00397073585,0.00339769277
-0.0920574618,-0.0686083531,0.159539827,-0.0116372009,-0.115360584,0.169643646,0.0504858937,-0.163511287,0.0277031145,-0.157114555,-0.0588039495,0.0260925216,-0.190897186,-0.0529914115,0.136335168,0.0256111174,-0.129022506,-0.0561493056,0.0506875459,0.199425895,-0.0540636617,0.20198012,0.169847529,-0.0476834682,-0.138386576,0.225740163,-0.0654799133,0.107604559,-0.0483984412,-0.100725472,-0.0957317248,-0.0402343601,-0.112179025,-0.0659097013,0.0708964006,-0.124077247,-0.120159688,0.000603581079,-0.0796255649,-0.126838331,-0.0913914831,-0.0667408558,0.110503482,-0.122361949,0.191626855,0.195610865,-0.00144148618,0.0906523906,0.209455749,-0.0520999792,0.0273171206,0.205057655,0.290221883,0.0698579197,-0.123412956,0.144735483,-0.202719289,0.0325862153,0.0641088227,-0.0455583964,-0.0221214517,-0.142223076,-0.0251119929,-0.0345712857,0.0136805696,-0.0278008063,-0.0946930447,0.0215072031,0.0856890565,0.0307601041,-0.00942258339,-0.0946394475,-0.0469579654,0.0103005532,0.0511874735,0.0116940512,-0.00758192752,-0.0451840112,0.0159641527,0.0720685255,0.0576477316,-0.024268544,-0.0826557898,-0.0130905743,0.0407026314,0.025772917,0.0129449785,0.0165428318,-0.0176666231,0.0580727528,0.0264982149,0.0401906795,-0.0164853672,-0.0314901511,-0.018454992,0.00881104966,-0.00173939167,-0.0239750278,-0.0498037014,0.0133493095,-0.0215112355,0.0168702246,-0.0218282671,-0.00338739784,-0.0144232514,-0.00643686857,0.0293504697,-0.0264308736,0.0188918122,0.0372396519,-0.00552608176,-0.01322203,0.0150554743,0.0373223505,-0.0256043638,-0.0081798177,0.0126937342,-0.0121222712
-0.0920574618,-0.0308282322,0.164909414,0.0316586624,-0.0220306194,0.197082889,0.0761630038,-0.0486590551,-0.0388380382,-0.238732204,0.0269517487,-0.0140325253,-0.100180343,-0.172943661,0.209999882,0.0381365591,0.00758103521,-0.18913001,-0.00647136283,0.109649008,0.0467014756,0.0380325368,0.175719668,0.0204515724,0.0711008729,0.0719098907,0.108728696,-0.0154744584,0.160462489,0.244623492,-0.125889002,0.153957831,0.0117362083,-0.125076493,-0.198990528,-0.134557544,0.00152580584,0.0245555778,-0.0832807025,-0.157798463,-0.0269681975,-0.0669243154,0.0455870158,0.0360908663,-0.141031125,0.0548508258,-0.0667669685,-0.173111822,-0.109047662,0.0605688008,0.166656101,-0.226330721,-0.247735463,-0.137837164,0.00353820979,-0.246262204,0.063063953,-0.0329029349,-0.208367407,0.00230895972,0.0371567871,-0.00836404326,-0.0243046363,0.0473037559,-0.0833113505,-0.0772973796,0.0664270026,-0.110747954,0.0118650299,0.034254292,0.0357269498,0.0296033921,-0.02362096,0.0131088925,0.076453544,-0.0170038336,-0.0551322184,-0.0241651568,0.0817239576,-0.00207924903,-0.0819314151,-0.0131399406,-0.00999850604,0.0234972485,0.00183040972,0.0210393524,-0.000421785373,0.0520839818,-0.0356372649,-0.0279347295,-0.0249716177,-0.0370491836,0.0377125919,0.0198486018,0.0272905339,-0.00906343897,-0.0259962402,0.0102751691,0.0389766593,0.0399319696,-0.00263186919,-0.00663704088,-0.0254043685,0.0285716927,-0.0117732072,-0.0509938727,0.0185396518,0.0081055406,-0.00258589626,-0.014541875,-0.00390720594,0.0174769061,0.0261942712,-0.0357847394,0.0130707015,0.0133034003,0.010323193,0.0198407925
-0.0920574618,0.0519624384,0.142126501,0.0428701877,0.146027445,0.164733969,0.00688251315,0.18737269,0.064158149,-0.137572496,0.0475860804,-0.0384520128,0.211738832,0.0842675557,0.12614218,-0.0980981937,0.0270606147,0.0844047025,0.0202140939,-0.209719303,0.164762541,-0.0569973535,0.0545927262,0.0181647367,-0.124463568,-0.158413232,-0.0322535752,0.0784249307,-0.145531308,-0.228621186,-0.132637111,-0.143808889,0.049696286,0.044713504,0.116731176,0.132384364,-0.0677554086,0.0211246991,-0.0959134593,-0.13238733,-0.100629797,-0.120582372,0.153941735,-0.194766199,0.150361325,-0.0939588796,0.0949837544,0.110355138,0.190113398,-0.08726834,0.0880803241,-0.119895265,-0.0868714526,-0.0848759999,0.128360057,-0.196098198,0.137832515,0.129022763,-0.130003119,-0.173464635,0.0598812603,-0.00369083685,-0.0477652993,-0.149189711,-0.12219064,0.0390585117,-0.0318760937,-0.0193210047,-0.095667929,-0.0892652044,-0.0560171239,0.000640450236,-0.0516313966,-0.0190932406,0.0746595521,-0.00266256339,0.0122559434,-0.0176941223,-0.00491016159,-0.0161926011,0.0748733586,0.071138304,0.0416797366,-0.018656729,-0.043711733,0.0377776933,0.0118268299,0.0346128619,0.0039194685,0.0309151527,0.0102623561,0.05071579,-0.023942633,0.0387082121,0.0217674016,-8.89661231e-05,-0.0210361701,0.0106854631,-0.0467820632,-0.0188804317,-0.0153007362,0.0301804593,0.0100238005,0.0115883696,-0.00365349114,0.0168595504,-0.0315536756,0.00867996394,-0.0338318784,0.0286722015,0.00454524973,-0.0121009382,0.0140797885,0.0307236552,-0.0160951004,0.0109711052,0.00646841686,-0.0128243408
-0.0920574618,0.09082989,0.113105545,0.000630769765,0.168268524,0.104690454,-0.0240766934,0.188556098,0.148978293,-0.0167290854,-0.0316744277,-0.083878294,0.154410135,0.194387538,0.0435859238,-0.028648639,-0.084887647,0.147737384,0.160422883,-0.0997698013,-0.0673322252,0.1197232,0.122637154,-0.0312495521,-0.211210217,-0.0793505683,-0.198207116,0.0484152848,-0.0112648723,0.0261849611,-0.08162336,0.246964575,0.166111838,-0.163299595,0.0566559219,-0.0425043844,-0.129101395,0.0141607579,-0.159914664,-0.0675081349,0.131933292,0.129789358,0.0446129853,0.167191698,-0.0538118449,-0.101724332,0.0172431965,-0.206331231,-0.196529263,0.0837727034,0.139966551,0.0277304966,-0.053490848,0.10471848,-0.121883134,0.254079657,0.0284030651,-0.0644350081,0.191619355,0.05562504,-0.0558707809,-0.108575571,0.0333735912,0.112983142,0.0857903729,0.0096622925,-0.0743812086,-0.0395270546,-0.00713715302,0.0160830756,0.0501642954,-0.00533989498,0.0739340222,0.0569235486,0.0133115266,-0.0401082902,-0.0556691847,0.00555003801,-0.0176065757,-0.0474790223,0.020558351,0.0398314391,-0.0141603143,0.0445070743,0.0408583136,0.0701788423,-0.0455528803,-0.0593340272,-0.0218148292,0.0205494733,0.00955716783,-0.0116749183,-0.0217347984,0.0655925364,-0.0224267123,-0.049748867,0.00951491579,0.0700480592,0.00447561845,0.0588846638,-0.023078142,-0.06698197,0.000274958594,-0.0226495242,0.0451238808,-0.0556894789,-0.000250628617,-0.00151510679,0.0142272668,-0.00542605673,0.0285528499,0.0267053775,0.0165153826,-0.00875541115,0.00305439686,-0.00174456955,0.00848657019,-0.00460454579
-0.0920574618,-0.110237701,0.120889372,-0.0798884626,-0.167817995,0.063969605,-0.0486756117,-0.124546175,0.123583554,0.0456709924,-0.0568905436,0.0635069606,0.00260536904,0.126630593,-0.03331334,-0.0537393581,-0.0157117905,0.0712953356,-0.00731363203,-0.0461725455,0.0387648679,-0.0511577675,-0.0697346039,-0.0154740036,-0.0297415768,-0.0597294981,0.0718519497,-0.0406382103,0.0512203823,-0.0577022763,0.044191966,-0.0930817637,0.0594377237,-0.0895480334,-0.0503709403,0.00938294633,0.0152619493,-0.0372305308,0.12738987,0.0584390865,-0.0167198501,-0.00241436573,0.0388095736,0.169885594,-0.0168863471,-0.0375665307,0.0349063277,-0.0831924425,-0.116781324,-0.138513065,-0.0286475325,-0.126997745,-0.035297154,0.0545201117,-0.0637605619,-0.129032682,0.0509851751,0.03899804,-0.0478876243,0.0707878487,0.159070157,-0.102332223,-0.107128871,-0.0554340631,0.137520331,0.0282680473,-0.0949476861,-0.0431182582,-0.054206731,0.20183482,-0.0171217357,-0.170494221,-0.242367854,-0.033968251,-0.0629948927,-0.0112786601,0.0217922127,0.089046166,0.0168718073,0.0690952102,0.0759459287,0.183283336,-0.253540428,-0.0816034263,0.0928463883,-0.0979815958,0.161679543,-0.0370583022,0.053208463,0.136396446,0.2215849,-0.116049502,-0.00666984623,0.0267801546,-0.161838223,-0.135795173,0.103072492,-0.10556151,0.010422448,0.0353156062,-0.139545796,0.110494756,-0.0458044172,-0.0598237649,-0.00421627751,-0.0464882275,0.132393137,-0.144626918,0.0485801821,0.0356986564,-0.0364378321,-0.0469188142,0.00591192231,0.0932544975,-0.12732741,-0.0790828541,0.0192376622,-0.0163830089
-0.0920574618,-0.0839398796,0.14162611,-0.0296070359,-0.134544352,0.109291355,0.030514611,-0.1411376,0.033879666,-0.0437299562,-0.0767464027,0.00467258534,-0.102990279,0.00884213527,-0.00827928886,0.00566482682,-0.112864275,0.00767336312,0.0811441662,0.0289733008,-0.066389883,0.111292968,-0.0277793123,-0.0418182156,-0.143588671,-0.0138991978,0.00423011637,0.0176531134,-0.0699053821,-0.167591141,0.0695787142,-0.122461767,0.0393585619,0.00676547104,0.0126870206,0.0923418902,0.0603004714,-0.0116649277,0.0606979577,0.104041286,0.000898790322,-0.038165288,0.0526695771,0.0433006875,-0.072060199,-0.141299649,0.0166516136,-0.00575118012,0.00128299696,-0.0481521007,-0.133052524,-0.0288620561,0.0876907525,0.129503874,-0.0624687214,-0.0465584583,0.118247339,-0.10146913,0.0526630116,0.0961330047,0.138878556,0.117062733,-0.0973746727,0.0588706428,0.086137211,0.0787478101,0.103918388,-0.167563251,-0.140109349,0.0250518573,0.021613057,0.0880929298,-0.0125883041,-0.0353730732,-0.0705486525,-0.19567056,-0.102521059,0.0318755803,0.0744491399,-0.262958102,-0.101545061,0.0254205862,0.0944324734,0.0332551556,-0.129703006,-0.0956052212,0.0454304678,0.0644633652,-0.0131676067,0.00310769165,-0.250334018,-0.00184747598,0.177205305,0.176456984,0.19758661,0.0422228745,-0.048344525,0.0435912875,0.0168386212,0.0181075158,0.146229378,0.0608309313,-0.0290691339,0.122474572,-0.0416443621,-0.0842641991,0.0179720894,0.188129902,-0.137968107,0.0134801301,-0.0319726752,0.103312765,0.0966238288,-0.103685298,0.0674318785,0.0689613362,0.0327105052,0.0518813535
-0.0920574618,-0.010644664,0.153144436,0.0526929835,0.0270177162,0.159138954,0.0661477724,0.015291704,-0.0706066141,-0.163993938,0.0629269337,-0.013373719,-0.0154838467,-0.130019502,0.0570741679,0.0290544875,0.0830818421,-0.0838985938,-0.0480157655,0.00553220866,0.00632868871,-0.0854897121,-0.0436758056,0.0218357421,0.11802338,-0.0288030398,0.0108484394,-0.0690017784,0.0688990643,0.111442174,0.106397482,0.0859009305,0.0275440629,0.0106288713,0.0266033298,-0.00301366926,-0.00975828805,-0.0105357707,0.0144001042,0.191347874,0.0997353054,0.138011243,-0.0503531224,0.066942771,0.0424941056,-0.0223346096,0.046331064,-0.0431823565,-0.0775679936,0.0286399345,-0.13979123,-0.0361138226,-0.0493364863,-0.0608140948,-0.0345339109,0.0893250525,0.0588972783,0.158068722,0.0706493009,-0.0993231239,-0.112310871,0.0564655759,0.00614631647,-0.0934389009,0.176664296,0.0273538878,-0.19901356,0.0685576183,0.00236226214,-0.114069639,-0.166884636,-0.0900015085,0.0428668856,-0.101403761,-0.138366371,-0.0667121805,-0.0458304742,-0.117739983,-0.0459502763,-0.0432871786,0.232921039,-0.0556975116,-0.0316811846,-0.0269000421,-0.017158059,-0.0653567034,0.0342629623,-0.066264597,-0.0228538122,0.198361714,-0.107528516,0.28726379,-0.0596837294,0.0177252924,0.0594718309,0.122399685,0.0199914198,-0.014274468,-0.293354609,-0.0504552034,0.104281607,0.067020099,-0.0179263247,0.0291970537,-0.0382632678,0.0437460315,0.0132528181,0.0458464357,-0.0514180861,0.195364104,-0.0102372102,-0.0260706632,0.0725500403,0.164655582,-0.0641376192,0.00743740944,0.0502278117,-0.0735253045
-0.0920574618,0.030037417,0.142967207,0.0603755666,0.107215671,0.14740146,0.0211644932,0.114595256,-0.0156568088,-0.119035761,0.0722952629,0.00902750028,0.110119029,-0.0147655707,0.0283977247,-0.0575028763,0.0812273287,0.0141319536,-0.0739612197,-0.0630390254,0.0895878912,-0.109552971,-0.0982717726,0.0154346548,0.0463988282,0.0217503591,0.0325599609,-0.00023500288,-0.0510928033,-0.108190546,0.10602765,-0.112396196,-0.0897418715,0.064092104,0.0600479883,-0.0312194362,0.0171159517,-0.0210867339,0.0311902395,0.157727701,0.0186196806,0.0192774569,0.033450732,-0.0177129349,0.0722431845,0.16503434,-0.0410800135,-0.00217034965,0.0141597039,0.0663858417,-0.164361872,0.0163069861,0.0614587076,-0.0413094027,-0.196340601,0.0273040011,-0.0419613692,0.0336489535,-0.0777143955,0.0235609663,-0.116374289,0.103160413,0.0508134234,0.0460287348,0.166457327,-0.163092123,0.0211504302,-0.122480134,0.0529080922,0.0391046667,-0.0844237058,0.0360077388,0.0310812892,-0.0941897013,-0.145473123,0.114771006,-0.199226989,-0.127650211,0.174072924,0.0888949192,-0.198733667,-0.0212005778,-0.0285205841,0.0917356236,0.0653401884,-0.0862919319,-0.0175445677,-0.111664108,-0.138999226,-0.170339615,0.0655079974,-0.107042209,-0.104063359,0.0597468565,-0.0748002398,-0.0888151324,0.0604633657,0.0899960757,0.118153045,0.137998896,-0.0133310241,-0.191359842,-0.0594950916,0.0541782518,0.0505693085,-0.229456361,-0.00391465671,-0.127226344,0.0613017596,-0.106647502,0.0498929057,-0.00768332065,0.0887359228,-0.135436175,0.0385263721,0.0440934974,0.0424229047,0.0760012443
-0.0920574618,0.0991037946,0.0976545789,-0.00111076751,0.158758123,0.064487672,-0.0504802517,0.141313774,0.138933892,0.0485656578,-0.0706482915,-0.0418148305,0.0704966633,0.154074038,-0.0284401638,0.0151987072,-0.128928825,0.0653028892,0.0905696609,0.0351406973,-0.157570582,0.161572179,0.0640604155,-0.0539062873,-0.0162956384,0.0554619733,-0.0462699263,-0.0560992347,0.0970495752,0.194564067,0.0422649753,0.114611313,-0.0190455612,-0.0179830749,-0.126829467,-0.0469873619,0.0528098396,0.0253141587,0.146750297,0.0945501472,-0.0199236226,0.0440987515,-0.239045743,0.0364081122,-0.111257601,0.0613888192,0.00605261479,0.0577220413,0.0420558466,-0.137120701,-0.180063639,0.105318289,0.166309253,-0.0786810064,0.142769871,-0.126316689,-0.165678789,-0.0173995518,-0.106894454,-0.116810347,0.11490137,0.171651283,-0.191927456,-0.133898937,-0.110308509,-0.0573047775,-0.0134782493,0.10566365,0.00907038348,-0.152717904,-0.0780855548,0.119957793,-0.227606905,0.00877209544,-0.027540009,-0.0848369903,-0.0122086104,-0.0680514273,0.128987865,0.109016036,-0.0166565745,0.078679932,0.149371322,-0.13503579,-0.034667938,0.0579023195,-0.010072961,-0.0545822247,-0.058414293,-0.00238326891,0.0749398708,-0.0173334548,0.00427708122,0.0074485321,0.042002926,-0.0707187949,0.00164383754,0.109559237,-0.00206851525,0.0992139227,-0.0616842038,0.0440560393,0.0298249377,0.00148768671,0.0438064455,0.000599078462,-0.0809456679,0.0359533319,-0.0120526284,0.026964973,0.0401780409,0.0297442465,0.0320965511,0.0348003885,-0.0555464796,0.057594023,0.00306190161,-0.0192193011
-0.0920574618,-0.0665577543,0.129109158,0.0106014938,-0.0832732911,0.0607318842,0.0777813502,-0.0644494675,-0.0762930012,0.00291056058,-0.049671738,-0.0815120805,-0.0448047112,-0.0682795851,-0.118496155,0.0698447364,-0.0675405304,-0.0200133321,0.111854923,-0.0948545724,-0.142868271,0.074752853,-0.105605278,0.0017571155,-0.0586737379,-0.183767164,-0.0087149182,-0.0459800982,-0.101891622,-0.0277997622,0.107836197,0.0203943553,0.12688394,0.119380527,-0.0740444791,0.146039099,0.0925059766,0.0301499097,-0.0738761735,0.0548003078,-0.00493363025,-0.113600843,0.0413229562,-0.0886911656,-0.112547219,-0.116110162,-0.0267655779,0.0903126342,0.00795721858,0.0527328073,-0.0239201176,0.0736921769,-0.0239562981,0.0606118762,0.0614346057,0.0432617916,0.029451842,-0.149723877,-0.05482992,0.0648581469,-0.0533590404,0.0807717552,0.0848094183,0.106009997,-0.159648631,-0.130645749,0.110611963,-0.0483858876,0.0435422375,-0.0454186006,0.0292121056,0.121810625,0.0602072476,0.0865414969,0.130463535,0.0760587133,-0.0578224948,-0.0593092272,0.124276551,0.162125954,-0.0860276496,-0.0397391813,-0.0749941101,0.106172306,0.052045031,0.215024053,-0.06244765,-0.0268417679,-0.184804376,0.0459837237,0.0381274557,0.0995164686,0.0210082829,-0.0954611338,-0.175054969,-0.0330692573,-0.044196882,-0.0280213761,-0.0983206066,-0.0612701897,-0.059582943,0.0423894167,-0.179440709,0.039856829,0.00863964365,0.0174492933,0.199809518,-0.112486577,0.0738449535,0.178922049,-0.102467491,-0.0673491388,0.0628157661,0.223929138,-0.115533035,-0.0471232306,0.0842874204,-0.0889482627
-0.0920574618,-0.0306218006,0.135139624,0.0532902165,-0.0128185684,0.0841704226,0.0814904199,-0.0273442892,-0.122033434,-0.0417153106,0.0374357554,-0.0404347855,-0.0515045218,-0.0988125053,-0.120396208,0.0973258191,0.0579322069,0.011125567,0.00780331408,-0.0264065613,-0.165193842,-0.0322312974,-0.117962461,-0.00147517651,0.0673304987,-0.112201042,-0.152582015,-0.0892434939,-0.0190345188,0.0688243175,0.138053852,0.130582306,0.106083436,0.0652457896,0.0931520575,0.0715336137,-0.108325072,0.00514248203,-0.0466663608,0.109111991,0.0177203221,0.0834552983,-0.0675790413,-0.0526175243,0.123790312,-0.094727567,0.0835660598,0.0962342089,-0.0133097282,-0.0478243961,0.0170282246,-0.000546350228,-0.0665320714,-0.0527842238,0.177671933,0.0199268418,-0.0382841414,0.0966622498,0.0754692697,-0.0192619375,0.0128566907,-0.152429095,0.0320683497,-0.0633264901,-0.0653681354,0.0550797608,-0.0263527178,0.14957484,0.0931461212,0.116814891,0.107551419,-0.136074499,-0.0944100367,0.0422839492,0.168437128,0.0515354123,0.0979651733,0.0105509854,-0.00893366135,0.0929266589,-0.0147073858,-0.0663203614,-0.10282114,-0.0877725302,0.0960677552,-0.00132617443,0.0334509782,0.244924192,0.0587764804,-0.0238264911,0.0185631219,-0.139224378,0.0455232859,-0.0331920784,0.179364185,0.0439572384,-0.0844873174,-0.030270842,0.0986720002,0.245369515,-0.0538586223,-0.00698515892,-0.001606348,0.0427241964,-0.129481042,-0.217060164,0.0119151051,0.0617065049,0.00918233429,-0.057889904,0.0469632995,0.110276813,0.162261981,-0.205302569,0.0642657457,0.0871549961,0.0615136016,0.124900414
-0.0920574618,0.0468479844,0.118522719,0.0724933582,0.11999283,0.0746753957,-0.0260367427,0.0808026568,-0.0245979692,0.0164369435,0.0516734486,0.0827622868,0.047481822,0.0221911689,-0.129633635,-0.0666687961,0.0333146859,0.0284920574,-0.0969775167,0.0910691285,-0.0114074123,-0.0180036551,-0.181283901,-0.0131886173,0.0216223862,0.217127324,0.0575560906,0.0182275413,-0.0617140539,-0.0982273604,0.159555254,-0.0655505616,-0.133673578,0.0226685117,-0.0689873894,-0.147294231,0.027991732,-0.0164936034,-0.0628005248,0.0463795565,-0.00470851013,-0.0883266698,0.114323679,0.00347003705,-0.0482018376,0.116495895,-0.120011031,-0.0310497007,-0.0697113282,0.132410809,0.0292600409,0.0121356206,-0.0453142262,0.0628631479,-0.0861666957,0.0302103823,0.0323674439,-0.124475613,-0.0147511471,0.138891736,-0.00195417623,-0.0328032685,0.133110175,0.021940855,-0.0655640676,0.00233755544,0.148339896,-0.0185487359,-0.122607814,0.0629507741,0.0914336398,0.0375796626,-0.0413218609,0.03144612,0.120513269,0.178776845,0.078254191,0.0693540221,-0.0982301237,0.0223895322,0.0615467399,0.223236392,0.0952154877,-0.0802102849,0.017336077,0.078420848,-0.00980860281,0.108245124,0.13504727,0.0205486798,0.128544856,0.000477613624,-0.142695754,0.122999009,0.150209408,0.00506607771,-0.0574972819,0.065319392,-0.127717444,0.0963343019,-0.0844483865,0.0645728493,0.14285797,-0.0366035878,-0.0641665246,0.0353848235,-0.179335271,0.152328587,-0.144238319,0.178390877,0.0790299724,0.0318759369,0.109480723,0.182728425,-0.0790839013,0.0600393103,0.0489223798,-0.113354369
-0.0920574618,0.0809338553,0.09733449,0.0432122244,0.141378387,0.0444717158,-0.0748601094,0.0880934916,0.0592222435,0.0730695111,-0.0438428271,0.0693380704,0.0310866646,0.0648990134,-0.0970654953,-0.0376241412,-0.104719095,-0.0214152793,-0.0513678912,0.101610778,-0.080904861,0.12880302,-0.0590652511,-0.022551548,0.0762771707,0.144347801,0.114317325,-0.06816805,-0.0178798085,0.0625581474,0.0693621464,-0.0770728386,-0.101739188,0.114706652,-0.214969702,-0.0327550467,0.0230178964,0.0133131694,0.0354453975,0.0188254348,-0.152372738,-0.0886962678,-0.101687086,-0.119238973,-0.0386750918,-0.0337617041,-0.00550070894,0.0603677015,-0.0204509617,-0.0460244246,0.0161939945,-0.0728336135,-0.063117071,-0.00183957448,0.1414663,-0.0153666928,-0.0129876494,0.0362875509,0.137816291,0.0654602673,0.00235139623,-0.152279039,0.0151258096,0.040869599,-0.00123424288,0.177647787,-0.0971360737,0.000784440576,0.0119033928,0.00461933911,-0.00770241847,-0.15239602,0.166117279,-0.0116863554,0.12541391,-0.0980084323,0.0238949248,0.0158809911,-0.0774071857,-0.185985833,0.152997718,-0.000844939148,-0.0808751198,0.17498522,-0.123710977,0.0761003394,0.0254917436,0.0516469741,-0.0855923618,0.0274691259,-0.0501522758,0.133461227,-0.0514061145,0.161152613,-0.155780979,-0.0810658482,-0.0366887551,0.0109361531,0.00996806834,-0.1800735,-0.0457435784,-0.114527139,-0.112403886,0.105313168,0.108923301,-0.137359775,-0.033349471,-0.248311002,-0.0442313093,-0.141870489,0.0258170896,-0.14888759,0.0733143664,-0.122127973,0.0379746614,0.0368608217,0.0567411151,0.0957154226
-0.0920574618,-0.079912444,0.0980445149,0.00475292548,-0.0819563272,-0.0287400198,0.0909230887,0.00567292494,-0.0950464346,0.0996594297,-0.0909643729,-0.146394613,0.0565816673,-0.0440113159,-0.130921777,0.0201979189,-0.0961695547,-0.0307275554,0.097376848,-0.163578951,0.00119746763,0.0442658766,-0.0579830802,0.0613540783,0.00225672833,-0.086339673,0.100681491,0.0610050878,-0.103527015,0.0305021514,-0.0331375847,0.0250319237,-0.0738766953,0.0894275013,-0.0670635496,-0.00888110396,0.17350186,0.0370820556,-0.0655204633,-0.122318101,0.0602511383,-0.0278212822,-0.00231186718,-0.0285028961,-0.079041259,0.185208486,-0.0595502827,-0.0511866553,0.0158348039,0.0621083276,0.0950060062,0.10557903,-0.0391988693,-0.0199243067,-0.0455578596,0.127479087,-0.0581100278,0.0434512272,-0.173334836,-0.095496424,-0.139706009,0.0588928053,-0.00558600455,0.086175769,-0.105688862,-0.0896624895,-0.173160504,-0.00857106978,0.033931998,-0.15183518,-0.0976450668,-0.0287793466,0.0732969643,-0.0655364572,-0.0499843253,-0.11483208,0.0924156477,0.0975385787,-0.111367124,-0.0251166307,0.154757852,0.0643380408,-0.0670751675,0.0214082647,-0.0631708382,-0.154844313,0.0990594312,-0.065932598,0.0210476721,0.043339202,0.207558577,-0.0960520492,0.0848301173,0.0624617805,-0.0631858792,-0.0184691614,0.241732589,-0.0142185918,0.100902904,-0.122486441,-0.0708154548,0.0541446305,0.0151803124,-0.0142880265,-0.103197848,0.0060140857,0.0289355728,0.220492087,-0.154229512,-0.000441873233,0.00945491352,0.151504137,0.134912788,-0.156067711,0.105312251,0.0796898701,0.0511781238,0.103325277
-0.0920574618,-0.0118959434,0.108462129,0.086302063,0.0229869076,0.00743571344,0.0644469104,-0.0160271627,-0.155204355,0.0571502753,0.0870569948,0.00371538851,-0.0394767539,-0.0190323902,-0.177608478,0.0913874399,0.121822003,0.119137314,-0.0343384283,0.0106867271,-0.118748229,-0.084919678,-0.0491398678,-0.0375461879,0.0253090672,-0.0150562967,-0.175360852,-0.0171821172,0.0655024029,0.0125979836,-0.0702631093,0.0130732796,-0.00306791308,-0.0964313574,0.130765815,0.0101678151,-0.101383662,-0.00231816368,0.0878734502,-0.175944887,-0.0723305334,0.0601775377,-0.100659064,0.00360826273,0.0300452112,-0.00773365149,0.038635689,-0.0614493946,0.0946087465,-0.128366926,0.149206909,-0.0813219864,0.0912351971,-0.00562459317,0.0484653885,-0.158129921,-0.118698888,0.00158144853,0.021910756,0.0730059822,0.158620468,-0.0696797743,-0.10696213,0.125648728,-0.0269301323,0.0866052365,0.0821489129,-0.0535091174,0.0781445874,0.0435368621,0.102091014,-0.021643675,0.113306039,-0.106961875,-0.067893419,-0.0796442357,0.00707151435,0.00534837156,-0.0504314454,-0.083698737,-0.0851325919,-0.126289361,0.102452521,0.0753697044,-0.0613614936,-0.232916188,-0.0219705393,-0.0800481292,-0.0774136762,-0.169102077,0.121491165,-0.0225966543,-0.0844938568,0.0224937811,-0.0316265666,0.0635671436,0.244435866,0.113129558,0.00303710878,-0.102433501,0.0119434268,-0.188653154,-0.0254158714,0.0079685893,-0.0217286174,0.0292945093,-0.0187672437,0.0394835817,-0.0325569572,0.164248552,0.0240602537,-0.0790258904,0.110298272,0.254605598,-0.0305833993,0.0119119521,0.113451578,-0.169314765
-0.0920574618,0.0258155034,0.102220927,0.0985301464,0.0780948298,0.0100283316,-0.00925128476,-0.00231694529,-0.107492979,0.0778601086,0.0979188472,0.108675854,-0.0390335359,-0.00479907141,-0.176553392,-0.0273538482,0.104406594,0.0566937875,-0.0677139699,0.126842563,-0.00914434537,-0.0777357371,-0.115786821,-0.0325499449,-0.0556374412,0.149591859,-0.0189596886,0.0921132491,0.0516022201,-0.0598999311,-0.0136868002,0.0269988697,-0.0241482923,-0.163157088,0.0765791676,-0.0287026474,0.0806285869,0.01239383,-0.00870412205,-0.173106817,0.0899842029,-0.0409797918,0.10499242,0.0945742312,-0.123170642,-0.0786073012,0.0182417018,-0.0510737591,0.0788711819,-0.0522085914,0.132217815,0.0902283057,0.0321701869,0.0946764984,0.0573206793,-0.00506772041,0.107430048,-0.158696988,-0.0753626397,-0.110661893,0.0542259127,0.11354645,-0.0684324564,-0.0356561645,-0.134410797,0.00830588961,0.0124245984,0.0831751545,-0.0751148373,-0.0793631624,-0.0578456485,0.127523778,-0.0206671253,0.139002484,-0.169738848,0.0140352248,0.0842827781,0.0916781922,-0.046495714,0.0581793856,0.0272017546,-0.0351116987,-0.0921207824,-0.0581889331,0.0649339486,-0.0260170954,0.026284526,-0.214593078,0.0776548671,0.108482281,-0.157034868,0.0990430877,-0.0383050772,-0.158657475,-0.0922739775,0.0339867286,-0.0355275658,-0.146665409,-0.12486245,0.0736287661,0.19319147,0.00344388742,0.00703159759,-0.000111388512,0.0390640627,-0.156270112,0.0231342972,-0.180790592,0.132168948,-0.0621242242,0.0645536727,-0.0020380472,0.139064706,-0.202623262,0.00644275205,0.0654073083,0.0835494456,0.167229505
-0.0920574618,-0.118176335,0.0841523751,-0.0883895232,-0.124103127,-0.0129767498,-0.0602249175,0.00651214323,0.0692841032,0.0930761154,-0.0196212451,-0.00956828681,0.107225008,0.00135024076,-0.047655786,-0.0566898318,0.0293541259,-0.100374952,0.0773932925,-0.0556827931,0.027851569,-0.066790629,-0.0998277882,-0.081966901,-0.105101148,-0.0362624031,0.157180104,-0.110935949,0.205084846,-0.0391432417,0.00892708665,-0.0865593544,0.0766212386,-0.178988129,-0.064465298,-0.117083337,-0.143543772,-0.049442426,0.0873571759,-0.0116653598,-0.0354598203,0.000835584908,0.0198339075,0.0823258118,0.110133082,0.0634881832,0.0468948551,0.0230160154,-0.0171945309,-0.0279655219,0.0456366488,-0.0326957788,-0.0262507329,-0.0753711226,0.0242450664,-0.00218714694,-0.0718879085,0.0397952501,0.0824814426,-0.0844488754,-0.0565008482,-0.0590336406,0.0551983383,-0.150651061,0.0425021994,0.118674032,0.0792742259,0.0828036042,0.103837281,0.0334480502,0.0590551375,-0.0510336898,-0.0693281886,0.171609526,-0.0667307214,0.25789368,-0.0284552318,0.0142764955,-0.0753827665,0.20777151,-0.0559311997,0.0591592047,0.0495650758,0.123020214,-0.113976847,0.163358425,-0.132670252,-0.178151355,-0.0607414372,-0.0630088847,-0.0947652075,0.029270994,0.0441511185,-0.0233355587,-0.0466880202,-0.0499894722,-0.0263061699,0.0477628076,0.0151832396,-0.191064622,0.120599656,-0.0407768612,-0.0582020528,0.163127214,0.0864981863,0.0641156588,0.0186526674,0.229484048,-0.133205425,0.0474176034,-0.12246438,0.116405664,0.0766266411,-0.0630427158,0.154172559,0.126307383,0.0555900927,0.00912665685
-0.0920574618,-0.103422294,0.0766998676,-0.0418606072,-0.092848595,-0.054754303,0.0357648571,0.0535511596,-0.0263989667,0.109918872,-0.101677051,-0.115242024,0.111893541,-0.0589560207,-0.0647844199,-0.0931330567,-0.0818957544,-0.115857247,0.10847859,-0.0669034207,0.103373035,-0.0398392414,-0.100015754,-0.0403902861,-0.0720557043,0.0421268845,0.143236925,0.0275990319,0.116582664,0.0147330559,-0.00700460187,0.022245954,-0.0910435132,-0.090905416,0.0545846434,-0.0301740859,0.0288315226,0.0344087978,-0.0621203763,-0.0561558743,0.0307302589,0.155164825,-0.0788767106,-0.104513804,-0.0116056129,0.0291231864,-0.0495040025,-0.113047747,0.158288274,0.130339922,0.0613667164,-0.0257328719,0.0785027062,-0.160595238,0.0475818019,-0.016589438,-0.0764323193,0.127847153,0.140876827,-0.0479549944,-0.0519662048,-0.0704774049,0.104218428,-0.0366885913,-0.00343241676,-0.0141801458,0.0079097235,0.212409699,-0.0861050538,-0.0135175646,-0.00306401508,0.122570559,0.126161376,-0.104596219,-0.0217484641,0.0112971009,0.091640046,0.0461863711,0.0339138279,-0.201352586,-0.134938885,0.0375414618,0.14959222,-0.123625591,0.112534382,-0.0765010172,0.0476200563,0.0471401835,0.084054024,-0.0744460368,-0.126812554,-0.0919039116,0.0203879604,0.155032918,0.00621737782,-0.0903429417,-0.141253713,-0.000581031537,0.0419930042,0.140026861,0.0628170757,0.152661011,-0.0669759283,-0.00426309538,0.0796850004,-0.106429463,0.16429924,-0.188526796,-0.0056984878,0.0183980498,-0.131980481,-0.0393859348,0.00632698163,0.129915817,-0.221508243,-0.131244311,0.0485778986,-0.016863657
-0.0920574618,-0.0640308938,0.0738664899,0.0449274843,-0.0424949882,-0.0861858797,0.125368547,0.0327433088,-0.131556615,0.114116053,-0.0546060447,-0.138236641,0.0497689083,0.0189761347,-0.0502249284,0.0700285793,-0.0427468245,0.0567318581,-0.0406851869,-0.0988480537,0.0328971158,0.0567792701,0.133887118,0.116933902,0.12298356,0.0259626654,0.00208950205,0.0531716405,-0.129886998,0.0384753138,-0.13420754,-0.0241561514,-0.0703151811,0.0899055284,-0.0776318073,-0.136481334,-0.0282048238,-0.0466203128,0.0523474389,-0.0241172446,0.013378498,-0.0854535034,0.0540874503,0.134490608,0.0774589343,0.117543573,-0.00650313868,0.0746868068,-0.142929274,-0.00981167405,-0.0540114707,0.0491448305,-0.0619517847,0.0223180188,-0.112483458,0.0368780601,0.130052332,-0.0638279884,-0.00415121105,-0.136151342,-0.024676568,0.0440928636,-0.126153521,-0.179428298,0.155845209,0.111019416,-0.0268377792,-0.0327088755,-0.0470867944,-0.0185117284,-0.1135257,-0.00680881443,-0.0641721405,0.174236625,-0.0811217748,-0.0284190457,0.128269454,0.215942876,-0.0494101007,-0.0688407024,0.0410586812,-0.061384571,0.0944335589,0.100627785,-0.0429188812,0.0898196585,0.0692156275,0.12419288,0.0202589691,-0.100432965,-0.0826254318,-0.0673228081,0.000336293853,-0.1626472,0.114963989,0.0475067715,-0.144629133,0.0660298115,0.134372585,0.10811586,-0.0682844294,-0.17067618,-0.0663218875,0.161316768,-0.0248374637,-0.0342960324,0.0553948664,-0.0807325447,0.218002445,0.0272580234,-0.0801710463,-0.0935755092,0.0358038066,0.183098369,0.00327578125,0.0391534126,0.105315593,-0.15821273
-0.0920574618,-0.0306939763,0.0766471405,0.0876660923,-0.00387897834,-0.0740163506,0.0977333177,-0.0157667412,-0.152227118,0.102456391,0.0596273793,-0.0497250719,-0.0154970613,0.0616312914,-0.0631766233,0.126153008,0.0708630243,0.147028989,-0.0309637125,-0.0403161888,-0.0449715054,-0.00356624498,0.168398309,-0.0171755573,0.0389150636,-0.0304763524,-0.0664270537,-0.0541571304,0.0435067374,-0.00324482388,-0.219060593,-0.137174785,-0.0267465976,-0.00823940328,-0.0812180763,-0.0529429073,-0.122194287,-0.0431570406,0.0965634004,-0.0655637137,-0.156883299,-0.00732918862,-0.0542982649,0.00305932626,0.0124381488,0.0176432999,-0.0966005089,-0.0367410975,-0.0294891852,0.0888998665,-0.109423882,-0.116994246,0.0719405189,-0.0140926968,-0.126096514,-0.0706751882,0.0315796522,0.0621889221,0.135147504,0.109321316,0.0492953267,0.075629276,0.0971256163,-0.0493325498,0.164824932,0.0338782192,0.0211615449,0.0153895641,-0.185022821,-0.0787829044,0.0107449251,0.0994104584,0.0773854865,-0.135992999,0.0419171319,0.0117644208,-0.0925224696,-0.204101686,-0.0483812789,-0.00742342085,0.0180961883,0.0235675546,0.0834076971,-0.133261451,-9.35808406e-05,0.181134771,-0.216023964,0.0514223046,0.0260608654,0.0446039528,0.0864035358,0.0559696531,0.0407880638,-0.101773343,-0.0993195373,0.0119285049,-0.0701622009,-0.120461175,-0.00768525814,-0.0620194683,-0.146245234,0.145339515,-0.0124850861,-0.213556759,-0.0970715244,0.0614919006,0.106805974,-0.0028508795,0.0293454608,-0.00856940524,0.0313251616,0.130373265,0.147121761,-0.17283051,-0.00868768556,-0.0163646589,0.112009536,0.208597802
-0.0920574618,0.0412536928,0.0692009923,0.114418317,0.071310831,-0.0553368176,-0.0659097612,-0.065368644,-0.0835083295,0.123036434,0.0846060009,0.152800608,-0.0798450407,-0.00873499191,-0.0695235894,-0.093657849,0.046086572,-0.0233498149,0.0335644062,0.0924005148,0.109044434,-0.0217424637,0.0337342405,0.014138573,-0.159805364,-0.0105751243,0.0468413528,0.152867556,0.0224873761,0.00513796974,-0.100407875,0.111599592,0.11938053,-0.0681531173,0.010671549,0.0675219746,0.144089315,0.0336557369,-0.00226344225,-0.0196232202,0.113682104,-0.0820472822,0.0328461084,0.047056684,-0.0565755907,-0.0202942562,0.0348656116,0.151473941,-0.00736829403,-0.0363957902,-0.12550858,0.135816598,-0.05638043,-0.119798425,0.0766442278,0.000175456294,0.0340340991,-0.0491039689,-0.0609705959,-0.142630107,-0.0898379436,0.0267770966,0.0213201994,-0.0860490285,0.18045707,-0.0834532348,-0.12249919,0.126739818,0.0336538581,0.19553956,-0.00470251338,-0.0336513859,0.0124264448,0.0601848833,-0.0149366856,-0.0562658241,-0.122646307,-0.123182939,0.0451388147,-0.126246796,-0.139713515,-0.11194585,-0.178787554,-0.0329822331,-0.000649557107,0.0674082545,-0.127001077,0.134386543,0.0765409807,-0.0627557487,-0.0702915991,-0.0592068272,0.0519852312,0.103728152,-0.0856125313,-0.0516947711,-0.0740339585,-0.0827269662,0.162370639,-0.159671837,-0.127803178,-0.0274017769,0.051191497,-0.152020318,-0.0243280979,0.0434775714,-0.150839104,0.0390762803,-0.222145266,-0.0418712884,0.114848064,-0.0288080045,0.107926173,0.147502408,-0.00746009303,-0.00991612967,0.108538881,-0.161579582
-0.0920574618,0.0685562712,0.0614453728,0.0966860124,0.0872350881,-0.0516625326,-0.128135421,-0.0655174282,-0.0309946245,0.135274169,-0.0107886671,0.17972763,-0.0900651736,-0.071975531,-0.0474260353,-0.126995562,-0.0604487632,-0.153895751,-0.0231337892,0.0572491712,0.136865554,0.0656283254,0.0243319303,0.136784968,-0.0423729522,-0.133484132,0.0810728772,0.0217541936,-0.14854847,-0.0257884842,-0.139315633,0.110675302,0.246464694,0.0868500073,-0.00942825942,0.0464065029,-0.121016248,-0.0699788038,-0.0618343555,-0.00252546121,0.0657548445,0.157743503,-0.0505549884,0.131886166,0.142264904,-0.00354686311,-0.0697866887,0.0654766055,-0.050208459,0.107916098,-0.114036643,-0.0195088822,0.142491926,-0.0803729917,-0.0967547075,-0.108035832,-0.18105625,0.214139354,-0.0962333652,0.0559648046,0.144441079,0.127833775,-0.0383956736,0.022121183,0.00581559182,-0.155884578,0.156059483,-0.0898432424,0.109058433,-0.0788912103,0.190737242,0.0310226231,-0.0123060809,-0.0636119618,0.0384894449,-0.00866890227,0.0607915789,0.196961471,-0.14912718,0.00361539511,0.0756224572,0.0352118221,0.0759431149,0.170062012,0.10933998,0.0600403623,0.0290360678,-0.00587124954,0.0746082549,0.128689788,0.0194721515,-0.0227899343,0.0122825196,0.051320387,0.0219408355,0.016090777,-0.0354124386,0.0300762869,-0.12759393,-0.0240927961,0.0270031643,-0.0446199203,0.0393448857,0.0403706376,0.0766525375,-0.0151615974,0.0253806607,-0.0779085951,0.00903785414,0.0272386162,0.0167217847,-0.0827475583,0.0256701081,-0.0631955089,0.016189162,0.0130925113,0.0408012842,0.0837726049
-0.0920574618,0.110219167,0.0684758909,-0.00940438152,0.121038907,0.00789595705,-0.0795640835,0.0533794955,0.104423136,0.0901586765,-0.121044697,-0.000503569187,-0.0294974062,0.0393635285,-0.0265283718,0.087065542,-0.127593421,-0.0546210263,-0.019253627,0.0586083078,-0.12639609,0.0752389585,0.0476973396,-0.0624441606,0.163528915,-0.0155888629,0.0665275734,-0.0743501288,0.13254502,0.145674596,0.00541446954,-0.100564812,-0.0658201484,0.0439116907,0.0435153296,0.11487453,0.0843174455,0.0386715766,0.159062978,0.00154340158,-0.0172117862,-0.00373467703,-0.0252230037,-0.0574581934,0.0743096565,-0.0247898209,0.108332313,0.0568889011,0.167046661,-0.0963847303,0.0500784928,0.0112185743,-0.000316350203,-0.03962422,-0.0735168471,-0.0120406268,0.142178748,0.0344111815,-0.0753677485,-0.175780021,-0.0260135685,-0.0405748694,0.0475936858,0.0292783142,0.0538305419,-0.0908749875,-0.0450058831,-0.153984448,-0.126651621,0.0576426662,0.111456954,0.0355544696,0.157676878,0.0979987082,0.00838233718,0.108294797,-0.120019805,0.0682084283,-0.140693856,-0.0929565437,-0.00571777012,0.0554829965,-0.132741096,0.124610545,0.237851938,0.0515623401,-0.118264853,-0.0844444457,0.131904572,0.0647841389,-0.0507250169,-0.0839452155,-0.0432895973,0.053086108,0.0305729123,0.0724769664,0.0407200349,-0.00909706297,-0.0388783941,0.136461656,0.0878817076,-0.161261152,0.0574327956,-0.169891918,-0.0645145766,-0.0302440556,0.190799238,0.166733146,0.0872296459,0.0863260029,-0.0221263289,0.155539294,-0.0837353753,0.0291137208,0.103753152,-0.186725557,-0.0265693621,-0.0720606554
