-0.0920574618,-0.0971883382,-0.145183119,-0.0691464487,0.17761137,0.12272968,-0.018968407,-0.202619669,-0.15914037,-0.00542196257,-0.088529249,-0.12456392,0.129347478,0.166724733,-0.00742368196,-0.0562696391,0.0588740517,-0.183398012,-0.103540056,-0.0368914768,0.0636534952,-0.0204811718,0.00725413173,0.00300368467,0.0428561735,-0.0606069286,0.0984054282,-0.089690011,0.108609304,-0.0360815183,0.0603320198,0.0231494821,-0.0564981589,-0.204105142,0.121291232,-0.0273799607,0.0831719918,-0.0368654811,-0.0523703156,-0.14689839,-0.15051552,0.176930045,0.0629286959,-0.195157601,-0.129707869,0.0760165203,-0.014389669,-0.0908712341,0.0845979017,0.0616136071,0.164006235,-0.0584134601,0.17804275,-0.125236561,0.0966961161,-0.0971026075,-0.408081482,-0.00872744737,0.155477219,0.175684531,0.0483616105,0.0596719794,-0.0441018839,-0.0863378266,-0.135893669,-0.00601597728,-0.0270235094,0.0949080152,0.0706047352,-0.00759701226,0.018429475,0.0217701165,-0.0525490859,-0.0491284708,0.0796500276,-0.134823181,-0.0696335493,0.0631962381,-0.0839376046,-0.00977032499,-0.0259969468,0.0336553363,-0.0494365381,0.0389203276,-0.0724718647,0.0394069817,0.0473783527,-0.0171836416,-0.0145266472,-0.0142991935,0.0242438084,0.00853739423,0.0262210142,0.00215369399,0.0179572491,-0.0104174937,0.0353775668,0.0287719192,0.0402941064,-0.0172403513,0.0369529331,-0.0237640742,-0.00473094759,-0.00640133249,0.0636365387,-0.0375537805,0.0340017358,0.0418221747,0.00229380096,-0.003010742,-0.00956542982,-0.039043175,-0.0045759995,0.0012792025,0.003651208,0.00577925017,0.00350520873,-3.0030094e-05
-0.0920574618,0.00997224899,-0.164488491,0.0471077368,-0.0785211125,0.189970656,0.0447355354,0.0768399601,0.0128410436,0.23675047,0.08139479,0.0151803652,-0.0631201893,-0.0602299659,0.215788424,-0.0602342016,-0.0881668854,0.112931266,-0.0872954437,-0.225755226,-0.0935041229,0.0456178463,-0.177813279,-0.0315495278,0.183665811,0.113196165,-0.15945566,0.0470665307,-0.0350527506,0.120189883,-0.0844513422,0.0142209503,-0.0804438552,0.0891423535,0.0918855779,-0.0112552752,0.157463302,0.143270628,-0.156259898,-0.014330858,-0.113612506,0.266934614,0.0207798045,-0.0702848738,-0.0691068077,0.215666913,-0.0221973343,-0.0726423369,0.118122517,0.221054803,0.121234403,0.22985538,-0.0211487872,0.0600139903,0.0426546888,0.0109564038,0.197614504,0.101267363,-0.173901886,0.0405866498,0.0488103905,-0.149716851,-0.119156033,-0.027549447,0.0381568616,0.0511833727,-0.0143993821,0.0511215279,-0.0103235197,-0.0348932793,-0.11183767,0.0561424311,-0.0576289783,-0.112201663,-0.041420531,-0.0171408871,0.0534587182,0.0474021699,-0.0242637217,0.00274793114,0.0132634013,-0.0732904285,-0.000345216548,-0.0141026447,-0.0181809491,-0.025636338,-0.00777303221,0.0393784232,0.023618106,0.003167207,0.0153803029,0.0774932273,-0.0512844088,0.0236513299,-0.01964103,0.0320660001,0.033716365,0.0295969706,0.00576094467,0.0386824386,-0.0196200492,-0.0301977054,0.01470261,-0.0179172559,0.0400048333,-0.00704785505,0.00857643113,0.010659006,0.0012982682,-0.00276817376,0.000547527395,-0.0070150981,-0.0048767496,0.000738231432,-0.000762046423,0.00102315782,-0.000105481427,-0.000296234728
-0.0920574618,-0.0506142679,-0.154951189,0.0109396483,0.0665931538,0.141623566,0.0713876118,-0.0934995148,0.0313586983,0.11803579,0.000222744844,0.0240617855,0.0946639282,-0.134176979,0.0588904061,0.0301913397,0.0739564743,0.0648375998,0.0918368599,0.065583225,0.0547935841,-0.0185960161,0.129221537,0.0189920716,-0.0880653676,0.0110856194,0.0467476896,0.0236904961,0.000395806614,-0.0530233566,0.00682203606,-0.0191631441,0.0799862901,0.0784496904,0.0373108613,0.0677409675,-0.0404435053,-0.126875713,0.0782116392,0.0863376464,0.039084995,-0.0761076575,-0.0505549505,0.0731138807,0.0907498724,-0.116142166,0.264837232,0.0509623943,-0.0327017096,-0.0413787086,-0.0581918774,0.109776295,-0.00779827788,-0.0793848906,0.103396114,0.0270934738,0.0892354456,0.0821379563,-0.100634218,0.0932725081,-0.0192564537,0.115065778,-0.0717187341,0.0442670913,-0.0222859686,0.170900091,-0.0379572036,-0.0362312312,0.0930454037,-0.0506504496,0.10183248,0.0337603383,0.031868481,-0.0719453537,0.033238898,0.0158589466,-0.200314669,0.0673161373,0.0424559657,-0.00946808613,-0.0993113062,-0.118239155,-0.0142344523,0.0421759244,-0.213485969,-0.0257146242,-0.0313576447,-0.0582370895,0.168212283,-0.0179809689,0.0208419945,0.0306439042,0.0232540947,0.325815826,0.0646451792,0.161400598,0.247085689,0.23573911,0.10825817,-0.0111628057,-0.00158173283,-0.0912704897,0.00512809551,-0.108933826,0.204604677,-0.0964235988,0.0970914362,0.0650452695,0.00902384125,-0.01143357,-0.0154167164,-0.0705840934,-0.0384428192,-0.00362924878,-0.00250303299,0.011741977,-0.000566381672,0.000112299251
-0.0920574618,0.0681844748,-0.127993953,0.0402554586,-0.164114987,0.104374226,-0.0371056943,0.157269457,-0.0609953039,0.0340049777,-0.00557266762,-0.00310916641,-0.117012399,0.142000595,-0.0492686022,-0.0504041715,0.00501219711,-0.0665856111,0.00276091894,0.0429955967,-0.00970520502,-0.0514414218,0.00903903026,-0.00221399582,-0.0549482579,-0.098817794,-0.0149109392,0.0266100342,0.0560362836,-0.130422343,0.038838078,0.141225587,-0.111281115,0.0235262494,-0.00554801476,-0.0188588658,-0.0758049438,-0.103638522,0.0582836127,0.0359224516,0.0993691428,0.0172869564,-0.10383031,-0.0618622156,0.0828268365,-0.109191351,-0.0943922978,-0.0390381224,-0.0301790376,-0.0521012053,-0.044052543,-0.0553545382,0.0589534805,0.106499015,-0.0987491547,-0.0816444758,-0.0480867599,0.0340108412,-0.0424832737,0.0478343266,-0.128132171,0.152234395,-0.0850396918,0.128740502,0.0792149577,-0.00704440123,-0.170873287,0.17521926,-0.0472785237,-0.112513727,0.0887511953,0.0654605309,0.0887943508,-0.00638257688,-0.00160379802,-0.0383871214,-0.0994558004,0.0266652205,-0.136537506,-0.0601881306,0.11191118,-0.150096048,-0.0730313353,-0.0978877186,0.121686927,-0.0374014446,0.0458590707,0.24100258,-0.0845457874,0.0853945047,0.0479610503,0.326323464,-0.247778389,-0.120930244,-0.182124858,0.0715102844,0.0204618016,0.0116510595,-0.0301934322,0.232928796,-0.0905341964,-0.102560064,0.0672618822,-0.0436501713,0.117353943,0.040358284,0.0148873176,0.0270196101,0.00341319171,-0.00850863411,0.0153589388,-0.00728925046,-0.0186844691,0.00436261993,-0.00228441655,0.00149998607,-0.000895451778,-0.00223092298
-0.0920574618,-0.0957139728,-0.111005588,-0.047655269,0.128075225,0.0293826979,0.0181150246,-0.0515638976,-0.0207022032,-0.0719497731,-0.0778707356,0.0625388054,-0.0450933428,0.000771775428,-0.0948792556,-0.0399328184,0.0455915128,0.0400717298,0.144074279,0.0600500923,-0.0532246738,-0.0384092325,-0.105991506,-0.0200374551,-0.138477313,0.100270399,-0.179176687,0.0533070851,-0.0778863728,-0.0451320402,0.0481064403,0.167932399,0.0663450064,0.0738955302,-0.0535933084,0.03012944,0.13092347,0.04063205,-0.107880433,0.0229755325,-0.11858251,0.169252469,0.0555093538,0.134679404,-0.0184204037,0.0267140191,-0.0923079508,0.136415368,-0.0691111058,-0.0908011063,-0.120969046,-0.221762747,-0.00677687398,0.0288307625,-0.0963800351,-0.000636283419,0.0977163607,-0.0661826372,0.00479363226,-0.179369927,0.00401576436,-0.113296555,0.107765031,0.0303585213,0.0895851335,-0.0223853158,0.057566207,0.0978428056,-0.045142508,0.0366597543,-0.0264333961,0.0149072237,0.0237549355,-0.0421668127,0.0319800261,-0.0928423838,0.0188394124,-0.0791135122,-0.164031563,-0.112754987,-0.00277846981,0.08410747,-0.0367821611,0.0407233611,-0.0507849968,0.155390807,0.0223437934,0.0964135422,-0.085145178,-0.0307192626,0.0806859666,0.0581997253,0.0498387347,-0.0773129193,0.150268392,-0.0992374734,-0.0642427849,0.0850732843,0.0867109291,-0.0556686525,0.174516335,-0.0117893956,-0.00593697255,-0.025454234,0.20436148,-0.271248641,0.158752644,0.162835307,-0.0116933113,-0.0421437583,-0.0710149116,-0.236392489,-0.0378655179,-0.00587430641,0.02122913,0.0507519872,0.010843365,-0.000260265785
-0.0920574618,0.0063336684,-0.13615071,0.0731153639,-0.0582107013,0.0890144318,0.0390997565,0.0227020964,0.118215187,0.0465794692,0.0887591999,-0.026984745,-0.00358059046,-0.0913184942,-0.126314543,0.0837063253,-0.123914011,-0.0262543815,-0.128679885,0.179931576,0.00421063787,0.0734478501,-0.111864619,-0.0356429831,0.0341231805,-0.0560775818,0.15269361,0.0613822874,-0.0856689906,-0.0840675516,-0.0109908171,-0.0849340652,0.0841437058,-0.121212628,-0.0660988406,0.00133300415,-0.000360980111,-0.141880487,0.0229786098,-0.0883797521,-0.137907683,-0.0511402679,0.112104398,-0.000529181781,-0.13069851,-0.111078044,-0.0846155966,0.0133902949,-0.035990618,-0.0247465407,-0.0412346023,-0.0865765077,-0.0335580497,-0.0288225149,-0.0276275451,0.0499252225,0.0208663176,-0.0968185189,0.124647086,-0.146022088,0.0552847254,-0.0731814703,0.0075027711,-0.0315224736,-0.064715104,-0.115787433,0.141781804,-0.095852557,-0.0448440048,0.158618788,-0.226930254,0.073198699,-0.186930885,0.0808000578,-0.0318890674,-0.0153601811,0.340268481,0.237996712,0.0578225214,0.0998260928,0.0350847079,0.0203604473,0.00822574677,-0.00336628815,0.0401547342,-0.137929525,0.0858610354,-0.095338697,0.00603615941,0.0872984671,-0.0361555654,0.131180394,-0.121057953,0.0866016088,-0.114295324,0.100361885,0.0988450608,0.136686111,-0.0110267069,0.0758058334,-0.0742999264,-0.104562693,0.0261770676,-0.0814122151,0.151781781,0.0121396143,0.0836656011,0.0402629863,0.0204420314,-0.00089100979,0.00973550053,-0.0301957428,-0.0420658502,0.0020314694,-0.00719236143,0.00597792308,-0.00397731369,0.000605575365
-0.0920574618,-0.0532302055,-0.109589678,0.0400661292,0.0528977517,0.00377670324,0.104554403,-0.0173835823,0.139039182,-0.0579413313,-0.0090174757,0.130192883,-0.0127787691,-0.0760013069,-0.141319773,0.109566024,0.0460783647,-0.0536818969,0.11888915,0.120928408,-0.12809626,-0.0347854831,0.0343955029,0.0290006452,0.0764118461,0.169734355,0.0479375845,0.0148993871,0.139233717,0.0320360259,-0.0311555961,-0.0275477269,-0.10582785,0.078370536,0.11652259,-0.0470645664,-0.0907050773,0.15983585,0.00408118768,0.00969579227,0.156649153,-0.0655528444,-0.0977615684,-0.11995602,0.0624987926,0.167763231,-0.181716618,-0.154988885,0.101748163,0.0485446196,0.200596483,-0.00649941632,-0.0104076154,0.119059801,-0.0670785036,0.0115282547,-0.158756683,0.0371678716,0.0748839947,0.0137693287,0.0113942715,-0.0161920726,0.133721075,-0.0279664216,0.0274637813,-0.113201821,-0.0634325362,-0.0606714093,0.0785719831,-0.0483020072,0.00164259036,-0.118797959,0.128893244,0.0833646282,-0.123559473,0.163541955,-0.00607396028,-0.149617283,0.215927802,0.10123682,-0.0466816987,-0.0718126335,0.141778226,0.0443202594,0.107634573,-0.138313334,0.0282407713,-0.0660139273,0.154280684,0.097535128,0.118681189,-0.0423004798,-0.114335917,-0.0167210337,0.0227906001,0.0286002986,-0.0983727501,0.0956483969,-0.0418344947,-0.0327416048,0.0298885862,-0.0607079039,-0.0409391198,-0.0473004916,0.134841582,-0.152254661,0.103401717,0.122674929,0.0359859814,0.0225478141,-0.0249148758,-0.108540703,-0.0855136388,0.00523922457,-0.0232097073,0.0290688969,-0.0185407751,-0.000220034351
-0.0920574618,0.0598631273,-0.0896238626,0.0913788931,-0.107470902,-0.00882277046,-0.0843131026,-0.00732281951,0.0662664293,-0.114110432,0.00755241328,-0.167717384,0.0266562773,-0.0395446882,-0.142546158,-0.067781282,-0.0191342585,0.071140827,-0.111351055,0.028597772,0.142917311,-0.0731327876,-0.0294805898,0.062592219,-0.0538794361,-0.088745416,-0.151573267,-0.0765257264,0.111057971,-0.0204071621,0.0484663736,-0.00627165249,0.0288719945,0.106557238,0.0102488362,-0.0420124614,-0.00909817941,0.187341809,0.0200933869,0.0429464201,-0.0674427613,-0.0810266602,0.0365636625,0.119905543,0.0734166486,0.124216217,0.177933776,0.0449467555,0.0917157966,0.00232487602,0.194023963,0.0604129665,-0.0065708509,-0.12655046,0.0899341115,-0.0436549815,-0.0134033985,-0.0728118417,-0.0414650595,0.011150685,-0.0219296597,-0.160988501,0.171226006,-0.00702472806,-0.0649224221,0.0486660925,0.0244792929,0.0110514871,0.00829758534,-0.0483790795,0.100454486,-0.0962126997,-0.0079508357,-0.031710221,0.163221626,0.25373389,-0.000616734484,-0.119577093,-0.0051005279,-0.0588152144,0.00909226317,0.359318363,-0.0598683181,-0.0292856005,-0.0470980585,0.0588398829,0.0100390021,-0.0604614883,-0.11502329,0.00479649062,-0.172375196,0.0456906542,-0.00206478284,-0.0474108419,-0.124300297,0.115513833,-0.0708591681,0.0709690359,-0.110867183,0.179168545,-0.0669882182,-0.0792142383,0.157539412,-0.0665517296,0.122474335,0.106090208,0.128775174,-0.00974110786,0.0325622712,-0.030495334,0.0729065212,-0.0245593217,-0.0271083061,0.0134439068,-0.0023742989,0.00407595568,-0.000769080981,0.00329453401
-0.0920574618,-0.12407159,-0.0857759946,-0.119847332,0.139575112,0.00894191327,-0.133972326,-0.0222770412,-0.130449064,-0.102494808,0.0537821841,-0.085513989,-0.0934749684,0.109839252,-0.018031049,0.0715893001,-0.161429726,0.0864131339,-0.0445918051,-0.000190367086,-0.101353533,0.0596513366,-0.00698981228,0.0146968005,0.04013028,0.0285867329,-0.0692431306,0.077214584,-0.103819382,0.0483313962,-0.0710172287,-0.011373403,0.094594313,0.152573727,-0.226231918,0.043432617,-0.151836344,0.0060970222,-0.0430467025,0.240193051,0.144871895,-0.261370752,-0.00390540642,0.0531592414,-0.0447080463,-0.132801148,-0.104922433,-0.103647018,0.0634204695,0.299723477,-0.0213293594,0.229146175,-0.138999189,-0.0196003638,0.0295741981,-0.0701915889,-0.0744174672,-0.0601601409,0.0438747546,0.180913074,-0.0894634161,0.0427632484,-0.119639084,-0.0973916843,-0.0963281294,-0.136859116,0.0788662555,-0.0276583477,0.0528413833,-0.0839592292,-0.0107480946,-0.101125031,-0.0762404895,0.110802443,0.0566663188,-0.0329740527,0.007321367,0.135219156,-0.136450848,0.0723415083,-0.0248771111,0.00992071572,-0.0562844547,0.0190561117,-0.0531832155,0.0378899434,-0.0320448221,0.0469241168,-0.133098554,-0.122371079,0.0233672687,0.00726949025,0.00976501097,-0.059041018,0.0141105747,0.0207381989,-0.087767219,0.0381493182,0.0542611639,-0.00956497835,0.0688820217,-0.0574705416,0.00421113457,0.0939351041,0.00550515933,-0.0851706186,0.0542960353,0.0424238004,-0.0171528707,-0.00911383666,-0.0277026402,-0.0625879431,-0.0580474263,-0.0266275382,-0.0128943291,0.0263527674,4.45307887e-05,9.21568413e-05
-0.0920574618,-0.0888124086,-0.0646718011,-0.00494214653,0.0726607135,-0.0809439738,0.0964658825,0.0769979121,0.0793098845,-0.1084413,-0.120555664,0.177382804,-0.12018925,-0.0328634762,-0.0414906509,-0.0991018854,0.0769584385,0.0624863213,0.0201040187,-0.0918636873,-0.00953002237,-0.0704696181,-0.0916596496,0.0497962955,0.0886495238,-0.139894995,-0.0600147973,-0.117382554,0.0538691777,-0.049104882,-0.108947377,-0.143197338,-0.13200939,-0.14032321,-0.0484092131,-0.0768728102,0.133391074,-0.0103999517,0.122508231,-0.140592707,-0.00760331543,-0.0779188265,0.069981564,0.0425771971,-0.0747063596,-0.148906192,0.0352886843,0.0517727801,-0.0963916407,0.0955506745,-0.151248835,0.184971941,-0.0285490058,-0.0970392497,0.0793201991,-0.122298607,-0.00996585701,-0.0970979588,-0.0514991563,0.124684943,-0.0961008606,0.0633769236,-0.204492038,-0.0289019662,-0.0281358748,0.0973183919,0.0437821249,-0.0402866056,-0.159281469,-0.0202539053,0.065049134,0.037127882,-0.0574927886,-0.0770000369,-0.00239847246,0.0998044899,0.0455624861,-0.118185537,0.0689895691,-0.0770247976,0.0678120626,0.0210074865,0.137867468,-0.130776212,0.10260932,-0.0532330875,0.0352952492,-0.0149169129,0.0444219124,0.130158134,-0.0163522623,-0.0963246518,0.0261999487,-0.0259302484,-0.0834982971,-0.120336742,0.118472957,-0.237501494,-0.0789105153,-0.0168262142,-0.00614224917,0.0291782357,-0.020250111,0.0128024581,0.0454277891,-0.0651369967,0.0910993236,0.186758581,0.0262751795,0.0347389867,-0.0582702205,-0.263373218,-0.0294218296,0.0354382251,0.0241933355,0.0844453129,-0.0132804838,-0.000269781108
-0.0920574618,0.00234329998,-0.0681593955,0.118550443,-0.0225959799,-0.079571664,0.03992409,-0.0460284078,0.151207848,-0.107036086,0.122139313,-0.0456775585,0.0600837786,0.0600736616,-0.0344760377,0.0911134135,-0.0898330706,-0.143906583,0.0146951597,-0.139789499,0.0102101261,0.102684002,0.0837323582,-0.0525799967,-0.0758455943,0.00108076552,-0.0274877462,-0.109187011,-0.126082862,0.20532058,0.0165128598,0.0967436116,-0.0449727432,-0.0616994194,-0.0304442728,0.0711513661,0.114236269,0.0157611893,-0.0326392832,0.0429000887,0.143371064,0.209461063,-0.086767875,-0.0294225346,0.0884229444,-0.105587759,0.0943971484,0.0801148061,-0.102020051,-0.026736902,-0.11414835,0.122656935,-0.0929487434,0.104395719,-0.000894307016,-0.0312142082,-0.125649932,-0.114227619,-0.0832515168,0.113423307,0.0342323879,0.158938188,0.0386499841,-0.0291551489,0.00876636894,0.0478627462,0.0622917349,0.0724413675,-0.0780242431,0.190195558,-0.0525812601,-0.0601739359,0.0929458953,-0.104615168,0.00172969924,-0.163474431,0.122215095,-0.149038732,-0.00253600986,0.128751258,0.0131199458,-0.0833318801,-0.172073684,0.0670311465,0.0414949962,-0.000624586081,-0.110600404,-0.14867999,0.107480437,-0.19968871,-0.179995648,-0.026629194,-0.0134804491,-0.067454429,-0.0590163543,-0.0314953864,-0.17563932,0.12101427,-0.143635595,-0.00800086123,-0.183662601,-0.0615607647,-0.0593008743,-0.0949067182,0.0694969681,0.0105087769,0.0200589054,0.037364025,0.0513983261,-0.000929294929,0.00872053975,-0.0553794729,-0.0179279709,0.0662150161,-0.0369476195,0.0286214826,-0.00490338334,-0.00349541866
-0.0920574618,0.0897696417,-0.0630993721,0.0578358804,-0.100568449,-0.0334206776,-0.127528229,-0.028652155,-0.00509994124,-0.12561067,-0.102635211,-0.124562082,0.0360434249,-0.076719925,-0.0304981687,-0.0506697357,0.120121123,0.14949877,-0.0548824115,0.00399690659,0.0294772463,-0.0873558068,0.0509193232,-0.0172390095,0.121435884,0.0753129953,-0.0806167087,0.106942702,0.0829925094,0.0874049533,0.0316908662,0.0108008449,0.0419983128,-0.043766094,0.0551357612,0.126175824,-0.11021978,0.0173910253,0.0584125112,-0.0296668339,0.0560310757,0.0118218054,0.141874356,-0.063831086,-0.0848086085,0.0457373147,0.0376468048,0.176438972,-0.0357776805,0.0584417626,0.019453154,-0.0298009892,-0.118184698,0.0254497936,0.035374863,-0.00438375429,-0.0462937552,-0.088659583,-0.0749746753,-0.0127098288,0.0984229277,0.0190276046,-0.0434234798,0.0629360919,-0.00634188312,-0.0502711325,-0.0040112028,0.00370704319,-0.0333625652,0.165119088,-0.00390235323,-0.0692148916,0.0565714352,0.0451752291,-0.056291186,-0.021259276,-0.108889661,0.0613626708,0.00663647929,0.0994796181,0.0329993657,0.0599636229,-0.0677096795,-0.146107295,0.0567341828,0.0199430361,0.0141468254,-0.0890732054,-0.0245911246,0.0387382962,0.110668633,0.0613077063,-0.0325286698,0.107698835,0.126403434,-0.0472817131,0.0246187797,-0.0597228191,0.0199082478,0.115690531,-0.144696303,-0.0450117825,-0.00315329296,0.157806872,0.130849386,-0.222286955,-0.522066417,0.158030517,-0.0788755655,-0.00818735279,-0.150830602,0.0501153351,0.00592928094,0.0522787817,-0.014980143,0.00526018081,-0.000121917792,-0.0429873005
-0.0920574618,0.165310229,-0.0361037785,-0.185816548,-0.0935300851,-0.0424420654,0.10373142,-0.00507967046,-0.193346339,-0.126852445,0.0660326294,0.248741929,0.287134998,-0.0535589414,0.0139489623,0.0744564431,-0.201608758,0.00611244318,0.0621311166,-0.0555341246,0.16454081,0.0606828277,-0.176204647,0.304369135,0.0376686233,0.00241205821,-0.0104437265,0.12282598,0.0584217429,0.0196327778,0.135323459,0.00739016869,-0.0600968772,-0.0330223876,-0.0402206539,0.0929295609,0.0569565144,0.0302192885,0.0321592659,0.0637302624,-0.165841632,-0.149354165,-0.134132287,-0.243833411,0.203446475,-0.010629759,-0.0948791724,0.324537661,0.0372034,0.109978588,-0.0385694414,0.00276712187,0.091607462,0.0307587982,0.0895882254,0.0330871589,-0.044631285,-0.024724451,-0.0540003883,-0.0534966635,0.0763180248,0.0479738795,-0.0690701967,0.0119412294,0.130396601,-0.103073537,0.0251146652,0.0228782198,0.0870240272,-0.0625247555,0.0462865006,0.114184299,-0.038044233,0.00570565177,0.0948523651,0.0433233985,0.0786121719,-0.047794822,0.0270473928,0.0333653898,0.0437869777,-0.0232627556,-0.0299318571,0.0358203243,-0.0458634546,-0.0115089166,0.0302406267,0.0185441268,0.00726129889,-0.00857249122,-0.0119117035,-0.0390995945,-0.0135025092,0.000239435049,0.0375364,0.00357255581,0.00153903562,-0.0107021933,-0.018048372,-0.014413862,-0.00717693215,0.0107372471,0.0381779929,0.0234076619,0.0217066988,0.00154343166,-0.00336057411,-0.00776599127,0.0107678943,-0.000567030443,-0.0109871178,0.00288706625,-7.18907033e-05,0.00310345139,-0.000315977971,0.000161295409,7.54327866e-06,-0.000661953356
-0.0920574618,-0.11785141,-0.0396471317,-0.0840431136,0.0622592986,-0.0694246433,-0.0495909999,0.104064816,-0.00850865651,-0.0674189588,-0.0268259728,0.0454345045,-0.111679971,-0.0627221094,0.00610436821,-0.105404402,-0.054072012,0.0936288284,0.0296654198,-0.0346862823,0.0942239463,0.0899824594,-0.0853231882,-0.123359355,-0.137467866,-0.0672833742,0.0256342812,0.0547563087,-0.142487623,0.134042716,0.103313956,-0.0164501978,0.0237305942,-0.0883128503,0.0514543867,-0.0204352388,-0.159052079,-0.0482557998,0.05094239,-0.0935301499,0.0212310324,0.011520092,-0.0516165503,-0.189222769,0.0655960188,0.0999375042,0.135423084,-0.0867118274,0.0919768481,-0.175695243,0.183106178,-0.020794641,0.111838412,0.00332601809,0.0425356452,0.160707322,0.0354067522,0.152370663,-0.00698015702,0.0205431068,0.0909923783,0.0617614883,0.00704605478,0.130159202,0.016780381,0.00107625876,-0.0856296471,-0.132907493,-0.0290728914,0.065337588,-0.0825670289,-0.0140448657,0.0822714313,0.0841646267,0.0129031601,0.0275281949,0.0910213589,0.0221672886,0.0779470408,0.0501992628,0.037043242,-0.047693109,-0.0888842531,-0.0666902253,0.037113053,-0.0522561371,-0.135939414,0.0907653988,-0.141904579,-0.205826906,-0.147450427,-0.0287646744,0.11691462,-0.0374994427,-0.124556648,0.0534648036,0.111712636,-0.100240854,0.128859926,0.061815265,-0.00974234187,-0.0258416095,0.0818166256,0.156538141,-0.0933368926,-0.151856648,0.0662633977,-0.0389056044,-0.0944497176,-0.101823142,-0.102942768,-0.25038257,-0.111004078,-0.0987505117,-0.0246674473,0.15026181,-0.0112170801,0.000673565782
-0.0920574618,-0.0486815599,-0.0360553003,0.0794660003,0.0228988566,-0.127060276,0.133252036,0.0350013712,0.0902289231,-0.0710273439,0.00803409341,0.0747500807,0.00388625866,0.117927243,0.0932920509,0.0869576987,0.0479319757,-0.0627693613,-0.110392514,-0.124364016,-0.038643266,-0.0440866812,0.131256666,0.0222393483,0.136417644,-0.0617751414,-0.0375919479,0.0810148314,0.0605894953,0.0058037097,0.0941845266,0.083147113,0.0730547994,0.0966049856,-0.055190202,-0.0388864571,-0.149820884,-0.099776373,-0.0786350014,0.0498078859,-0.208980607,-0.0562510494,0.0449871272,0.0664752061,-0.0366044148,0.00204318178,0.0820385255,-0.017331288,0.051964143,-0.110893215,0.00856424058,-0.0776693315,0.141182382,-0.0444279003,0.00776079729,0.136688838,0.146218374,0.0707189619,0.0739835221,-0.0490573391,0.102272129,-0.112246423,-0.111600667,-0.0212657539,-0.0526936103,-0.146915506,-0.0953069278,0.165779828,-0.0368238781,-0.116179856,0.027453678,-0.0561482801,-0.12261837,0.105926304,0.0323382294,-0.0577853873,-0.144940431,0.102216019,-0.120291828,0.0897971902,0.046584837,0.0381449969,-0.00215131918,0.0140449107,0.13297431,0.0228175583,-0.207391779,0.0318029409,0.0977846691,-0.023853683,0.0732841046,-0.23952461,-0.0895630399,-0.00200730115,0.0442828603,0.118726096,-0.0432828823,-0.0722968901,-0.151829356,-0.0318089536,-0.222748601,-0.0147415896,-0.0596818179,-0.157703131,-0.0260157231,-0.0202478006,0.00110122584,0.0390623223,0.120283302,0.0875571838,0.0247157635,-0.179075195,0.0410960157,0.132035783,-0.110207868,0.110974511,-0.0150771981,-0.000850212361
-0.0920574618,0.056999808,-0.0341674597,0.120428438,-0.0373276222,-0.0934524999,-0.10885436,-0.111637662,0.0489943314,-0.0916524938,0.0309650043,-0.11358581,0.0445270608,-0.041332689,0.059978083,-0.145191863,-0.0308871313,0.0407155282,0.134012667,-0.125427932,-0.0156176933,-0.0244908201,-0.0581870575,0.111612455,-0.063000899,0.120886929,0.0772831502,-0.0595324808,-0.00481462143,-0.0812952126,-0.0886055111,-0.0984173541,-0.0109661951,0.0796168796,0.0317380844,-0.0987936172,-0.0165272206,-0.191977656,-0.0823920379,-0.0043444575,-0.0165057902,-0.0303519816,-0.0888095286,-0.120203554,-0.0642000979,-0.0816157176,-0.18534383,-0.184527072,0.0196764223,-0.0729594892,-0.152712629,-0.156092468,0.113487953,0.00706553145,-0.0435828273,0.0619140462,0.107188258,0.159804247,-0.0317978325,0.0490581042,-0.00167991312,-0.0667775718,-0.186832717,-0.22500369,0.051180585,0.0612569908,0.117236653,-0.110487818,0.192612586,-0.0587014798,-0.0215370774,0.0589557264,-0.055215671,0.0561323448,-0.0081384407,-0.0309803547,-0.048549427,-0.149385355,0.0291840775,-0.165455565,-0.171016913,0.0491278099,0.0231554623,-0.0655098365,0.0246066888,0.0421487826,0.122125952,0.00514215981,-0.00924726192,-0.0595662461,-0.131295159,-0.032236821,0.201925166,-0.0475694456,-0.156622427,0.0633681647,-0.105323125,0.142438357,-0.110681961,0.112987596,-0.103180873,0.0109321022,-0.0508323158,0.0314835033,0.102624062,-0.0441386346,-0.149416401,0.0684716753,-0.025687488,-0.0598940434,-0.044723863,0.0184240382,-0.0262842469,0.100348656,-0.0233847482,0.0174158821,0.000115991337,-0.0288387861
-0.0920574618,0.136715857,-0.0314473377,-0.0751246862,-0.0675908791,-0.0335111062,-0.0374385076,-0.00851663011,-0.0800374934,-0.0730877773,-0.121185595,0.0524928116,0.0627184527,-0.0540260188,0.0560672566,0.159760136,0.11279031,0.0466261512,-0.032156726,0.0177827333,-0.022988129,0.154143617,0.0132545748,-0.187820373,0.0949391147,0.0408254217,-0.0271189602,-0.103728401,-0.114417605,-0.0172566923,-0.100663306,0.0472306422,0.0856721253,-0.113639796,0.0989057963,-0.0908158954,0.135473135,0.0153954541,-0.14045124,0.0145136566,0.00404689789,-0.162274105,-0.0299527349,0.156623071,-0.0066628198,-0.0703580802,0.0347113294,-0.189505377,0.0548310385,-0.176928399,0.0974543792,-0.0804112164,-0.0277628481,0.0189385703,-0.0426449101,-0.0314300552,-0.0419227756,0.00337948203,-0.100514296,0.0880468298,-0.165499746,-0.0520901463,-0.0549821408,-0.0772267079,0.0792365089,0.0327914722,-0.0451213281,0.151550076,0.0160471297,-0.085762055,-0.0335240165,0.256458897,0.154401425,0.032723779,0.220830659,0.164978089,0.183596551,-0.0185711586,-0.102201839,0.10075976,0.0195337823,-0.0839388059,-0.0966699561,0.187202781,0.0357139386,-0.0807498698,0.0206398732,-0.0253488639,-0.0831155435,0.0995688558,-0.057873395,-0.0781941798,-0.02227578,0.0303986933,0.103757545,0.0350245489,0.0479255742,-0.00639225698,-0.0910736015,-0.18086952,-0.0413284621,0.0220050223,0.184155178,0.110313045,0.0834020601,-0.0503423276,-0.128760129,0.0156006701,0.0144490302,-0.00911201524,-0.0671072001,0.0208791884,-0.000270709346,0.0240478761,-0.00427765917,0.00177109063,-5.68871254e-05,-0.0153098101
-0.0920574618,-0.136895898,0.00211216838,-0.145517473,-0.00234456201,-0.0606674736,-0.210734471,0.112613375,0.01146372,0.00646957796,0.212090104,-0.0145334638,-0.00880080938,-0.0727995256,0.0688662467,0.121426331,0.0546951501,-0.017068586,0.0143468182,0.0124685969,0.0307572932,-0.0958504557,0.0397632257,0.0209869063,0.0231395413,0.00459492041,0.0440504127,-0.0464089414,0.0279551355,-0.0139207537,0.0568781503,0.00400383758,-0.0707224547,-0.0224996455,0.147812655,-0.0677987607,-0.0319981482,0.00844810396,-0.0268559454,-0.14947554,-0.148040689,0.0193202026,-0.13372507,0.0665985714,-0.0357742629,0.0594593342,0.0708188201,0.0325001834,-0.228150122,0.0473393806,-0.0791807763,-0.0377786169,-0.0834189113,0.102513072,0.00306983521,-0.182134527,-0.0460809979,0.0272784515,-0.0842690414,-0.224670302,-0.077107019,-0.0024884851,0.0723425204,-0.205901747,-0.0125839785,0.0548037306,0.0637788439,0.115985068,0.079931758,-0.0756275013,0.135117549,0.00108248088,-0.153247244,0.0101367464,-0.255628312,0.193567971,-0.105632872,0.0820304648,-0.0855292189,0.21144434,0.0296444702,-0.120045733,-0.0217651303,0.0829389828,0.038417252,0.116075957,0.104286597,-0.156523985,-0.0433948348,-0.176688396,-0.00773860748,-0.0389047963,-0.032563396,-0.0898878815,-0.0819479104,0.0917199716,0.0890796893,0.00458282631,-0.00334366528,0.0339264303,0.064147676,-0.0910663696,-0.0120172275,0.133813002,-0.066696227,0.0260069168,-0.00628892969,0.013605041,0.0209785458,-0.119423108,-0.0376891039,-0.074853819,0.0248724464,-0.0702507104,-0.00479892443,0.0783773993,-0.00196986493,0.000296714333
-0.0920574618,-0.0926936714,-0.000515192971,-0.00407500311,0.00807875738,-0.123750198,0.0955680624,0.126436012,0.00749476504,-0.00104959935,-0.130249869,0.014854364,-0.0170349108,-0.0278297114,0.0797737594,-0.127117641,-0.0152750398,0.00640985976,-0.158229204,-0.00882432221,0.111684656,0.0200914616,0.0253978828,0.0625352483,0.0104985239,-0.0127122626,0.183567675,-0.0699312166,-0.0280029479,-0.0968038317,-0.0773697375,-0.00801664172,0.125740825,0.039580514,0.0491646113,0.190860166,0.0577326119,-0.017954434,-0.0633839011,0.19116675,0.111598395,0.0952930367,-0.0626052421,0.0252766415,0.0567605222,0.0811088614,-0.0477632406,0.0304194431,-0.0047941681,0.100250875,0.0582175183,-0.0824220121,-0.124998537,0.107935853,-0.0954976527,-0.101459896,-0.0776760987,0.0233651814,0.01521804,-0.126350589,-0.031530636,-0.0181781306,0.175836911,-0.119593528,-0.0258089322,0.0057602426,0.0656703967,0.0520622968,0.164408935,0.0356784711,0.0134546745,0.111212877,-0.0019790457,0.00122204892,0.00467101505,-0.0464029645,-0.041363551,0.100193439,0.018693315,-0.156791252,-0.0260729309,-0.0019250931,-0.0604667728,-0.0362699945,-0.129663773,-0.0293177692,-0.0993424076,0.0420792445,0.10178445,0.18019317,-0.106377735,0.114242792,0.00200284632,0.192848204,-0.0069334675,-0.0202478858,-0.099146898,-0.0716906976,-0.0171603713,0.00369382009,-0.0709201626,0.0641018926,0.0182816702,0.156591471,-0.141889475,0.203935088,-0.0368039778,0.0777269709,-0.014541645,0.176346575,-0.0343514107,-0.253555617,-0.11705878,0.0206095021,-0.0280221865,0.256115171,-0.0704174412,0.00194748292
-0.0920574618,0.00233585604,0.000191229044,0.133072871,0.0107459331,-0.133558876,0.0366679308,-0.0650657608,-0.00295101265,-0.00275038284,0.135979807,-0.00272779896,0.0373105661,0.154603046,0.145446168,0.0139021239,0.00666550569,-0.00590112531,0.11813322,-0.00806169314,0.0198539965,0.0712803971,-0.0277964083,-0.14890405,-0.074351712,-0.019599213,-0.0616447895,0.14658855,-0.01913902,-0.166554484,-0.0497918386,-0.0132640297,-0.0308143853,-0.0625039057,0.0869918857,0.111033933,0.0394794342,0.0385800969,0.227452865,-0.0819406627,-0.0129291591,-0.143423008,0.140873141,0.0626960696,-0.023249237,0.11107689,-0.0662540314,0.0583363057,0.0146429941,0.159093819,0.16149419,0.00707725759,-0.080385248,-0.0723677805,-0.0310624918,-0.155254877,0.0348088329,0.0842495162,0.079497806,-0.117263868,-0.114484107,0.0123838024,0.0985040672,0.125583001,-0.00181895606,0.0724436259,-0.0608082875,-0.0987633673,0.0636419065,-0.078401646,0.0397916645,0.184102739,0.14400891,-0.00824528908,0.0127722941,-0.158155446,0.0537759884,0.032051089,-0.00473750695,-0.100249736,0.00864010814,-0.105539473,0.210979184,-0.0254434909,-0.106933917,-0.0449542668,0.0626785705,-0.130380675,-0.24383636,-0.250867404,0.0357436015,-0.0171533429,-0.00972149153,-0.0137341076,0.0352483536,-0.0406053519,-0.0154955073,0.0174912175,-0.122621636,-0.00941102215,-0.137856501,-0.0589180326,-0.0562555341,-0.135546197,-0.0483950058,-0.0293043602,-0.024718311,-0.0124256873,0.0758095978,-0.0353223397,-0.000198745143,-0.020894182,-0.0299054483,0.213775088,-0.0881363627,0.0767587807,0.000727356601,-0.00943898708
-0.0920574618,0.099351756,0.00443234017,0.0496879425,0.00986713984,-0.0664850008,-0.14830543,-0.0924992949,-0.00267545758,0.0101724287,-0.13762701,0.0164981926,-0.0368578033,-0.121635833,0.110179245,0.0116638226,0.0137863497,-0.0208859553,-0.0381180803,0.00324196393,-0.203307554,-0.0394207417,-0.0290828066,0.0175963452,0.011667691,-0.0113351058,0.174843042,0.0855139976,-0.0191158311,0.0172990381,0.178841735,0.0511118503,-0.0703049069,-0.0752904638,-0.216290292,-0.00763192576,0.0571582724,0.0175182754,0.120444473,0.0250464585,-0.0542511519,0.135154598,-0.0987649066,0.0890622755,0.221469875,-0.00784604017,-0.0276219442,-0.0570084627,-0.07045397,0.0519230764,0.0127053503,0.193763395,0.0604491966,-0.0854398804,-0.028263793,-0.115974529,-0.000103697314,0.121954558,0.208236579,-0.0106443598,0.0504790807,-0.139028158,0.216826715,0.107066688,-0.0097167718,0.134664802,0.0269270638,-0.0849108975,-0.167859365,-0.112686072,0.0693784395,-0.0628715987,-0.0593444132,0.0530496442,0.0776472397,-0.0342394249,0.0355780121,0.0768932379,-0.0589271496,0.0962471308,0.0812602479,-0.0684916135,0.0797245824,0.175705091,-0.00659774615,0.0575526265,0.101313236,0.217346795,0.12534569,0.112119037,-0.155323492,-0.101299988,0.0808891489,0.0256677505,-0.094240209,-0.032763184,-0.0398158188,0.0601410423,0.00010464505,0.0370868742,0.00442496208,-0.0460179848,0.00709346016,0.0366082615,0.0282418911,-0.0394288814,-0.128631798,0.058389101,-0.0350205625,-0.055690894,-0.148389056,0.0542109298,-0.00941225491,0.103472168,-0.0243571456,0.0126499282,-0.00196936043,-0.166239603
-0.0920574618,0.173114391,0.00683993014,-0.210921943,0.00818429766,-0.0566781744,0.129112966,-0.0584516695,0.0116324243,0.00736575904,0.095167874,-0.0329381111,-0.0337114368,-0.0255419507,-0.0114659358,-0.0670414032,0.004717427,-0.0024862828,-0.0450330271,0.00586695143,-0.0633992987,-0.0144589113,0.0209879783,-0.0955685776,-0.0246017058,0.00218231035,-0.0203335159,-0.118516844,-0.00208784588,-0.0720463475,-0.0310230795,0.015304647,0.0461710632,0.0646931023,0.0402433435,-0.159985503,-0.117285519,-0.0310483355,0.0220299728,0.05355444,0.0706712132,0.109543772,0.267910005,-0.0618485006,0.0656220249,0.04670409,0.0248193918,-0.0489257845,-0.208752291,0.0440013847,-0.0263638392,0.0444280009,-0.0804443809,-0.0104210751,-0.0255723154,-0.0168020409,-0.0288376547,0.0670063012,0.0751959859,-0.00130205442,0.161036938,0.00172482639,-0.000291833956,0.171037626,0.0782617137,-0.031612899,0.0336227847,-0.00429451272,0.0809620344,-0.0738648164,0.134986499,-0.121221674,-0.328051835,0.0163410664,-0.0294630043,-0.0439370655,0.0625159217,-0.151406549,0.155680946,-0.208252571,-0.0185687737,-0.110777302,-0.205623064,0.0462310996,-0.0735268801,-0.0621410504,0.0348758257,0.0126704833,-0.13938307,-0.0298861218,-0.0061827053,-0.094437146,-0.228503362,-0.0344458336,0.058201977,0.0191606656,0.077590194,0.0257841142,-0.076611336,-0.118688091,-0.079729992,0.162509256,0.0939388828,0.166220057,0.144363846,0.00576084736,0.0309914092,-0.0870872096,0.097556235,0.0311723892,-0.115640372,0.0218225031,0.0125479265,0.00548707429,-0.00474688033,0.000572089834,-0.00062273701,-0.0415902902
-0.0920574618,-0.118778749,0.0398221857,-0.0821242608,-0.0561156653,-0.0750376829,-0.048310974,0.0982143761,0.0192677402,0.0708706837,-0.0324234619,-0.0434786769,0.0674882164,-0.0977226223,0.00640539327,-0.111451641,-0.0293409325,-0.13243068,0.0338965922,0.0115379916,0.0894002249,0.140418009,0.0435611913,-0.141751125,-0.0111189909,0.0707747274,0.0532217394,0.100077694,0.171606264,0.052022576,0.0839597365,0.00891695453,-0.0650668163,0.084154836,0.0371413207,-0.0885395971,0.0569576208,0.0385837784,-0.020002017,0.055760067,-0.0154483755,-0.0276694703,0.101007326,0.112543121,-0.0194037391,-0.0982271206,-0.119558105,0.0236809121,0.0748635952,0.036002579,-0.134433238,0.0219466715,0.0378283326,-0.0552689001,0.00861903038,0.0657070243,0.0223165266,-0.147480776,0.0169289888,0.169927522,0.043157865,-0.0727888558,-0.0396515351,0.128233805,-0.031664945,0.00445640847,-0.0662728308,-0.0137189462,-0.041895133,-0.0258625714,-0.00115271159,0.0495869563,0.0345518479,-0.0537207043,0.0459062031,-0.0999612537,0.00403970522,-0.0919212997,0.0478497496,0.00120094452,-0.0607972346,0.0802232149,0.0915631316,0.0646421137,0.0521940383,0.00265419092,0.11616178,-0.0569603529,0.0519115907,0.0365711105,0.110184655,0.00592953054,-0.104142424,-0.0256805726,0.0713738143,0.0631332235,-0.0380860726,0.142609294,0.0109782331,-0.022426256,0.00157748851,-0.071004168,-0.0448178134,0.00264261337,-0.0401564018,0.222542123,-0.145544668,-0.189621366,-0.0401759826,-0.348120039,-0.114607442,-0.178929888,0.0811829396,-0.22305769,0.055453667,0.34033166,-0.0316339808,0.00141378421
-0.0920574618,-0.0511962241,0.0352512183,0.0773469382,-0.00561123175,-0.127741743,0.133849343,0.0456757775,-0.0837734162,0.0659084251,-0.010579742,-0.0712620196,0.0463201557,0.103125695,0.09951314,0.0866834821,0.044678359,0.101848306,-0.121783831,0.138108191,-0.0137591021,-0.105190665,-0.0401916249,0.0652774216,-0.0891409392,0.0768963589,-0.0202387408,0.0584019674,-0.0405965714,-0.00884760789,0.0909332025,-0.0593589343,0.0762138346,0.0266482669,0.000199777246,-0.159899221,0.0575602,0.0484146083,-0.0526458105,-0.11623062,0.0980207816,0.0322961575,-0.0741531903,-0.0681810104,0.00810926407,-0.00989767055,-0.0495527638,-0.0274398103,0.00130675649,-0.0468303739,-0.0792960004,0.0345614078,-0.00376991793,-0.000607055935,0.0703572631,0.0796615706,-0.061301173,-0.107076068,-0.0968526158,0.130737553,-0.0124845048,0.0422658824,0.00918227071,0.118463847,0.016349682,0.0551659628,0.0800322602,-0.106117698,-0.0274963256,0.0514235978,-0.0364609422,-0.0475627959,-0.0304061026,-0.0504767499,-0.049446031,0.122142594,0.0324799442,-0.0168185236,-0.0677491792,0.0283541831,0.0371622874,-0.0300590963,-0.0137784228,0.0697742008,0.00120442805,0.0976768337,0.187470258,-0.00451246695,-0.0450779069,0.0347324857,0.0530119382,0.0438703008,0.0483838628,-0.0913134726,0.0181442355,0.0978798967,0.0397465593,0.0399149038,0.164480542,0.0345635074,0.108521923,0.143094259,0.067351552,-0.110664203,-0.00322447481,-0.0554526502,-0.119039759,-0.139132317,0.104208699,0.278920294,0.157482204,-0.0246834103,0.0305081023,0.160636152,-0.405580838,0.29425398,-0.0432129989,0.00812997771
-0.0920574618,0.0564070152,0.0345204657,0.119576331,0.0496034247,-0.0882547991,-0.106553296,-0.109227425,-0.0617661761,0.0864173278,0.0491761208,0.104165949,-0.0573137271,-0.0205835996,0.0497920183,-0.132516407,-0.0590436945,-0.0591544737,0.109728547,0.11410689,-0.0328417387,0.0230320951,-0.020347272,0.0642693265,0.105719521,-0.115279434,0.0888467997,-0.0150678581,-0.0416838201,-0.0486344162,-0.0675667098,0.0879984812,0.0203169712,0.0082635422,0.00474375682,-0.10030526,-0.0916586163,0.101543461,-0.175081158,-0.00361410034,0.0345705556,-0.00184891818,0.0521058108,0.0459726353,-0.0343732189,0.0561089818,0.159330219,0.147253755,0.102468715,-0.0736661834,0.0275132971,0.0497570119,-0.00253924724,0.0702415162,0.0646790106,0.0869889467,-0.0739060353,-0.220710217,-0.0809815079,-0.0137138909,-0.109022959,0.126309822,-0.0331198715,0.00885116652,0.00334633192,-0.161637659,-0.070747911,0.13612841,-0.0822571557,0.0601128393,-0.0879072953,-0.0171769269,-0.0541358311,-0.0218659788,-0.199689355,0.0194374911,-0.0166904201,0.0752576296,0.146674822,-0.137202359,-0.0612995235,-0.0775366262,-0.0443210516,0.109026971,-0.0998902131,-0.0253991476,-0.00193996854,0.113196239,-0.082412884,0.132152085,0.0807327606,-0.0875603572,0.200434958,-0.031306606,-0.00513393826,0.0821207616,-0.0114720302,0.0133268117,-0.0945152782,0.0552657519,0.0552382456,-0.0463978748,0.00441155096,-0.00306460046,-0.0326544187,0.0870150761,0.0857859038,0.0566916973,-0.128013657,-0.240244777,-0.131695038,0.0974606045,-0.0718489026,0.341961882,-0.064673886,0.0497421001,-0.00104080508,-0.0526566273
-0.0920574618,0.137407127,0.035722988,-0.0790470431,0.0673415323,-0.0258707413,-0.0337613422,-0.0181043292,0.0784649909,0.0722221701,-0.121128159,-0.0282353437,-0.0754992027,-0.00902198004,0.0543600425,0.180960557,0.0273581866,-0.0443237268,-0.0527186186,-0.0328612166,-0.00978094254,0.0959745983,-0.0897647442,-0.0786198154,-0.144174976,-0.0300616537,-0.049870203,-0.153055416,0.112063948,-0.0909278784,-0.0403256269,-0.0369085365,-0.0233918095,0.142565152,-0.0276167677,0.0604368186,-0.12477865,-0.0171676799,0.0176971579,-0.0670245253,-0.0260632485,0.0333806639,-0.0961744419,-0.125256774,-0.0910180195,0.0453375617,-0.0281891614,0.208521597,0.151348354,0.046838285,-0.119124946,0.01786003,-0.00202936466,0.00154576009,0.0640257398,0.0950516709,0.0385348499,-0.0470051839,0.0415153913,-0.0390934045,-0.0155056935,0.0668612162,0.0528510017,-0.184936741,-0.101099256,0.0137732853,-0.0578328804,-0.0979486501,-0.101494658,0.0453168099,-0.0716422653,-0.0302130002,0.207866131,-0.0661331835,-0.117703652,-0.0251976496,-0.126322445,0.110182553,-0.0960968956,-0.0031412803,0.0189290841,0.117589166,0.151580478,-0.0506357101,-0.0205887856,-0.0236087915,-0.00534879577,0.0743234019,0.0469919372,-0.0542709897,-0.0589598553,0.0913646141,-0.0585665458,-0.112537801,-0.0764924429,0.0888034287,0.0742619176,0.0646917135,-0.127049767,-0.323108338,-0.046615308,0.135354306,0.18777983,0.134971401,0.120395321,0.0129792692,0.0437850609,-0.0917892695,0.114239804,0.0534779663,-0.189531291,0.0360840725,0.0271456689,0.0034095671,-0.014390585,0.00196176349,-0.00270323449,-0.205737206
-0.0920574618,-0.123449072,0.0926426766,-0.108963744,-0.152373488,0.00935766134,-0.11401358,-0.0788035398,0.136531258,0.0954967203,0.0350833015,0.101510031,0.12965945,0.104321819,-0.0683641624,-0.0500575318,0.142282509,0.0141203187,-0.0634473534,-0.015781096,-0.100518255,0.0567276058,-0.0502652696,0.0605793003,-0.0568092231,-0.0493564196,-0.0438618067,0.0788904053,0.0717203738,0.0319187311,-0.100995653,-0.0100837228,0.126540952,-0.0179802233,-0.121597287,-0.0996116074,0.116562821,-0.0734276452,-0.00557040878,0.0885161879,0.179220801,0.0269244267,-0.0467288969,-0.114930807,-0.0969525735,-0.0122202166,0.0193412064,0.15288985,0.00336830961,-0.0667983867,0.279338588,0.0531672182,0.00793186772,-0.186171433,-0.174603071,0.0249712997,0.0820373923,0.132696728,0.142129893,-0.063973538,-0.0402845651,0.11755151,-0.0894010799,-0.13781926,0.195534505,0.001390708,0.0763582752,0.117229297,-0.0689316013,0.21435043,0.0309351378,-0.149451656,-0.0452752933,-0.0997576373,0.142900785,0.115103418,-0.033703882,0.0440674656,-0.019669966,-0.0876070337,0.0693821829,-0.12684952,0.144729512,0.00682177154,0.00723367989,0.0585649029,0.0891703237,-0.0853262082,-0.0146130971,0.0146149989,-0.00171643835,-0.0186995038,-0.00692908758,-0.0868997445,0.057583177,0.126089734,-0.0641592024,0.021940614,0.166497459,-0.0254591717,-0.130873658,-0.00226267729,0.00680771959,0.0341430986,-0.0397836925,0.0368250169,0.0302241686,0.113702449,0.0614020645,-0.0767535303,-0.00616002886,0.0560675049,0.0502853331,-0.0475443219,0.0471037702,0.0898484419,-0.0124041777,0.000319065076
-0.0920574618,-0.0900690352,0.0655834335,-0.00278308597,-0.0634363596,-0.0831146125,0.0954007329,0.0733303777,-0.0717940332,0.107765906,-0.137346532,-0.157885596,0.0861235466,-0.0670704209,-0.0227078763,-0.0187861403,-0.115783383,-0.0642658552,0.0380650188,0.0851273925,-0.0715304017,0.0150034853,0.0666747519,0.0946968778,0.00728987321,0.122242363,-0.0853452995,-0.0998489428,-0.0882968034,-0.00112305595,-0.159038366,0.154932959,-0.135551829,-0.03999961,-0.0924670003,0.0777961023,-0.0828841689,0.0794704797,0.0961998494,-0.114875462,-0.126162531,-0.077040671,0.0426411597,-0.0545052231,-0.0642326385,-0.0465538053,0.0892307766,-0.0264697796,-0.105858064,-0.0583426529,0.0638710125,0.0654382092,0.0587513295,-0.069622352,0.0202302844,-0.0845833211,0.0622573155,0.155558096,0.00226568791,-0.113682943,-0.0340513486,0.0604081272,-0.0662345132,-0.1502722,0.125807215,-0.089571917,-0.11967168,0.045791067,-0.0169494219,0.0282389998,-0.0544949717,-0.245985793,0.0550422361,0.0431276083,0.0827164715,-0.0701075061,0.0682802798,-0.0648777002,0.0304226514,0.0814837505,-0.0527833411,0.0505761754,-0.0354324059,0.0451026357,-0.0291776532,-0.0699629018,-0.0236187088,0.100865047,-0.038655391,-0.0519620453,0.0294704003,0.0830943168,0.0441591958,0.100583474,0.00660744613,-0.144012003,0.124203033,0.0830400897,-0.241628489,0.0664629276,0.210533868,0.0030916762,-0.0236777174,0.0106681293,0.0186948511,0.033753361,-0.0320077395,0.0457628694,0.05781574,0.0999435087,0.0540506421,0.139398394,0.0704473518,-0.0305957712,0.0956258486,0.338989741,-0.119833579,0.00263988892
-0.0920574618,0.00959987323,0.0658904786,0.122135348,0.0433395476,-0.0715924577,0.015560023,-0.0437152085,-0.147927458,0.104013776,0.132261315,0.0594480764,-0.0341568576,0.0538146185,-0.0671043585,-0.0137886255,0.0858420282,0.109917048,0.0372962814,0.131299747,0.0963629867,0.0607219541,-0.0867774134,-0.131129151,0.0704128818,-0.00988459367,-0.0232665266,-0.112806489,0.190358513,0.0998489493,-0.0168305205,-0.0790834412,-0.0399865282,-0.0411913558,-0.119070961,0.166503721,-0.0486324147,0.0629716976,-0.033554078,0.171130592,-0.103634067,0.113402581,-0.107545465,-0.0506491814,0.019303159,-0.0944233823,0.0596484258,-0.106772841,-0.159032962,-0.0645807419,-0.0314692097,-0.00108842475,0.034560666,0.036482688,-0.113353767,-0.0319126834,0.0146801764,0.0352507356,0.087595211,0.0267503011,0.170360698,-0.0993521859,-0.107259371,-0.0954603136,-0.027740754,-0.0214171589,0.00219805286,-0.0494517819,-0.0211779686,-0.0500818365,-0.0324748727,0.0400052988,0.0507109245,0.0459022967,0.129214766,0.139294601,-0.0605630099,-0.0309555972,0.0097274059,0.0294526773,-0.024478435,0.0482065199,-0.0415660656,-0.175993444,0.0306728977,0.0482857878,-0.00493432246,-0.105543435,0.0591926931,-0.0726641625,-0.015369586,0.110596969,-0.229561385,0.0227790343,0.0174283798,-0.214552774,0.0689035301,0.0144381006,0.15172086,-0.108351161,0.0583395107,0.00105098677,0.0286282851,0.031904386,-0.0643506343,0.0304048401,0.0769286247,-0.0248325321,-0.04157847,-0.209073494,0.0232158294,0.0833396185,-0.0993362545,0.363006122,-0.0877798495,0.0899279027,-0.00660871806,0.00916549025
-0.0920574618,0.0948282005,0.0605945703,0.0436416198,0.0998413411,-0.0204725317,-0.122561269,-0.027312281,0.0191155391,0.118626236,-0.103645905,0.110150109,-0.0607460853,-0.0418447131,-0.0042708985,0.0620478635,-0.11560152,-0.126477249,-0.108231121,-0.0078443238,-0.0175314235,-0.0971648166,0.0492103478,0.0715433929,-0.144123311,-0.0631162741,-0.0954268559,0.0785757896,-0.00996339442,0.0818811212,0.0549068818,-0.0891516397,-0.0473983175,0.0524099452,0.107150625,0.0806060858,0.131313278,0.0260728918,0.0508523889,0.0768901291,0.00350114474,-0.105480492,0.107082712,-0.0763195802,-0.113946382,0.00931969962,0.0423157805,-0.146702249,-0.126856485,0.0126324022,0.0364702872,-0.178027416,-0.0892570922,-0.00101191063,-0.0774366082,-0.0136724743,0.0400497632,-0.00245796477,-0.092555704,0.0557139795,0.124950835,0.0632629295,-0.106929974,0.0363761242,0.0157207079,-0.0355500833,0.0231659263,0.0299209067,0.117174391,-0.0152812069,0.0504057524,0.0141871246,-0.0169161059,-0.038636549,0.0358614015,0.0241124381,0.0553918873,-0.0768333314,-0.0514432111,0.0291805387,0.0261008358,0.00801932125,-0.0133152417,0.0274850917,0.0697943262,-0.0309211081,-0.0975019093,-0.120639946,-0.0152682029,0.0404084716,0.020052542,0.0715594285,0.0735904673,0.0331050008,0.0391016328,0.0220862081,-0.0403374887,-0.0792397054,0.0728437392,0.095600705,0.103450954,-0.110261279,-0.0267974191,-0.122864935,-0.078531786,0.0504282315,0.105755492,-0.02524689,0.0138516148,0.0619886169,-0.189488453,0.0369890695,0.04353947,-0.00207778938,-0.0301409152,0.00538182713,-0.00765108017,-0.596371199
-0.0920574618,0.164949322,0.0412279871,-0.185572984,0.0875657835,-0.0320671947,0.100695379,-0.026935415,0.172918322,0.110296248,0.0385293804,-0.227468795,-0.235755352,0.0986168622,-0.0305011433,-0.0206965726,0.172111227,0.000910128327,0.140685547,0.0304869214,0.168851814,0.20706884,-0.0104008872,0.351369843,0.168816267,0.0325890698,-0.000385013485,0.176857761,-0.0871090019,0.061207248,0.155855984,0.00463602663,-0.0505136,-0.115216399,-0.0146930092,0.087446039,0.107305068,0.0283032986,0.055255214,-0.0086612021,0.0329776938,-0.0197933435,-0.195329573,0.207804982,-0.146040958,-0.0545630817,0.0156411703,-0.13124553,0.181912329,-0.113191137,0.0742377839,-0.0458348897,0.019597742,-0.00738964818,-0.0356205808,-0.23361485,0.0470411324,-0.0333406924,-0.0937335281,-0.00141033895,0.123962003,0.0254283953,-0.0746790719,0.0843743941,-0.00734955315,-0.0792863403,0.0788568291,-0.0151676257,0.0574524745,0.0715241519,0.0283937925,-0.0380617003,-0.036549385,-0.00696948502,-0.0693347955,-0.0543831632,-0.0447838833,-0.0283787669,0.0766733083,0.0119199288,0.0806038572,0.0308257571,0.0415722386,-0.00380357881,-0.102548759,0.0279882508,-0.0129072265,0.0526678711,-0.0268596351,-0.00142160201,-0.0154987205,-0.0199862615,-0.0743838416,-0.0401112205,-0.0340110042,0.00674880674,0.0335482511,0.0374008786,-0.0264587606,-0.0623008289,-0.0261456892,0.0581963119,0.017758068,0.0440781839,0.0333091313,-3.02422184e-05,0.00635867624,-0.0171334642,0.0174005763,0.00590401981,-0.0186140381,0.00355262028,0.0025085814,-0.000265211104,-0.00145453484,0.000162485663,-0.000246134853,-0.019125777
-0.0920574618,-0.0539994233,0.104567547,0.0459525012,-0.0445526546,-0.00215664439,0.104249,-0.00179030492,-0.139751433,0.0552379602,-0.0203102631,-0.127165044,-0.0130779173,-0.066769273,-0.128879231,0.132695015,0.0149828212,0.0513077546,0.0978212869,-0.105567146,-0.108944145,-0.0930999863,-0.0880499903,0.0438953014,-0.0285513852,-0.153618664,0.0538169494,-0.0444043036,-0.0658352757,0.138915702,0.0106540349,0.00147578064,-0.069672042,-0.0461685095,0.192335226,-0.0559815976,-0.04821784,-0.18974582,-0.00943135131,0.134206845,-0.00930264308,-0.0321338009,0.0596369195,0.181475973,-0.0040968745,0.0862930451,-0.0228627589,0.174149699,0.136273136,0.11545601,0.0768419839,-0.0298533825,0.0647527558,0.0826887191,-0.217151485,0.0236285748,0.0900506645,-0.06217039,0.209223535,0.161624855,0.0358885285,0.0366864672,0.00423427418,-0.0301670984,0.0390848048,0.147130701,0.0702982065,0.0707506127,-0.0185514582,0.0387386508,0.204382065,0.178156324,-0.0321576111,-0.078287622,-0.157073584,-0.0113933576,0.0504007312,-0.00108905066,0.118552028,0.215468309,-0.213449232,0.110290229,-0.0576743926,-0.0745564059,0.055676364,-0.0402408195,-0.0387544144,0.156463112,-0.0930605205,-0.0306831118,-0.0851307278,0.00314574847,-0.0156181912,0.0384229038,-0.00856264287,0.0337389433,-0.028844051,-0.0966355002,0.0842331087,-0.0574057703,0.0480057243,-0.0173401366,-0.0337140308,-0.0255486997,0.0828795329,-0.0575142587,0.028743307,0.0308173184,0.0523191548,0.0202864035,0.0600736117,0.133240465,0.0710886693,0.0402825181,0.0293644339,0.142396369,-0.0756768057,0.00265727884
-0.0920574618,0.058346017,0.085010504,0.0932261957,0.102995727,-0.00203166157,-0.0833267956,-0.0111686065,-0.0713548876,0.11417612,0.0393403759,0.154285924,-0.0440779746,-0.0265091753,-0.146650607,-0.0636674639,-0.0470831858,-0.0509805485,-0.10407985,0.00248711937,0.111135632,-0.00101354798,0.153512742,0.0431541512,0.0875398282,0.0902960813,-0.175480222,-0.0661645023,-0.0873196864,0.0619530881,0.00298902982,0.0346830937,0.148269762,-0.000784011867,0.130255962,-0.0622222063,0.00748197156,-0.144635054,0.114322863,-0.11751054,0.0465410721,-0.00459771001,-0.0426581692,0.0211089057,0.0317041924,-0.0491389829,-0.220470878,0.0321533216,0.0651135697,0.0781431399,-0.0239051139,-0.00988910321,0.0429588515,-0.0885896082,0.0760419447,-0.0197876704,0.086000616,0.151320457,-0.0267444494,0.0397271281,0.0113004298,-0.00844901797,0.1988976,-0.0340603766,-0.0644880509,0.117813033,0.0767561669,0.0269558715,-0.0301010461,-0.0325079154,0.1417008,-0.0764564406,0.00745554895,0.0161654078,0.0763528211,-0.0873498593,0.109930615,-0.0203988264,-0.0419272508,0.10798181,0.180703157,0.00666617142,-0.0612684974,-0.0691659732,0.0114308585,-0.094789376,-0.117429656,-0.0692019381,0.082421904,0.0357176609,0.180413191,0.123719655,0.117274729,-0.0827513205,0.0812127169,0.197717157,0.0613209669,-0.0369210054,-0.0815454236,-0.0194398015,0.000304264707,0.213523851,-0.131898185,0.174498939,0.110383165,0.052783493,0.0756376925,0.017082409,-0.183169938,-0.161939071,0.13654474,0.0277883181,-0.0497867146,0.150325495,-0.031609327,0.0262248196,-0.00328317212,0.0351691593
-0.0920574618,-0.096871298,0.106754535,-0.0387391412,-0.123470373,0.0143756396,0.0280322935,-0.0533693629,0.00436604705,0.0672610866,-0.0896233315,-0.0608590035,0.0391522037,-0.0211251923,-0.0821519065,0.00582736302,-0.0997980961,-0.052555382,0.148459124,-0.0575132753,-0.0834263036,0.0211236986,0.0504882002,-0.0557280032,0.12534482,-0.108298052,-0.166471358,0.0288016497,0.0303345317,-0.106950208,0.0652666451,-0.149870333,0.115863335,-0.0471095379,-0.0856135045,0.0378567765,0.00223490544,-0.0679764874,-0.0120425945,-0.0402581314,-0.000951247969,0.0419639532,-0.0738087688,-0.0475716339,0.101656976,0.13235661,0.0724748675,-0.128442145,0.0140061137,0.00702594845,-0.0834927356,-0.078577629,-0.0846283814,0.156040941,0.0989600889,0.0247038046,-0.119083222,-0.0117831293,-0.107443151,-0.0794744619,-0.0272880045,-0.0218936963,0.0251358031,0.105377593,-0.128359694,-0.0108553061,0.193695081,-0.0763073707,-0.0337929161,-0.139369156,-0.0549324851,0.0520860782,0.0142633711,0.00897001138,0.00114380663,0.02606089,-0.0589938973,0.0395307247,-0.117765802,-0.0892800706,0.0824677133,-0.054716481,-0.0551876745,-0.105052826,-0.10463842,-0.0920544117,-0.0426353178,-0.0657964509,0.037395156,0.0876934839,0.0410292238,-0.130015331,0.0323241605,-0.0768522202,-0.0767790942,-0.0227728253,-0.0886245258,-0.0688620815,0.0810260309,-0.043942292,-0.156318368,-0.0223329409,0.0235710831,-0.0843670481,0.0718879161,-0.1549044,0.100806234,0.0458032016,-0.00746616277,-0.0457973853,0.0282531037,0.307572434,0.0688174274,-0.102937111,0.207349424,0.363636617,0.0284298042,0.000880819409
-0.0920574618,0.00453089539,0.132433416,0.0749299826,0.0501080084,0.102680151,0.0365116001,0.0405688323,-0.108765013,-0.0490099258,0.0932663647,0.00345005179,-0.0273107759,-0.0898180224,-0.143082927,0.00773380504,0.132130525,0.0183531079,-0.0804397284,-0.202882398,-0.0161422446,0.0954018045,0.0322030894,0.0126594285,-0.0634230021,0.0653787729,0.135667777,0.0743037176,-0.00264027191,-0.130671334,0.00797197674,0.0729481785,-0.037622966,0.0960653081,-0.119734907,0.0258162115,0.0526783036,0.108553625,-0.0206473944,-0.155610349,0.0173821167,-0.0707560507,0.064179946,-0.0709499209,-0.0347758767,-0.00736231223,0.126110232,-0.0229942363,0.00368482256,0.016103153,-0.000137011506,-0.043076878,-0.0387973402,0.0896370884,0.000401275448,0.030634296,-0.0458562504,0.0568738511,-0.0540691089,0.021908476,-0.0951024436,0.0562958765,0.0468117679,0.0904365046,0.0551563844,-0.047499069,0.198054517,0.0453792507,-0.0494812754,-0.0889737481,-0.232917127,0.0373977978,-0.126476498,0.0170991495,0.116809093,-0.081292901,-0.25183287,-0.0630924662,0.13018188,0.0293774895,0.0196143758,0.0598334285,0.149904809,0.189097223,0.145613204,0.0433599262,0.0269605749,-0.000842117049,-0.0228422685,-0.0750746089,-0.226927681,0.19409511,-0.0724740217,0.123978466,0.0795749356,0.14890113,-0.045684026,-0.261081755,-0.00950307817,-0.0815819509,0.0415508099,-0.0439482508,-0.169057102,0.0859709656,0.144257865,-0.0414372756,0.0361538049,-0.0867692722,-0.0538233947,-0.0296568833,0.0665050655,0.0358522384,0.00257642393,0.0672364542,0.0148822115,0.0317635652,-0.0184550572,0.00607879543
-0.0920574618,-0.0522605146,0.149583334,0.0179205705,-0.0740970723,0.139301386,0.0707397712,-0.0857370276,-0.0416453209,-0.121225402,0.00215346374,-0.0259235413,-0.145958981,-0.0777634293,0.0665846981,0.0727682843,-0.0274497345,-0.0782947661,0.0462472772,-0.0543308105,0.086707038,-0.0920073746,-0.0339117555,-0.0276962035,0.0174311422,-0.0563123797,0.0499514727,0.0774593176,0.0174916713,-0.0178381389,-0.064735558,0.0458730939,0.180795469,-0.00569485115,0.0813928023,-0.0427417827,-0.00437413593,0.186395021,0.0844484895,0.0703840478,0.00264361711,0.0758439243,-0.0950117287,-0.0810180535,-0.0708565545,-0.127278665,-0.116196573,-0.0177782965,-0.0728813691,-0.0883150754,-0.040826566,0.0847535077,-0.0271785375,-0.244137702,0.0563929821,0.0040993346,0.00455269877,0.0111412264,-0.0735766541,-0.0490912204,0.0299221806,-0.0878229012,0.00158804217,-0.0366104564,-0.0364681789,-0.102088842,-0.29283132,0.0209822188,0.0473079461,0.0932280317,0.108894631,-0.026840715,0.0515783424,0.0779118859,-0.0955460839,-0.0104392859,0.191259839,-0.0412549111,-0.0689709915,-0.00134494871,-0.141265834,-0.109208759,0.0161846226,-0.0770453288,-0.16458262,0.2448568,0.0265214135,-0.037634844,-0.000198080013,0.0852992464,-0.0781322168,0.0104877421,-0.0679447277,0.128858574,-0.14579037,0.136797773,-0.142692348,-0.284533624,-0.000155535126,-0.126792676,0.0222979026,-0.0899088883,-0.100373016,-0.0167727688,0.152990896,-0.0844115392,0.011038734,-0.128640902,-0.0531070253,-0.0137407646,0.0305267293,0.0486780007,0.0165744442,0.00577556951,0.0253018135,0.0537443054,-0.00139876628,0.00161085589
-0.0920574618,0.0679613801,0.124849313,0.03802997,0.146886213,0.127554872,-0.0381268718,0.160475233,0.079494107,-0.0289130568,-0.0108365398,0.00323220458,0.163725591,0.0749804677,-0.0339084694,-0.0439083409,-0.0499199485,0.0738269273,0.0227688124,-0.0287772162,-0.00713079859,-0.0601597069,0.040701733,-0.0611060586,0.042165196,0.078431006,0.0168110457,0.0159567262,-0.0953912445,-0.106518926,0.0266373934,-0.0377810494,-0.0373821675,-0.123135751,0.00384080042,-0.145873537,-0.0411556803,0.0737059539,0.0523427221,0.199826141,-0.0207612937,0.0744835684,-0.0317612513,0.0346785353,-0.0135168831,-0.022647303,0.0612401387,0.0451005689,0.0377347827,-0.0104011775,0.0223260451,0.0334774534,0.0835755162,0.101053384,-5.73296011e-05,-0.0485057165,-0.0253092987,-0.0951260805,0.0793052245,-0.129298878,0.0303521224,-0.0521899197,-0.201477131,-0.0235377089,-0.0200551754,0.0212241314,-0.110830178,-0.226354707,0.119397288,0.107774173,0.0563552148,-0.0717404974,0.111040567,-0.0797246392,-0.14835833,0.0336925579,-0.000730049669,-0.0166887236,-0.329937437,-0.119153845,0.0541176657,0.0914966744,-0.00569215501,0.173841829,0.0202645022,-0.329730003,0.0683772151,0.0150172951,0.0315985903,-0.026897487,-0.214627672,-0.0700542456,-0.117101988,-0.0121953437,0.203030925,0.0829997369,0.025887827,-0.0863761317,0.0217699841,0.121003967,0.0298513376,0.0445328628,-0.171239235,0.0585853447,0.0519473652,0.00403057624,0.023996357,-0.00237480544,-0.0832128207,-0.0318460521,0.0682696846,0.00402927936,-0.00615561263,0.0276594301,-0.00101326534,0.00673848435,-0.00400578178,-0.0219704595
-0.0920574618,-0.0961838608,0.142562781,-0.0537274671,-0.176390181,0.113450759,-0.00147615656,-0.215534823,0.111065492,-0.0298988899,-0.0650557755,0.119598995,-0.0816658228,0.154260727,0.032771818,-0.000562401863,-0.105538042,0.157990914,-0.0458198879,0.0483510433,0.107252101,-0.0477048844,0.047632661,-0.0535332389,0.0428112762,0.126431379,0.0885092391,-0.149611035,-0.144726457,-0.0703083005,0.215159873,-0.0364778503,-0.250608437,0.106766348,0.0469159221,0.148548745,-0.0463715336,0.0318072148,-0.170020606,-0.15976505,0.000723085013,-0.0784931728,0.159386357,0.0903515635,0.067178361,-0.124552664,0.0184271943,0.0123994461,-0.0135437424,0.0917579301,0.0259213232,-0.0730168681,0.130857782,0.209330726,0.133159621,-0.12999061,0.184651341,-0.0318276478,0.152957443,0.229522551,0.0563012562,0.0266025241,0.123891775,-0.0700052067,0.120309985,0.000505307996,-0.124710784,-0.0289780857,0.0884314395,0.182811968,-0.0367441099,-0.0218307931,-0.0295228772,0.0206781165,0.0526651441,0.102732298,0.00702713592,0.0580708141,-0.0541068321,-0.125753433,0.0982066904,-0.0945480231,0.0308353492,-0.0312733274,-0.022344592,0.0908509841,-0.00960918837,-0.0511908376,0.0193372047,0.0181068887,0.00292752454,-0.041402686,-0.00452644329,-0.0125410436,-0.0315144546,0.0281121498,-0.0312358277,-0.0402948507,0.00585105801,-0.026984921,-0.0215070235,-0.0463379304,-0.0159117826,0.00731607329,0.0336963075,-0.0322149387,0.0210689525,-0.00837244549,-0.0136801688,0.00449776887,0.0101099363,0.049665615,0.0133568897,-0.00864367351,0.0351668593,0.0466791054,0.00349134391,0.000194673877
-0.0920574618,0.011837273,0.158820882,0.0506904319,0.0670761057,0.206297026,0.0366317784,0.105458721,0.00762343212,-0.224262486,0.0770641256,-0.0303133321,0.0537605765,-0.065842324,0.205432382,-0.131656411,0.0920853165,-0.106807903,-0.0694544776,0.224920589,-0.204277009,0.192721434,-0.00777821796,0.134764219,-0.0853802624,-0.111577444,-0.206773611,-0.046496055,0.0667335779,0.104881729,0.0213938885,-0.164401958,-0.0734006032,-0.0176327663,0.0826046571,0.219858236,-0.0983253426,-0.202181508,-0.273995245,-0.16252479,0.028215047,-0.0140243412,0.0700888627,0.155075046,0.241743918,0.0338770429,-0.139383316,-0.0337985645,-0.0636660874,0.0316066309,0.0621004124,0.0847849013,0.0673254356,-0.228489714,-0.13647956,0.016462427,-0.0385765284,-0.0623927311,-0.148793015,-0.0615322738,0.0575550243,0.0865319253,0.0105512283,-0.0275453932,0.00663706866,-0.0199063383,-0.0611458641,-0.0365695622,-0.0100275622,0.0150973151,-0.0805365489,0.0124100422,-0.0301249692,0.0435656893,-0.0349459552,0.00418820141,-0.050487071,-0.0505238483,-0.0729313498,-0.00406989356,-0.014036702,0.00835585124,0.0216589985,0.0241294652,-0.0269499014,-0.0431922935,0.0156389001,-0.00203005323,-0.00340827016,0.00775758614,-0.0688520765,0.00527301497,-0.0324024607,0.00772974415,0.0261918326,0.021816662,-0.00591671765,-0.0421830802,0.00338546707,-0.000790172743,0.00638688487,-0.00875059203,-0.0350886474,0.00586957753,0.0182618159,-0.00839781881,0.0024985066,-0.0129912933,-0.0124119768,-0.00545875949,0.0117062321,0.00295958444,-0.000121726609,0.00424818149,0.00135755192,0.00351246387,-0.0005242705,-0.0025588829
-0.0920574618,-0.11677892,0.123121093,-0.0957911956,-0.198092708,0.0640024422,-0.0788716101,-0.203702806,0.184879544,0.0738349063,-0.0352179025,0.190583371,0.0897699232,0.260267007,-0.0979911023,-0.088020065,0.0650995794,0.278420216,-0.185389818,0.00517156561,-0.172350474,0.188844912,0.0193716048,0.17746302,-0.218527982,-0.0408512139,0.119835353,0.0303662237,0.0292112694,0.153908914,-0.223316865,0.188882531,0.000803168943,-0.0827500038,0.173159195,-0.0139897143,-0.128222226,0.0756468972,0.171895829,0.0441245134,-0.214203376,-0.00327570654,-0.0180398208,0.0806876614,0.00897361288,0.0639782743,-0.0353164878,-0.0985233746,0.0190303963,0.010051068,-0.227251914,0.0304019024,-0.0206782011,0.0160891539,-0.0165852942,0.0483172112,-0.12277193,-0.0468368453,-0.143595113,0.00264570139,0.0158917202,-0.0652934866,0.03359449,0.0729167927,-0.0937292254,-0.0105097239,-0.0307353984,-0.0483278658,0.0390491564,-0.0830059725,-0.0154377205,0.0448386341,0.0234319209,0.0259968398,-0.0300227267,-0.0445083863,0.011187811,0.00676510744,0.0335932059,0.0110057716,-0.0117855818,0.0304617582,-0.0296053532,0.00652433523,0.0204458959,0.00538568289,-0.0280994317,0.0228405304,0.00582737156,-0.00275553686,-0.028564391,0.0201538747,0.00802765862,0.00285773252,0.0207011922,-0.0137132467,0.0280176565,-0.00347084097,-0.0226916825,0.0153872005,0.00548101025,0.0240300817,0.00210583984,-0.00275472196,-0.0144328358,-0.0115980733,0.0108272451,0.0397350858,0.0272749196,-0.0009538168,0.00381505715,0.0221280694,-0.0102716631,-0.00803625646,-0.0154615717,-0.000734012872,0.017934947,-7.92921681e-05
-0.0920574618,-0.07014457,0.156627649,-0.0120966593,-0.126365676,0.1606001,0.050230244,-0.17180415,0.0368951108,-0.142526973,-0.0308380143,0.051668987,-0.194845581,0.0182274617,0.17563978,0.0473766404,-0.117282177,-0.0255665454,-0.00765244056,0.112218804,0.259699285,-0.164437809,0.00144235958,-0.0965434552,0.0724175829,0.199930088,0.0398449332,-0.102147866,-0.0585699271,0.0132906206,0.0630224911,0.051691849,-0.163732186,0.0336573399,-0.0968280625,-0.0753846818,0.0643426657,-0.0758001386,0.0827325351,0.0965522511,-0.020851145,-0.0652201432,0.0540397409,0.0195097864,-0.152177401,0.0659581176,0.0416854424,0.109195305,0.079633984,-0.0405557916,-0.014846803,0.153130036,0.0578083757,-0.10730036,-0.399315216,0.176022261,-0.237631382,0.172035501,-0.213589936,-0.0887053232,-0.00826491495,0.0227371383,0.0220232899,0.0479081659,-0.0583793929,-0.0190914653,0.208669678,-0.0160199954,-0.0585345724,-0.0554126074,0.0079527576,0.0461938171,-0.00501095977,-0.0408968835,-0.0076577233,0.0153043227,-0.058982498,0.0144154512,-0.0298265215,0.00360085279,0.0135416547,0.0230807762,-0.0228354763,-0.0219430088,0.0115277532,-0.0935246429,-0.0144794119,0.00482903165,0.00530757268,-0.00735930637,0.0325535245,-0.0430671387,0.00701744122,-0.0368357942,0.00731046301,-0.0536567867,0.027792926,0.065225543,-0.0276404419,0.020243529,0.0238931187,-0.025463918,0.0114121069,0.000353581659,0.000475058811,0.00863466378,-0.0153085249,-0.0483093227,-0.038741629,0.0288203155,-0.00385970992,-0.0275865723,-0.000456586138,0.0151923525,0.0145192446,-0.00935908577,-0.0127175951,-0.000570535587
-0.0920574618,-0.0358671063,0.163100504,0.0267401807,-0.0448430082,0.19477944,0.068359183,-0.0614556641,-0.0157758602,-0.223811512,0.0375405943,-0.00520204467,-0.168504971,-0.0919540642,0.25013251,0.00379782626,-0.00182857385,-0.168253343,-0.0506602995,0.17010795,0.135307865,-0.0392539061,-0.0401394257,0.0360910238,-0.0678844055,0.0918800203,-0.0878087346,0.0630020137,0.159306237,0.180481804,-0.266030238,0.107888398,0.060163867,-0.129509868,-0.14273979,-0.183260496,0.0566908793,-0.192188777,0.154990168,0.106127448,-0.0412872577,0.00922830144,-0.0671715881,-0.00577476726,0.0321010709,0.198635484,0.0750951926,-0.0504907175,0.0402883199,0.0340775225,-0.000611146477,-0.147917015,-0.0896893751,0.221905298,0.251452733,-0.1035844,0.126823685,-0.155306912,0.204341429,0.0540907309,-0.0298342796,0.0351437545,-0.0476287463,-0.0108687953,0.0615608112,0.115697057,-0.0363547661,0.00223042081,0.0291819605,-0.0174330491,-0.0896916271,-0.0237730281,-0.0404956328,0.0373515667,0.0419333209,-0.00533907711,-0.0349654396,-0.0281346843,0.0432121129,0.000365208253,0.0808259606,0.0329095598,0.00279419135,0.0729220369,0.0408224667,0.0035878843,0.00381599009,0.00333587172,-0.00440710353,-0.0411607299,0.0497417637,0.0376487758,0.0177083936,0.040717403,-0.0191288324,-0.00870364805,-0.00669051993,0.00867031547,0.0123866095,0.00134328988,-0.0168022601,0.0396955009,0.02038905,0.000402239552,-0.0205073004,0.013445341,0.00527282948,0.041240126,0.0230412531,-0.0150623306,-0.0059702885,0.00263053088,-0.00283572683,-0.00610891846,-0.011204276,-0.00545521019,0.00470796296,0.00131136376
-0.0920574618,0.0544030358,0.142403323,0.0397681161,0.141144474,0.17839704,-0.0117999317,0.196929813,0.0915142661,-0.127931426,0.020803064,-0.0378653024,0.223541349,0.0708277426,0.0957384716,-0.130422953,-0.00370216749,0.0742713069,0.0730751443,0.161228413,-0.192112457,0.0495596847,-0.0223593625,-0.0335542224,0.123059953,-0.145304391,0.00825321551,-0.19518441,-0.0980437086,0.0441055349,0.240291303,-0.0117630025,-0.0241736353,0.157506041,0.0988713994,0.0375343052,0.099735767,0.00188267146,0.201303213,0.225482262,-0.0373896656,-0.0448757995,-0.0370440215,-0.104493176,-0.339656354,0.0933977641,-0.113513185,0.0569669566,-0.0376665608,-0.231528318,-0.0552882339,0.100142784,-0.052498098,0.0822615119,0.228154543,-0.0367144003,0.00878601381,0.0995441897,0.0527007186,0.0833205676,-0.111614766,-0.0274921417,0.138257895,0.0515992478,0.0593269092,-0.032431546,0.0530429248,0.0802359897,-0.0449340474,-0.0144974873,-0.0403732431,0.0534875341,-0.0820804177,0.0364631598,0.0604135162,-0.0189256919,-0.0408415601,-0.0131001302,0.0664516189,0.0562904592,-0.0650327408,-0.0402112065,0.011087492,-0.0905683303,-0.0052750872,0.048108676,-0.0255645595,-0.0156209292,-0.00536921416,0.0288124042,0.00418368618,0.0173580735,0.0293858861,-0.0392273244,0.00769058707,-0.0169299289,0.0127014793,0.0267043131,-0.00434912335,-0.00703004678,-0.000472254877,-0.0248521528,0.0262840507,-0.00794778849,-0.013876256,0.000401731998,-0.000193527796,-0.00903501431,0.0216085819,0.0130694185,-0.0196220431,-0.00109825236,0.00163084046,-0.00188423903,0.00175932276,-0.00136333963,-0.000294228695,0.00167371254
-0.0920574618,0.0915550277,0.115589158,-0.000392393704,0.16458734,0.12049401,-0.0371003688,0.186395273,0.16305198,-0.00797933126,-0.0617404726,-0.0607466463,0.200749839,0.163240298,0.0227866361,-0.000868125636,-0.0996135227,0.144062289,0.196597532,0.0423535807,0.0434842251,-0.150505226,-0.10585044,-0.122883169,0.166526411,-0.102580488,0.204955678,-0.0747743533,0.0637448296,0.149974492,-0.0533950668,0.25641401,0.172817186,0.143608225,-0.091285696,-0.0561790362,0.140054738,-0.00796502945,0.0972769172,-0.207876602,0.0177330964,-0.0559181951,0.0230678231,-0.0459414389,0.177351039,-0.0283622816,0.0619366178,-0.130494656,-0.0297754248,0.2438844,0.0452220133,-0.224453334,-0.00817565199,-0.122651255,-0.136173415,0.0176582811,0.107476867,-0.0740750755,-0.133830246,0.0434144132,0.177013557,0.144594658,0.0156721975,-0.0850808937,-0.0758411531,-0.0332798193,0.0232211369,0.0410527796,-0.0600875805,-0.0569852047,-0.00305725342,-0.0179999089,0.0673583225,-0.0241892672,-0.0273200685,0.0181013856,0.0198130356,0.0440495803,0.0638910315,-0.0333287025,0.0346521299,0.0185643022,0.0110937581,0.0448844056,-0.0304364874,0.0478900628,0.0168808581,0.0406522691,-0.0175569705,-0.0114264626,0.00805980183,-0.021102337,-0.0311742277,0.0148384791,-0.0582469682,-0.0125509877,0.00138651801,0.0222080291,-0.00620201621,-0.0419642314,-0.0106591899,0.0074909127,0.0144337774,-0.00983557563,-0.0107871074,-0.0108195256,-0.0257962987,0.0237728628,-0.0182264427,-0.00686084969,0.036206919,-0.00756696222,-0.0029059623,-0.00897372931,0.00142827545,-0.000831339008,0.000482920548,0.00183504595
-0.0920574618,-0.108479182,0.11776705,-0.0738256167,-0.165394405,0.051130031,-0.0376611554,-0.139623559,0.107314658,0.0543149117,-0.0483108364,0.0798437271,0.04463504,0.115989178,-0.0623404415,-0.0345811261,-0.0179601779,0.079850764,-0.0021590203,-0.0206039912,-0.0628810596,0.0592627228,0.0288449728,-0.00780669145,0.0192673944,-0.0450131337,-0.047915876,0.0236941492,0.0272149783,-0.0563910323,0.05970875,-0.100761511,0.0646051684,0.0107673681,-0.0701018363,0.00918819766,0.0588281743,-0.043857112,-0.100528542,-0.0415121678,0.138071276,0.0425187032,-0.0504917919,-0.0912465335,0.0451177467,-0.00307343359,0.0336865923,0.00731087724,-0.034328387,-0.0217595103,0.163924625,-0.0817023889,-0.0728226837,0.00334194454,0.148376621,-0.0515130344,0.0842270632,-0.00306760894,0.111929124,-0.134335796,-0.0507483591,0.0403498664,-0.112128586,-0.0119404116,-0.0294721568,0.0358475161,0.127359247,0.0569653044,-0.142027324,-0.119355711,0.0549464943,0.0311359745,-0.0101538191,0.00127133182,-0.105449591,-0.0529648733,-0.0105071365,-0.137931249,-0.0734531084,0.176533602,-0.124763753,0.109107502,-0.0768764801,-0.010703513,-0.0845778525,-0.182109926,0.0280567613,0.0451310817,-0.0271431482,-0.0214823077,0.140322203,-0.0385212059,-0.0272672714,0.107753738,-0.150008443,-0.116098051,-0.0349122235,0.0265665285,-0.0981991187,-0.024521823,0.157057258,-0.084225038,-0.0056868384,-0.0350885685,0.0993799187,0.0462598271,-0.11809775,-0.36047345,-0.220627329,0.0993002771,-0.0236911158,-0.246836026,-0.015171027,0.116697977,0.00333392981,-0.152060546,-0.104931058,-4.81176303e-05
-0.0920574618,-0.0861941428,0.137519254,-0.0311139231,-0.142563932,0.0977866925,0.0303839546,-0.15094578,0.0397037517,-0.0298223206,-0.0613175077,0.0274229769,-0.0822194022,0.0419195804,0.00791218262,0.0402033748,-0.105822727,0.0308301243,0.0690082584,-0.0276911251,0.0655491875,-0.0803263096,0.024802457,-0.0809255641,0.110849237,-0.022422153,-0.0122522459,-0.0449127036,-0.0792866274,-0.117908968,0.166519223,-0.118748005,0.03067341,0.0376970735,0.0344422081,0.086372389,-0.0172251785,0.0499948953,-0.0914651877,-0.0459525879,0.0641454862,0.0640802716,-0.0762245552,-0.0513893088,0.0708888407,-0.0317964846,-0.0531400323,-0.0512026661,-0.0544206962,-0.0289861224,0.0260268584,-0.0317387303,-0.128122087,-0.150468194,0.13137314,-0.00907864113,0.0219055562,-0.0911032914,0.0190753311,-0.145049651,-0.0485847845,-0.0479830845,-0.160963807,0.028235559,-0.0617734045,-0.00220565817,-0.0504412966,0.060393499,-0.0369821053,-0.158514469,0.037121039,-0.0536994225,0.0586199137,-0.0245153752,-0.00782955558,-0.173443278,0.0413513132,-0.0501706197,0.189828696,0.160153462,-0.149631266,0.110065233,0.0225890568,0.105311256,0.0965585898,-0.0143378271,0.0377305861,0.0840749522,-0.0416639018,-0.0251046999,-0.125588008,0.173150205,0.0211378314,-0.0116467575,0.183343912,0.0663579537,0.0732430814,0.0408684974,0.0985668145,0.0711516709,-0.0785130438,0.216587546,0.0421813175,0.00456462154,-0.173873026,0.0695897361,0.0267058263,0.318587532,0.230830874,-0.11759071,-0.016629158,0.0216813238,-0.0286903018,-0.0657351533,-0.137181783,-0.0574998638,0.0648235786,-0.000172397314
-0.0920574618,-0.0131267139,0.151950847,0.0510215917,0.0130541649,0.163230691,0.0582075925,0.0191537707,-0.0608833914,-0.158710835,0.0695017794,-0.0265820595,-0.0674763699,-0.109785796,0.0584303573,-0.00524881366,0.0905416907,-0.0908071025,-0.052626975,-0.0440617383,-0.038174416,0.073482468,-0.013108749,0.064697712,-0.0966848595,-0.0337648586,0.0294511561,0.128231559,0.0668096235,-0.0343892288,-0.113036485,0.0451891918,0.0959175495,0.00306015691,0.000325785073,0.00433730771,-0.0153246658,0.217244242,-0.0505003263,-0.13670159,0.036212371,0.0120554162,0.0346862459,-0.0797213642,0.0072046525,-0.241184307,0.0887943299,-0.0218898658,-0.0299333871,0.0563512834,0.0039643266,-0.082218411,0.0645915546,0.140829004,0.0706417994,-0.0290700452,0.0637549509,0.164342684,0.0218582996,0.0884630548,0.00247044522,-0.110741423,0.0877458865,0.029583586,-0.0662114851,-0.192345466,0.185677907,0.0264582521,-0.0541691823,0.0194351136,0.247861766,0.0343502814,0.11800987,-0.193176831,-0.0077070013,0.00559010412,0.0548637373,0.171386969,0.0134847405,-0.000946250102,-0.169203312,-0.0556470116,-0.0174695099,-0.207074803,0.010152904,-0.0985704859,-0.0376515368,0.0192931468,0.0149873326,0.0924242649,-0.113778111,-0.121746857,0.011166067,-0.266194145,0.196741365,-0.0483724645,0.142192869,0.198569608,-0.0245876704,0.0947948549,0.0200320722,-0.0576159581,0.0199658103,0.00894681414,-0.0702341895,0.0148294752,-0.0197727766,-0.00364321903,-0.00228451912,0.0597884201,-0.00475025676,-0.0296130874,-0.000698361267,0.00380889939,0.017128729,-0.0132429652,-0.00989420307,-0.00662430893
-0.0920574618,0.0294542325,0.143568914,0.0589419794,0.0977011702,0.160599871,0.00944938246,0.122083125,-0.00567351214,-0.120224765,0.0660466409,-0.00341702187,0.0899504363,-0.0326068438,0.00670559878,-0.0888911742,0.0750332596,-0.0043220207,-0.0675032119,-0.0111154852,-0.119159538,0.119212751,0.0577206223,0.0394257857,-0.0350677897,0.042891916,-0.0328021154,0.0203123256,-0.0831128057,-0.158301885,0.0848729409,-0.0837770551,-0.0833239103,-0.035986924,-0.0122570446,-0.0125749427,-0.062620168,0.150414122,-0.0334764766,-0.0256752619,0.0103875191,0.041288198,-0.0240125428,-0.0329727363,-0.0326489289,-0.109095898,0.178915489,0.0567085496,0.12541483,0.0912812742,-0.0575146628,-0.0714329528,-0.0623335531,0.103284885,-0.194462509,0.108689648,-0.0795806535,0.0440801049,0.106004711,-0.0433606608,-0.0163665786,-0.137600001,-0.189117642,0.0117545412,-0.0730773775,0.145121419,0.0104839434,0.0108522994,0.0924005098,-0.0341773502,0.17465115,-0.0984217859,0.116375015,-0.058629702,0.0325604386,0.00347346374,0.198498645,0.0793839599,0.154889243,-0.0377954982,0.180603164,0.0234685989,-0.0812649915,0.0964692296,0.0679014793,0.199447661,-0.0108677585,0.00479316874,0.0106708081,-0.0984824973,0.330172378,0.0272616398,0.0850991941,0.182470288,-0.260114736,-0.0322276265,-0.0938048479,-0.00453856139,-0.00169756929,-0.0664275091,-0.0303711236,0.0761813643,0.103633686,-0.027219063,0.0009103983,0.0161251044,-0.000374237185,0.0393403417,0.022370419,-0.0202800011,-0.0316561329,0.00745799379,0.00199773457,-0.0181086212,-0.0131739952,-0.00293806526,0.00721784321,0.0176060806
-0.0920574618,0.100608847,0.0987806238,-0.00517079637,0.153317579,0.0760738212,-0.0552180458,0.128286849,0.139894975,0.0554693993,-0.0885575256,-0.0222761377,0.102003118,0.122143179,-0.0271059845,0.0733612513,-0.112503402,0.063974096,0.0865856314,-0.0596177445,0.13031632,-0.165809897,-0.0469281092,-0.062765728,-0.0186712275,0.0371696751,0.0556725939,0.107413727,0.0908891958,0.0345516041,-0.18390698,0.0124943345,0.0253486342,-0.116039552,-0.0313786218,0.00105378685,-0.0767613264,-0.0238545398,-0.197496938,-0.0407518306,0.0100704857,0.029773865,0.067274674,0.104187192,0.164974171,-0.0426065081,-0.0150087008,0.0113036957,-0.0666341382,-0.0770052812,0.0558193206,0.174958044,0.110463351,0.0689601166,0.0317563146,-0.000796276624,-0.132758654,0.0424023569,0.0531560951,-0.0821652532,-0.252576207,-0.211002131,-0.0880237438,0.168731883,0.101776636,-0.0135476119,0.0504856794,-0.0785573051,0.169341551,0.178731213,0.0259753047,0.0443333767,-0.159180626,0.0248488858,0.0518114419,-0.117115941,-0.112105551,-0.135101141,0.0257683191,0.204395056,0.0364291303,-0.0198952039,0.0834896029,-0.147692022,-0.0257691599,0.0811024605,-0.168159808,-0.0588435006,-0.0222983447,0.0965718043,0.0653644212,0.149073191,0.110109776,-0.0898130844,-0.0664957082,0.0464308082,0.0280156588,0.0417614497,-0.0467918899,-0.145395484,0.0161277648,-0.0379136868,0.107140037,-0.0295745988,-0.0315159469,0.0091028221,0.00667533896,-0.00353993685,0.023205051,0.0134984311,-0.0659420744,0.00999128862,0.0062885184,0.00621576936,-0.0061853133,0.000116131169,0.000227914522,-0.0394767365
-0.0920574618,-0.0701571955,0.125738734,0.00653705488,-0.0916116811,0.0589214061,0.0755304308,-0.0617718534,-0.0642696811,0.000220427373,-0.0519251608,-0.085338,-0.0546605792,-0.0682308031,-0.0750666741,0.0961818569,-0.0669721852,-0.0318209473,0.153241515,-0.133626506,-0.0540033356,-0.0870135475,-0.020614934,-0.0266752365,0.0872928904,-0.19652499,-0.0250953322,0.0250727436,-0.0593934917,-0.0559042041,0.0379181246,-0.0721601002,0.176883969,-0.0481289519,0.181419735,0.0489911207,-0.100147968,0.0529123001,0.0404024315,0.0625351726,-0.05718133,0.085915058,-0.13132418,0.0324364212,0.0603159769,0.0673096922,-0.112257123,-0.0466634121,-0.00987945749,-0.000539416061,-0.0870753664,0.0254988268,-0.0967835578,-0.147625759,-0.0724639431,0.0409274663,-0.0177387036,-0.13631241,0.0258674028,0.0536638373,-0.00743663405,-0.00166128335,-0.0406212314,-0.00152863831,0.0946233947,0.0764344244,-0.0603064064,0.000590820582,0.118903539,0.0856880398,-0.105536864,-0.0343105827,-0.0485719144,-0.0512166171,0.162811649,0.0617246804,-0.106788484,0.136854522,0.146120015,-0.160029739,0.243902644,-0.0190148829,0.0794445038,0.0953720756,0.23328794,0.0623994868,-0.0494703279,-0.0268448612,0.0347136751,-0.104536509,0.0306926909,-0.0372067252,0.0329667259,-0.116919776,0.102403117,-0.0683527674,0.132451114,0.206549366,-0.117300691,0.0644887792,0.0800862194,-0.144219741,0.00389419739,0.111114319,-0.0025759004,0.0383916333,-0.0239473326,-0.134210738,-0.14856774,0.181006674,0.00811127408,-0.0987563429,0.000411360246,0.107800672,0.11226216,-0.0575442089,-0.0895117575,-0.00135532186
-0.0920574618,-0.0332750961,0.135451863,0.0502437505,-0.022935646,0.0954891469,0.077749551,-0.0187379569,-0.11472718,-0.0570906121,0.0414443244,-0.0594839493,-0.0857664613,-0.110648242,-0.0923966387,0.0927789798,0.072511663,-0.0155042333,0.0356892964,-0.203910902,-0.0302531913,-0.0205367084,-0.0547795166,0.0115242269,-0.0468542651,-0.136285808,0.162298405,0.102773891,0.0173067557,-0.0152988474,-0.0405786191,0.0811082487,0.126455384,0.0786156777,0.125625832,0.0242124669,0.0158105517,0.175914492,-0.00797999779,0.0104886058,0.0205666063,-0.024767851,0.0813804334,0.00174424246,-0.0829412091,-0.136912658,-0.100123484,0.046975858,-0.0584611572,-0.0588942848,0.0475753538,0.092650881,0.160494011,0.0144416978,0.012621228,-0.0582902156,0.0273532984,0.0515486664,-0.0505201209,0.0320059622,0.0674362121,0.114289361,0.116179583,-0.0590309531,0.0346392616,0.0759430013,-0.0145815513,-0.0759511623,-0.0461028057,0.021349557,-0.172144544,0.0538772501,-0.115077714,0.150799038,-0.063570523,0.0859092403,-0.117483776,-0.165322383,-0.225481274,0.0120204365,0.151292093,0.0770083864,-0.0826994201,0.0706602417,-0.0970854069,-0.259367924,0.0127460946,-0.00756032795,-0.00983017222,-0.0661797856,0.237656826,-0.0217924535,0.043229727,0.105597588,-0.13321634,-0.155732546,-0.0441625863,0.106101519,0.0570956545,0.0400632105,-0.0746602609,0.173346118,0.130458967,-0.0761517169,-0.110012307,0.0633213561,-0.00100064176,0.158353576,0.0807188749,-0.0934326638,-0.057754155,-0.00668313995,-0.0156886247,-0.0682473558,-0.0739439529,-0.0337334463,0.0460602351,0.0011084938
-0.0920574618,0.044042528,0.121640675,0.0721216906,0.111657587,0.0946170422,-0.0265269751,0.0880203605,-0.036827542,-0.00140039208,0.0564676008,0.0611454117,0.0535711814,-0.0190270252,-0.148654147,-0.0491654504,0.0371918098,0.0272094271,-0.110294589,-0.139433712,0.0330339234,0.0472902737,0.136507341,-0.00792254721,-0.00596551929,0.218496218,-0.0369040468,0.0450701238,-0.132278921,-0.219229733,0.0399731974,-0.0503603755,-0.0788499753,-0.118072258,-0.0813625146,-0.135652181,-0.0551153776,0.0202026068,0.0776747788,0.0094824252,-0.0144774111,0.0567688105,-0.107653427,0.00178768093,0.0379450234,0.0697277198,0.0881069245,0.0159078377,0.141218484,0.12517557,-0.0626103517,-0.0897879694,-0.137995579,-0.137773362,-0.112046206,0.0583053848,0.0371724377,-0.12238838,0.0276638932,0.0344223312,0.0779881331,0.102973515,0.0605983105,-0.0934372665,0.0304041157,0.128596536,-0.205013243,0.121700294,-0.0675190653,-0.0234494243,-0.169574461,0.0596935233,-0.150815893,0.236810071,0.00713104103,0.0315924597,-0.0224599558,-0.139213262,0.00361124138,0.107502302,-0.114125105,-0.0963828258,0.0038399972,-0.235218948,-0.223349204,0.0403096413,-0.0288628924,-0.025926715,-0.0380136437,0.153626306,-0.0750782207,-0.0427089234,0.0002973884,-0.178202249,0.0589269397,-0.0923866267,0.0741967697,0.13337133,0.0125468702,0.0137600269,-0.0165218346,-0.101971604,0.0500244768,-0.0658150504,-0.106069658,-0.0163959164,-0.034129583,-0.00620855694,0.0615023792,0.0482133194,-0.0225140547,-0.0270439356,-0.00212900051,-0.0329476467,0.0104119858,-0.0119950682,0.00376825361,-0.0378559494
-0.0920574618,0.0820184231,0.098989447,0.0398755629,0.138179232,0.0593401695,-0.0768700403,0.0848695237,0.0536713289,0.0696886655,-0.0518133048,0.0674189246,0.0574120029,0.0419259794,-0.0898902611,0.0295649274,-0.102606547,-0.00768206948,-0.0642222831,-0.0936352181,0.100114433,-0.124861833,0.0928924774,-0.016267173,-0.0755720932,0.149781154,-0.108825804,0.127084001,-0.0568881056,-0.0752267532,-0.0862275074,-0.141253796,-0.0487947802,-0.23143348,0.0914409194,-0.0979296709,-0.083778724,-0.0370437258,-0.0549386251,0.222084919,-0.00608305465,0.0461560609,0.0448592638,0.102898615,0.0355263233,-0.00574496143,-0.126987286,-0.00740954724,-0.100821557,-0.084848664,0.0922193174,0.0614133227,0.158352603,-0.018111763,0.134634306,-0.139866178,0.0811587646,-0.0199550401,-0.136149358,-0.00180716764,0.159833235,0.179728607,0.146997955,-0.0667738561,-0.0455610275,-0.200697858,0.124757388,0.00460797045,-0.199346986,-0.147585535,-0.0533325318,0.0287373602,0.09575892,-0.112206471,0.0330965061,0.0477770712,-0.0403125548,0.177893619,0.138725181,-0.125405961,-0.144984365,-0.0231884322,-0.0148243516,0.0469801369,0.155278921,0.132987268,0.0996679813,0.0346073205,0.00877945326,-0.10642299,0.0580653745,-0.00493769132,0.0244493688,0.118553748,-0.0920570955,-0.0670223152,-0.0678814877,-0.0204299591,-0.00154684176,-0.0273417587,-0.0271555856,-0.0258981673,0.0983288763,-0.00475298277,0.026582408,-0.0115792651,-0.0136029906,-0.0327770488,0.0996250549,0.0387533888,-0.075282273,0.00335995377,0.0112878407,-0.0272071656,0.00965428871,-0.00543976101,0.0024356086,0.127810543
-0.0920574618,-0.0839143636,0.0943491222,-0.00200051865,-0.0853681017,-0.0250314575,0.0832144662,0.00766005736,-0.0744915795,0.0862108699,-0.104636221,-0.143708918,0.0463888021,-0.0690874104,-0.0896059416,0.0481966977,-0.103512704,-0.0495089273,0.14671408,-0.0310247895,-0.121858367,-0.0284699322,0.0243966256,0.0323286877,0.0710567384,-0.0780949543,-0.136988659,-0.049800466,-0.0672460094,-0.00662472372,-0.0487449136,-0.0091491447,-0.0168426921,-0.103449878,0.0112939755,0.0340111534,-0.111664637,-0.0748460912,0.0894567909,-0.0381093001,-0.143544773,-0.0284201891,-0.0257284336,0.0421909237,0.0395384923,0.134358326,0.1137126,-0.0464529415,0.0328710148,0.056183838,-0.0685238707,-0.0235652873,0.00101501828,0.116710194,-0.109094205,0.0188244336,-0.0202111195,0.0876722764,0.0124983081,0.0848261479,-0.0472484125,0.0197104654,0.0381360732,-0.0117204276,0.111196417,-0.12984131,0.136227315,-0.00362055733,-0.00917598794,0.0776728662,-0.0323261851,-0.149911103,0.0550070718,-0.0731875364,0.133018122,0.0224473331,0.00278270325,0.0367926007,-0.094784271,-0.0682424703,-0.0545016786,-0.0899128671,0.0274309189,-0.0637098194,-0.149787227,0.0320837113,0.0792912071,-0.0732134754,0.0399422925,0.12425497,-0.0277607287,0.0272085085,-0.0690508883,0.0435554039,-0.0289190188,0.0611477299,-0.0423796743,-0.116552367,-0.0599977534,-0.0204522643,0.0575760668,0.0704942906,-0.0590633724,-0.0653641615,-0.0209073683,0.0707781052,-0.102063737,-0.0776282776,0.0765010811,-0.225798923,-0.0651331676,-0.217303562,-0.10571233,-0.114686316,-0.373350827,-0.267044092,0.229397597,-0.00102282658
-0.0920574618,-0.015123932,0.110157374,0.0843240482,0.0173068603,0.0238067023,0.0666370236,0.00298784383,-0.1653492,0.0348444484,0.0858274849,-0.031438434,-0.0454811969,-0.063629519,-0.188935932,0.085523337,0.135661956,0.0981402806,-0.012014235,-0.167315564,-0.00781064868,0.0190133766,-0.0735744252,-0.0244898455,-0.0523615013,-0.0324368075,0.187173371,-0.0313807036,0.0706042897,0.106499252,0.0443338822,0.0626442852,-0.127052773,0.135475667,-0.0646427934,0.0606706151,0.12863231,-0.201971073,-0.0691245998,0.074584799,0.0288628326,-0.111082061,0.172132151,0.0790053981,-0.0196951829,0.155128842,-0.0495687266,0.00571450554,-0.0331306721,-0.102407135,0.0929121548,0.0627031982,0.0899946788,0.123144973,0.115253928,-0.0756338975,-0.0791828865,-0.0646933223,-0.0727482535,-0.257986997,0.0266452215,0.089950944,-0.166902155,-0.0323869493,-0.0958899624,0.12785818,-0.0571003076,-0.104834644,-0.00277709594,-0.170459208,-0.018361149,-0.223400667,0.162023981,0.0249183551,0.0422092331,-0.0626380868,0.213581905,0.0409786149,0.0107058214,-0.0748630473,0.0344187134,-0.0779307682,-0.0629316012,-0.0570257665,-0.0829314956,0.199351627,0.0355939262,-0.0662793256,0.0748904739,0.147544003,0.031968235,-0.0260719817,0.0425223297,-0.158527683,0.0757795562,0.100534139,0.0694246791,0.0635215796,-0.0544490997,0.0352861876,-0.0332269319,-0.0537998594,-0.0121522927,0.0215162858,-0.0573483331,-0.0227057935,-0.0318586539,-0.0687593031,0.00465293955,0.0651045157,0.00639680177,-0.0643925486,-0.0352222464,-0.0142760649,0.0417136387,-0.0338280461,0.0157604056,-0.00712867488
-0.0920574618,0.0218613303,0.104643362,0.100188991,0.0714076781,0.0260624137,-0.00355431013,0.00868249268,-0.137098917,0.0587879553,0.112520085,0.0778643907,-0.0377829428,-0.0442040402,-0.213389669,-0.0222688294,0.105942083,0.0608482493,-0.0872635688,-0.12058922,0.0897891712,0.0938601189,0.0645476094,-0.042869033,0.0493474651,0.137209525,0.0406517371,-0.0853396331,0.0340412011,-0.0132836505,0.027286756,0.0765355672,-0.0431421507,0.104776234,-0.198391399,0.0947011735,0.0651968469,-0.200602295,0.0495834394,-0.120278928,-0.0589942338,-0.0486149797,-0.0929933356,-0.0378669501,0.0551696407,0.259165685,-0.0675004252,-0.109812707,-0.10959913,-0.0835761044,-0.0339489042,0.0572688241,-0.145364849,-0.208851311,0.0712719706,0.0210259448,0.00635759878,-0.0785155928,-0.013081683,0.114701569,-0.135241884,-0.0900109469,0.0232066261,0.100200612,0.12336658,-0.211222068,-0.0584400433,-0.00562547774,0.1329875,0.236535814,0.173841929,0.104163627,0.0210501071,-0.175821035,-0.124212258,0.0224426641,0.0172261546,0.104601687,-0.0891376868,-0.0521400171,-0.0831589817,0.0335176003,0.00135914366,0.0394115187,0.0918176935,-0.0841141284,-0.0160335809,0.0712638382,-0.00743737386,-0.0910860082,0.0533405598,-0.167411851,-0.0280406213,0.09065203,-0.130806396,-0.0641435527,-0.0628156866,0.0509907435,0.025767924,0.0456784842,0.0371164258,0.0597950535,0.106957451,-0.0645258272,0.0011859175,0.0405612297,-0.00489340141,0.0894652585,-0.0266100452,0.025112517,-0.0731455016,0.0185491054,0.0427369116,-0.0635235665,-0.022252999,-0.00648171993,-0.00030601138,0.0120907391
-0.0920574618,-0.116870184,0.0799806638,-0.0846395316,-0.118146188,-0.0228216067,-0.0569357691,-0.00559303175,0.0620484713,0.0959020596,-0.027870794,-0.00719744945,0.107766948,-0.0124833607,-0.0577271057,-0.0667469949,0.00766139198,-0.0994841137,0.0632468901,-0.0168308686,-0.0428742163,0.104835916,0.03114079,-0.0802931094,0.0472416102,-0.0172381851,-0.115538431,0.120555995,0.186327803,-0.02900921,0.0445097016,-0.103815641,0.0793559759,0.0373165893,-0.191162608,-0.14207257,0.180902896,-0.0938328944,-0.0706785676,0.020785567,0.142849488,-0.0160146613,0.029234472,-0.035889982,-0.0866154511,-0.0396017815,0.0266702283,0.103948463,0.00101542484,-0.00218579525,0.0574982509,0.029959515,0.092868077,0.0664398195,-0.0546049313,-0.00415515485,-0.0225379637,0.0251543606,-0.0639583483,0.103838902,0.0728158666,-0.0342686716,0.156388718,0.0379948076,-0.0829929146,0.0200338046,-0.140186723,-0.105233141,0.120083513,0.00881096472,-0.00525257297,0.202529723,-0.01917373,0.127609678,-0.159914145,0.0173073675,0.0552142529,0.013916356,0.00111252531,-0.0470136535,0.0463060798,0.0486310256,-0.0960194759,0.00981933211,0.0959848641,0.189184481,-0.138611762,0.0575291976,0.0505983385,-0.0789432588,-0.0676386966,0.0286975561,-0.0173039266,0.0725236257,0.0227643167,-0.0675704421,0.175624705,-0.0107271802,-0.28941615,0.0546498547,0.204947543,-0.078426444,-0.0737621807,0.119366574,-0.0218419312,-0.0223835002,0.03347605,0.136728892,0.109708304,0.0836767257,0.0468778786,0.0886513509,-0.0847398857,-0.0157013663,-0.166867339,-0.0701342463,0.230532724,-0.00130582094
-0.0920574618,-0.104228377,0.0728906383,-0.0439067941,-0.0890184743,-0.0534288587,0.0282724454,0.0456973411,-0.0149066059,0.10092012,-0.108408605,-0.105046288,0.0906061633,-0.076426245,-0.0504211965,-0.0651694301,-0.102866965,-0.122654148,0.102130327,0.0141514005,-0.0427325393,0.102452963,0.0817656356,-0.049037543,0.0673968543,0.0410333522,-0.12065708,0.0278091375,0.0961476797,-0.0398724659,-0.0362381126,0.00794888744,-0.0330156998,0.00211240727,-0.152274504,0.0277634582,0.0390352032,0.00810830889,0.0592661804,-0.0117922166,-0.0727640701,-0.0598096214,0.133806892,0.0148440635,-0.00284286554,-0.00830832049,0.0290017643,-0.0920079838,0.0568988374,-0.0167954722,-0.135470825,0.0304413818,0.123885539,0.134013628,0.0528891997,0.0124271065,-0.0917301244,0.0619628401,-0.145554135,-0.0139194475,0.0857669171,0.00144084722,0.0937477058,-0.027223882,-0.0670934309,0.0434382619,-0.116060876,0.00853938102,-0.016515695,0.108069953,0.0814467295,0.0346780641,-0.0513347045,0.0430232154,-0.0706283529,0.0709899686,0.0639784096,-0.0380692109,0.00501611096,0.0490164706,-0.0258527791,-0.0500686777,0.0840289317,0.0230087458,0.0147482787,0.0360376337,0.0519599699,0.0362578778,-0.108139123,-0.0654332398,-0.0272806028,0.0488480543,0.0347295339,0.00315613934,0.0350179741,0.132701581,-0.0997017573,0.0159316923,0.302341115,-0.0384381081,-0.141968257,0.0555127371,0.0611709929,0.0604874259,-0.0408908327,0.0780747635,0.023238036,0.112529537,-0.00516760218,0.135809169,0.0102197868,-0.151608493,0.0859313563,0.223717373,0.109693902,-0.289288412,-0.413480295,0.00119051921
-0.0920574618,-0.0674192583,0.066980046,0.0427750769,-0.0390079485,-0.0866394804,0.126513458,0.0512912469,-0.116802405,0.0988993185,-0.0750862761,-0.147812259,0.0572764565,-0.00526632524,-0.0133641508,0.081110272,-0.0277736734,0.0573849769,-0.0137982529,0.104342578,-0.0893323871,-0.098453997,-0.0373613317,0.129857564,-0.0722997926,0.0688478714,-0.0351589524,-0.0940218618,-0.129820967,0.101365045,-0.0495792594,0.0511357877,-0.132087014,-0.0637004053,0.0326918699,-0.124612938,-0.0403684885,-0.0423627545,-0.0250900306,-0.0856884809,0.0575088816,-0.000646102255,-0.0833079471,-0.0496614085,-0.0595528188,-0.0875696338,0.0849407426,0.12913447,-0.0352691535,0.0407055437,0.118014452,-0.0380297603,-0.0743208823,-0.121272246,0.00362801893,0.0183207896,0.104137243,0.0238271031,0.0593938988,0.115144369,-0.0734688769,-0.111394438,0.0108553427,0.155529928,-0.0652282597,-0.207000753,0.00261957737,-0.0570744774,-0.0226597062,-0.133817054,-0.0485295557,0.15055764,0.0330360642,0.0763868796,-0.135336742,-0.10248983,-0.0262031533,-0.125849579,-0.134384393,-0.0705636778,0.00220363608,0.0430283221,-0.00731438751,0.13586714,0.0108981383,0.175035489,0.0678480997,-0.191614375,0.172332379,0.0134869021,0.0343563968,0.0265152989,-0.0900333696,-0.0117690063,0.00364953808,0.0552396116,0.0126653578,0.0394321567,0.0423883003,0.0490781364,-0.20477164,0.0335845896,0.0930736984,0.0870511423,-0.178884872,-0.0201936602,0.0851652372,0.01969541,-0.148898942,0.0599317579,-0.076762812,-0.0438812801,-0.163725475,0.0790156952,0.295611185,-0.0889179776,0.101755382,-0.0058860447
-0.0920574618,-0.0352485509,0.0686889666,0.0886149433,-0.00338620153,-0.0805588435,0.10823418,0.0105090413,-0.151462091,0.0913348369,0.0422088528,-0.0795324743,0.0157282661,0.0519245197,-0.0312546615,0.116985163,0.0841594735,0.154183085,-0.0153401713,0.105694968,-0.029283094,-0.0860389184,-0.13842036,-0.00409583823,-0.102266288,0.00569709916,0.0163020627,-0.0366450021,0.0452425136,0.189612537,0.0957316643,-0.122143707,-0.156427633,-0.0582050923,0.0179998806,-0.159063702,0.0806485064,-0.091959507,-0.0646994352,0.116347223,0.142756949,0.0744495751,0.0414287641,-0.0162948641,0.0501489296,-0.17935155,0.0347044138,-0.0153160922,0.160247699,0.0813115243,-0.0947566613,-0.127088342,-0.093828769,-0.0405811895,0.166855352,0.0482002811,-0.0489283323,0.0801787483,-0.113571039,-0.170752863,0.0266815247,-0.167761053,0.0690336373,-0.0276736078,-0.166887976,-0.118520227,-0.139678585,0.178061253,-0.0245962304,0.0707509162,0.0608339615,-0.0357220116,-0.0804229223,0.0492527014,0.112287441,0.0273116679,-0.0986287011,0.0528740739,0.0538153649,-0.0689194901,0.0999671363,-0.169655811,0.193514557,0.0112927516,-0.0365456121,-0.203069906,-0.0826103573,-0.00118270194,-0.114238534,-0.0887008946,-0.0692966469,0.0225649068,0.11722467,0.0655483817,-0.0186701002,-0.145923543,-0.0643985574,0.00283403819,-0.106838501,0.0067032389,0.0109646907,-0.0126136425,-0.0295175616,0.000177041971,0.123553056,0.0591749397,0.00280488927,0.0539806188,-0.049274051,-0.0445404337,-0.0304176286,0.00019278026,0.0985350738,-0.1568489,-0.0717616465,-0.0606899269,-0.0169375485,0.0038241956
-0.0920574618,0.0394341036,0.0667957186,0.11999633,0.0714248097,-0.0552622294,-0.057739171,-0.0601712347,-0.11850019,0.121098834,0.102523499,0.137118573,-0.0616929671,0.00502372498,-0.0919242778,-0.0901122572,0.0049457986,0.00453183606,0.00783069638,0.118164819,0.10873673,0.0620460312,0.033276154,-0.0340340042,0.1556722,-0.0140366211,-0.0894749841,-0.141895894,0.0600261766,0.0901358334,-0.0485945282,0.0461003804,0.118037879,0.0142513551,0.00510740127,0.0836652404,-0.0761305325,0.00608952976,-0.0102631778,-0.0211539445,-0.048883023,0.0645757588,-0.112779991,-0.0116002081,0.00115729076,-0.0796190019,-0.0258963486,0.0504973276,-0.0552949013,-0.0354276105,-0.001240311,0.0577512638,0.0812603779,0.0579533755,-0.0662338991,0.0343987012,0.0204611487,0.0215552731,0.109574675,0.101725506,0.00220918168,-0.109032446,-0.0516741285,0.00243534704,-0.0713742414,-0.0111701392,0.0589288637,-0.0265933603,-0.0643694138,-0.00119634955,0.0381316124,0.019254865,0.013650008,0.0262915865,-0.13255069,0.0815093121,-0.0429520902,-0.0362077811,0.0796693738,-0.0576755204,0.10763033,-0.00786385162,-0.0195682005,0.204644191,-0.147243453,-0.0683584687,0.129048885,0.0653384737,-0.151191631,0.0482395667,-0.014028301,0.155274445,0.211807884,0.0128539336,0.0774961405,-0.0367144802,-0.0181657148,-0.0477486233,-0.0672807737,-0.0111849512,-0.187390829,-0.218241454,-0.115446462,-0.0322769428,-0.063943167,-0.145124692,-0.0965411501,-0.152954122,0.350753345,0.145070964,0.0891901618,-0.117029622,-0.00666390317,-0.222076864,0.131340169,-0.0571438938,0.00972243299,-0.0706247522
-0.0920574618,0.066529611,0.0623161627,0.100499876,0.0877954134,-0.0462232746,-0.116326768,-0.0671187878,-0.0689767974,0.134295248,0.0145321134,0.171485642,-0.0812301907,-0.0452323132,-0.0639276387,-0.0885785416,-0.090072094,-0.10822931,-0.0548084883,0.0962294172,0.0424771344,-0.0189182163,0.111903824,0.107318361,0.109058252,-0.0676180058,-0.127305267,-0.0660555877,-0.0929938684,0.138216265,0.0278901206,0.0975125242,0.192120462,0.08522925,0.190982493,-0.088682604,0.0464083191,-0.0271355942,0.0453836403,-0.150954348,0.105694369,-0.0345052232,0.0917217687,0.0167388244,-0.0044265817,-0.13236107,-0.0417823627,0.0843265368,0.151171113,0.0690126953,-0.0181802283,0.00695691307,0.0416681567,0.132841991,0.0319268406,0.0101722355,-0.0904973938,0.0894416674,0.0181392741,-0.173580495,-0.0970204089,-0.0345494594,-0.0940146441,0.021540976,0.013800847,0.115718646,-0.0193321079,-0.0622236603,0.0810240493,-0.0119936194,-0.117193732,-0.0648634365,0.00514341621,0.0164104221,0.0692086216,-0.0505391347,-0.0533926616,-0.00267908153,-0.0254544987,-0.0302695229,-0.0851406695,0.0360700109,0.0843097067,-0.0180317097,0.050242814,0.119704818,0.0437997594,0.0353655086,0.0367167779,-0.0660501672,-0.233081574,-0.180011651,-0.322820973,0.0617463837,-0.0906115568,-0.129827099,-0.0237811273,0.0353628266,0.115891137,-0.0167582311,0.0974616833,-0.0819325335,0.161684778,-0.127715668,-0.0560671871,-0.00350019736,-0.0648217719,0.065411988,-0.0222350307,0.0948806188,-0.147016661,0.0228065574,0.0512239749,-0.0535996377,-0.0207341402,-0.00275171369,0.000133377758,0.143689836
-0.0920574618,0.112841544,0.0681571895,-0.0132908462,0.117930766,0.0108624217,-0.0798799264,0.0310015468,0.0967246311,0.102411673,-0.127060673,0.0199340701,-0.0262304401,0.031759575,0.00253178948,0.14067441,-0.0913655448,-0.0574420781,-0.0394565172,-0.0609716999,0.0654919798,-0.0920994994,-0.0345945521,0.0041717402,-0.184592327,-0.0157677551,-0.0618754376,0.0886806172,0.115021475,0.0237269871,-0.0906033842,-0.122880422,-0.0830081472,0.0073680192,0.0289212327,0.172989117,-0.0343844887,-0.0105456684,-0.123481017,0.00909202643,-0.0232963557,-0.0535683743,0.0371152174,-0.0658781749,-0.12461993,0.0428177402,-0.0140714446,0.0184423225,-0.0752513413,-0.110885715,-0.0428471423,0.0020880854,-0.108455426,0.0287664141,0.0132761696,0.109043437,-0.0193556271,0.0660718534,0.0209586808,0.13487776,-0.105082812,-0.0316651858,0.0299887823,0.0079367023,-0.0198125387,0.0658561606,0.013868312,0.189601693,-0.0238109262,-0.0261212552,-0.0113433287,-0.0177328439,0.0299751733,0.072383934,-0.0564964311,0.0242781458,0.0844794058,0.0163278974,0.146151841,-0.0358856146,0.156321451,0.0521158577,0.0134019944,0.117466679,-0.251118101,0.039878421,0.0756364739,0.159541286,-0.0637186192,-0.00122914499,-0.0925361459,-0.214693542,-0.238599964,-0.00706211078,-0.0653183473,-0.0627496293,0.055215598,0.0973627664,0.0300015324,0.0263114155,-0.0442567346,0.0821230502,-0.155354739,-0.00582847591,-0.0455274668,-0.0546678013,-0.12381804,0.142941953,-0.201881449,-0.0814923826,0.36461135,-0.0637067673,-0.0367879945,-0.0363930159,0.0143417167,-0.00143550302,-0.00054004703,-0.00365070579
