0.00385850564,0.00309881907,0.00655595222,-0.00211991585,0.000754414499,-0.00982077437,0.000884558896,-0.00396513073,0.0108543423,0.00306747568,-0.00241539525,0.000595240798,0.0132546351,0.00193034052,-0.00409836752,-0.00167281025,0.00687862782,0.000618841441,0.0132626315,-0.00309477864,0.00149249393,-0.000123572483,-0.00408901983,0.00389170307,0.0135296421,-0.000759223719,0.000902300733,0.000581226839,-0.00381532885,-0.000325279401,-0.00329350328,0.0153153275,-0.00334142558,0.00248521384,0.00392460865,0.00305863226,0.00111874749,-0.00588321257,-0.00643648412,-0.00994664049,0.0142915034,0.000878371997,-0.00240700364,-0.00552139572,-0.00405160406,-0.00118302977,0.0102931996,-0.00334067501,0.00315564086,0.0121760605,-0.00711701544,0.000380012098,-0.000734738702,-0.00596448781,0.00519884897,0.00933377309,-0.00577488913,-0.000321449565,-0.00629690947,-0.00579897048,0.00426478387,-0.00637348069,-0.00274627116,-0.00356381922,0.0194317412,0.00761900872,0.0143190921,-0.00100627033,-0.00276706838,-0.00512469966,-0.00902471179,0.00235476065,0.00102292821,0.00134369579,0.013672345,-0.0165705103,0.0129684031,0.00121073325,0.0193486265,-0.00767821665,-0.00658814918,0.000251919589,-0.012506668,-0.00117727881,0.0103309224,0.000730462972,-0.0119023954,-0.00852008127,0.0105104071,0.00503187324,0.00573753734,-0.00175184268,-0.000768263007,0.0192544878,-0.0138262997,-0.0201585976,-0.000793544819,0.00281539735,-0.00284412873,-0.0059214645,-0.026375223,0.0157254379,-0.000411074386,0.00375153936,0.00955255997,0.00950524158,-0.00894945608,-0.0026153568,-0.00448004291,0.0119040868,-0.00331568101,-0.00282578768,0.00224727766,0.0202099479,-0.00212230442,0.00364794635,-0.000207024889,0.00214824438
0.00385850564,-0.00179166656,0.00643261897,0.00173113392,-0.00841535371,-0.00191679128,0.000248941274,0.00516176815,0.00158090468,-0.00879392325,0.00213026212,0.00205491015,-0.000738044458,-0.00444270816,0.0107736232,-0.000336061341,-0.00219304661,-0.00190777123,-0.00118577717,0.0120229939,0.00691056961,-0.0049788081,-0.00234258301,0.00679971447,3.50198397e-05,0.0119976978,0.000325864769,-0.00594764126,0.00688808205,-0.00161207603,-0.00351515405,0.00124491061,-0.000532757822,0.00451522805,-0.00305481122,0.00392966603,-0.014811042,-0.00249342242,-0.000919974671,-0.00357541347,0.00142507609,-0.00583384602,0.00260833727,0.000680331508,0.00258865742,0.0133189509,0.0119117921,0.00528930867,0.00319473955,-0.00551386789,-0.00292380076,0.00758987169,-0.00529776799,-0.0071730645,0.0097954009,-0.00522561643,-0.00244351718,-0.000601368899,-0.0140401443,0.0116418487,0.00857823134,-0.00576551781,0.00373264607,-0.00853418772,0.000940208481,0.00914949862,-0.00372363834,-0.0126864682,0.000930606285,0.010169425,-0.0208897994,-0.00114295421,0.00715238602,0.0114644192,-0.0134216723,0.00639617762,-0.00510238815,-0.00723709742,-0.000107654799,0.00488839614,-0.00766240848,0.00312728647,-0.00624432385,0.0167194505,-0.00162996955,-0.00509217858,0.00282122916,0.00585825651,3.42693078e-05,0.010910523,0.000838681019,0.00134670661,0.00893568724,-0.0133280494,0.0207217462,0.00652681139,-0.010659762,-0.00218307102,0.027045996,-0.0099203474,-0.00564097374,0.0161880968,0.00313989861,-0.00224490481,-0.00311767539,0.00633396374,-0.00260423768,0.0187045263,-0.00757033361,0.00714903263,-0.00376677336,0.0024241014,-0.00764994701,0.00552082373,-0.00412646261,8.37924484e-05,-0.000188567128,0.000345776568
0.00385850564,0.00109580093,0.00680670534,0.000754444193,-0.00303923633,-0.00707288203,0.00313795566,-0.00304471611,0.00521371847,-0.00582831569,-0.000712332344,-0.00282659597,0.00175974594,0.00607319222,0.00641417987,0.00198985175,3.71403217e-05,0.00168910172,-0.00107968587,0.00322613161,-0.00863022382,0.00420759806,0.00351835843,-0.00523490776,-0.00399699096,-0.00469007787,0.00513097313,0.00194271067,-0.001841393,0.00152276993,0.00248229547,-0.0043689803,0.00158395607,-0.00143231469,0.000725391459,-0.00126603098,0.0048975449,0.00368225016,0.00274756084,0.00560278782,-0.00315000509,0.000114954411,0.00409941327,-0.00393532005,0.00108955359,-0.00549753331,-0.00822631526,-0.000560488125,-0.00470366935,0.00221490032,0.00357836163,0.00299716494,-0.00151587688,0.000676627429,-0.00943351289,-0.00931446659,0.00590180927,-0.00117620595,0.00433575893,-0.00519808452,0.00314910699,-7.15533643e-06,0.00522603975,-0.00760439331,-0.0100377519,0.0025933581,-0.00715881715,0.000933986652,-0.00259457663,-0.00369514658,0.0129471066,-0.00067179421,0.00476056875,-0.00526201512,-0.00604270514,0.00467825113,0.0086818272,0.00619868023,-0.0156746838,-0.000672314203,-0.00913814113,-0.00620621686,0.00823235071,-0.00581173581,-0.00360750776,-0.0137034616,-0.013345293,-0.00982092958,-0.0028057885,0.00796203945,0.00275636325,-0.001109847,0.00418123846,0.00576801368,0.00117666472,-0.0100821194,-0.00767790527,1.30103407e-05,0.0113931766,-0.00696161149,-0.0113176469,0.0161622062,0.000119045843,0.000874033786,0.00174409105,0.0046482593,-0.00282656573,0.00668370096,-0.00449196033,0.00642298267,-0.00264272508,-0.00119159969,-0.00120467779,0.00943683303,-0.0019205879,0.00096925501,-0.000194889664,0.000873303222
0.00385850564,-0.00385624901,0.00486902871,0.000675669558,-0.00849277215,0.00272529521,-0.00265254249,0.00870928893,-0.000379010252,-0.000461393237,-0.00019750344,0.00690834149,0.000971064096,-0.00528519986,-0.00162586514,-0.0019549138,0.00542949757,0.000674248933,-0.000362920261,-0.00177423007,0.00313759769,0.00116170833,-0.00118601826,-0.000213163083,-0.000119029104,0.000963752893,0.000833172585,0.00276877186,-0.00629598107,0.00373998031,-0.00371828124,-0.00186054763,0.000490795353,0.00188676265,0.00409121653,0.000181964963,0.00558473335,0.00193114523,0.00671362582,0.00327243103,0.00377681721,0.000229627907,-0.000678908918,0.000200984459,0.00209649054,-0.00330425584,-0.00674311535,-0.00286040705,-0.00986752931,0.00279022472,0.00162507626,-0.00741950921,-0.00109560527,0.00206968308,-0.00245930736,-0.0020737143,-0.00416077959,0.00230278472,0.0080162091,-0.00356984,0.0112421828,0.0155175514,0.000526046706,0.000119141243,0.00251131023,-0.00414798364,0.0047260694,0.00510096993,0.00322422758,-0.0144149011,0.0180083868,0.00173783499,-0.00409132277,-0.00437111667,0.00949477557,-0.0113717372,-0.00197686222,-0.00421635192,0.0104290608,-0.00289854145,0.0117154491,0.0016607228,-0.0109189684,0.00605514743,0.00404894102,0.00749312816,0.00733583299,0.0062194987,0.00233657612,0.00222507657,-0.00362628261,0.000832787391,0.000481326853,-0.00634412268,0.0134022559,0.00831295467,-0.00235671292,-0.00123942325,0.0118671415,-0.00451018736,0.00111962363,0.00521764282,0.00264603719,-0.00248996017,-0.00191262704,0.00428629064,-0.0030373662,0.0178843005,-0.00584642314,0.00446033946,-0.00321742001,0.00403780274,-0.00988990405,0.00331154985,-0.00520651101,8.56993479e-05,-0.00022597798,0.000170260509
0.00385850564,0.00360197568,0.00541454296,-0.00231789322,0.00264265294,-0.00677454262,0.000288132713,-0.00174588579,0.00407562072,0.0050899911,-0.00260285932,0.00230340876,0.00122609749,-0.00126126925,-0.00517072681,-0.00312999945,0.00107744792,0.00158466127,-0.00342749485,-0.00301066428,0.00377372288,-0.00273178827,-0.00482992698,0.00184443865,-0.0074077041,0.00450629016,-0.0044599075,-1.74552758e-05,0.000680207008,-0.00430701091,0.000172282756,-0.0117044302,-0.00071496724,0.00159294805,-0.00208767303,-0.00431433195,-0.0040291696,-0.00273563659,0.00437894419,-0.000530368722,-0.0145480704,0.00229450957,-0.00117827633,0.0089012704,-0.00696357412,0.0071858297,0.00421538804,-0.00317779489,0.000775124361,-0.0151047516,-0.00394520985,-0.0037754915,-0.00411363153,0.00751379823,-0.00335686502,0.00294828442,-0.0105718108,-0.00171324209,0.00682671066,-0.00402684105,-0.00973046512,0.0125619643,0.000439094741,0.0063621539,-0.00204467712,0.000371121331,0.00562883781,-0.00439932684,-0.00430163337,-0.00314973675,-0.000736613145,-0.00827662091,-0.00042046126,0.00348722258,-0.00896883692,-0.00372117735,-0.0105613348,-0.000500658481,-0.00634638959,-0.0034211473,0.00183849841,0.00288661102,0.000163563361,-0.0043053038,0.00268527463,-0.00208190721,0.00365779378,0.00486840372,0.00325452982,-0.00402018741,0.00661282049,5.48214573e-05,-0.00204433631,-0.00233540714,-0.00919464867,-0.000830114135,0.00441087123,-0.000389769778,0.000239893396,-0.00153365536,-0.0042326842,0.0136444259,-0.000845684493,0.00743988019,0.0098966696,-0.0033011371,-0.00852767877,-4.18630983e-05,0.00171209265,-0.00257084209,-0.000207751022,-0.00487737006,0.00197025616,0.0247612888,-0.00227143349,0.00586737289,-0.000338396651,0.00314482316
0.00385850564,-0.00117888456,0.00580965569,0.00283210204,-0.00503539354,-0.00104523398,0.00106036792,-0.00083544001,-0.00295715875,-0.00557968178,0.00333556091,-0.00516936646,-0.00444218217,-0.00176743444,-1.37459761e-05,0.000596238027,-0.00765683486,-0.00251667177,0.00134274427,-0.00590538074,0.00312244607,-0.00406626546,-0.000801172132,0.00173478045,0.00396558273,-0.00737390423,-0.00876476609,0.000986553485,0.00163758859,-0.00442230413,0.00322374146,0.00387463491,-0.00125425224,-0.0036588858,-0.00106239414,-0.00469283113,0.0102384837,-0.00574224002,-0.00278610998,-0.00431358063,-0.00431573657,0.00731028067,-0.00644829375,0.00177618755,-0.00944906298,-0.00945970684,0.00176239213,0.000421070789,0.00522213611,-0.00153854604,-0.00016722496,-0.00170952283,0.00912599626,0.00118647637,-0.000623733713,0.0134419572,0.00132103266,0.00547078436,0.00525281927,0.000329997437,-0.0133521452,-0.00585602354,-0.0114847002,0.0105573314,-0.0013708891,-0.0120308314,-0.00321314867,0.00948539491,0.00474656832,0.00684843958,-0.00482018651,0.00871965147,0.00221641406,-0.000835450169,-0.000116567433,0.00601217769,-0.00104531839,-0.00438682975,-0.000134639061,0.0050571121,0.00624730445,0.00527739275,-0.00728334826,-0.00333908002,-0.00646571306,-0.0028449847,-0.00120473851,-0.00607856427,-0.0106528814,0.00401581461,-0.00679308257,0.000629909662,-0.000849954917,0.00271939879,0.00995309273,-0.00151342788,-0.00628522906,-0.0010541235,0.00817298272,-0.00360013962,-0.00107924887,0.00866913652,-0.000690181996,-0.00187241205,-0.000532940205,0.00278006684,-0.00123141874,0.0107228245,-0.00332160891,0.00323848048,-0.00227524463,-0.000508342726,-0.00224395328,0.00431285117,-0.00198074125,0.000203728425,-0.000375669475,0.000458728827
0.00385850564,0.00168389775,0.0052131849,0.00163406131,0.00116457301,-0.00323224606,0.0041184728,-0.00357045,-0.00392456954,-0.000190359147,-0.00192845337,0.000912261444,-0.00851650542,0.00445827211,-0.00449149626,0.00232310357,0.00301206715,0.000950021082,-0.00938043636,-0.00669376085,0.00135501116,0.00391724655,0.00323726538,-0.000976298354,-0.00124944703,0.00559735258,-0.00488952629,-0.000207765991,-0.00190413082,0.00753985577,-0.00493753975,0.00462655775,0.000334870266,0.00403436343,-0.00310585375,0.00481969311,-0.00586677191,0.00409168676,-0.00219381321,-0.000144992578,0.0109500306,-0.00323195941,-0.00244268959,-0.000494031761,0.0147569692,0.00571114134,-0.000773011995,0.00271548518,0.00492138467,0.00505401935,0.00146320998,-0.00560826181,0.00546488282,0.000546580466,0.0134272642,0.00343110153,0.000475455982,-0.00258478918,-0.00238427667,0.00169976566,-0.00342844506,0.000291336711,0.00281056375,0.00946942683,0.00792463497,0.0037417497,0.00307144673,0.00646237771,0.00533895781,-0.00251019423,0.00370252092,-0.00468074401,-0.00735375315,0.00716219605,0.00724317253,0.00402378574,0.000756999921,0.0134304577,-0.00796108287,-0.000418648095,0.00866678652,-0.00138056072,0.0115054496,-0.00245151363,-0.0073278363,-0.00619496038,0.00159690394,6.51028487e-05,-0.0110333027,-0.0030250688,-0.00211230447,-0.00316031443,-0.00217270539,0.000280031458,0.00368164825,-0.00168888767,-0.00525110345,0.00093890097,0.000151868615,0.00315262744,0.00311686163,0.0100560275,-0.000752520869,0.00191379389,-0.00166685828,-0.00265074928,0.00299517948,0.00294754294,0.000825587989,-0.000703422455,-0.000931861045,-0.00434893647,-0.000709662466,0.0117889148,-0.00125340053,0.00112912546,-0.000344339335,0.00192897419
0.00385850564,-0.00308704358,0.0035729283,0.00292984598,-0.00303500901,0.00375159623,-0.00346961353,-0.00228119822,-0.00324514409,0.00277475408,0.00127063539,-0.00768266036,0.00231813772,-0.00296096557,-0.00568368305,-0.00460611773,-0.00513380138,0.00602736702,0.00525840429,-0.00177543291,-0.00195251129,0.00380535672,-0.00420104361,0.003557447,-0.00595968401,-0.00269088771,0.00660395863,-0.00186842618,-0.00421529396,0.00612352868,0.00173962562,-0.00258882388,-0.00214402904,-3.2591482e-05,-0.00337423353,0.00231996782,-0.0063538498,0.00597907048,-0.0105801418,0.00382732179,-0.00300472129,-0.00410731622,0.00553541673,-0.00720497292,0.00514923855,0.00416977186,0.000442763998,-0.00275296,0.0112216826,5.62363252e-05,-0.00489226077,0.00613905084,-0.010764617,-0.000665050213,-0.00504214941,0.00331813832,0.00165517748,-0.0120771977,-0.00762808778,0.00192639171,-0.00995023101,-0.00516901605,0.00275383358,-0.00434837416,0.00137544635,0.000926465705,-0.00119154615,-0.00676343156,-0.00608907562,-0.000717823914,0.00386676959,-0.00209949532,-0.00484879925,-0.0105557964,0.00123121957,-0.00362216187,-0.00314802805,-0.0110156709,-0.00185609982,-0.00172893113,0.00829803302,0.000976229315,-0.00173880825,-0.0135097026,0.00136534198,0.00895667525,0.00185796911,-0.00688912474,-0.00528369294,-0.00580819083,-0.0105532995,0.00710225511,-0.00779985712,0.00858343213,0.00432252959,0.000953458066,0.00107881068,-0.00298905765,-0.0017695935,-0.00274030504,0.00505270153,0.000121807885,-0.00344933401,-0.00530110412,0.000882131687,0.00316187928,-0.00479978423,0.0178857798,-0.00419503212,0.00267129181,-0.00261496093,-0.00315304763,0.00390678586,0.000469023791,-0.0014423016,0.000196147284,-0.00181665285,0.000233832742
0.00385850564,0.00483914356,0.0043989643,-0.00500835665,0.00373339674,-0.00551197379,-0.00480195852,0.00078706974,0.00427328124,0.00753755395,0.00333834389,0.0011221163,0.00374128995,-0.00836834218,-0.00441296055,0.00171550375,-0.00536247829,-0.00634391232,0.00183192424,0.00121938214,0.00728420168,-0.00302961276,0.0067879529,0.000363220195,0.000975030191,-0.000621871773,-0.00327080093,-0.00393752647,0.0087096651,0.0037915206,0.00343361261,-0.00224512561,0.00580157484,-0.00670920476,-0.00558240796,0.000779411835,5.23505026e-05,0.00939003979,0.0011814266,0.0123646827,-0.0012013616,-0.00400995054,0.000986481016,0.00168453294,0.0102260675,-0.005446997,-0.0150977943,0.00948234856,-0.0036442175,0.000289342419,0.0108342277,0.00129699956,0.00488218506,-0.00389740935,0.00106473906,-0.00082644471,0.0172681386,0.00409467131,-0.00326999341,0.0163147456,0.00283074545,-0.00740490911,-0.00114428527,-0.00299722894,-0.00134045897,-0.0100608869,-0.0155576285,0.00123525081,0.00490962748,0.00474748517,-0.00113524522,0.00628150324,-0.00914312093,8.80705866e-05,0.00520604901,0.00360802192,-6.68154866e-05,-0.00943746256,0.00357501859,0.00108249556,-5.36851965e-05,4.33937185e-06,0.0055306351,0.00661635275,-0.00184408635,0.015552635,0.0113766304,0.00759519979,0.00801613757,-0.00120168917,-1.88836801e-05,0.000847179533,-0.0035093109,-0.00414573924,0.00124952745,-0.00199507812,-0.00122487529,0.000485757531,-0.0105491135,-0.000799471043,-0.0137395116,-0.00348696374,-0.00179943058,0.00489541977,0.0189756603,0.0120621238,-0.017356915,-0.00875378291,0.00454298484,0.0112495548,-0.00209286044,-0.00095682931,0.00475650158,0.0251756402,-0.00208392511,0.00518607078,-0.000122648708,0.00433599949
0.00385850564,0.00343759251,0.00354120156,-0.000470339767,0.00431182667,-0.00146891818,0.00269791245,0.00118138744,-0.00455884486,0.00364693371,-0.00547338496,0.00431579113,-0.00762954004,-7.80212303e-05,-0.00027293268,-0.00447109915,-9.01823645e-06,0.00538195747,-0.00537349408,0.00393791769,0.00093235775,0.00017370068,-0.00617389825,0.00366585932,-0.00238566233,-0.00161359602,0.00511798768,-0.00566425589,-0.00130712853,-0.00271701567,0.00155652867,0.00563143618,0.00117160264,-0.00930932756,0.0033048808,0.00154899138,0.000234329739,-0.0082771018,-0.00790224913,-0.00161051901,0.00699369368,0.000374916368,0.000890140732,0.00310864391,-0.010266487,-0.00730335091,-0.00311896806,-0.00249939555,-0.00808094447,0.0057699021,0.0033916364,0.00384776811,-0.00433956937,-0.00407964859,-0.00815656848,-0.000504836947,0.00686343174,-0.00134240663,-0.00122065997,0.00767691231,0.00690562691,-0.00232684613,-0.00213201039,-0.00836579731,-0.00736620476,-0.000557828943,-0.00372989605,-0.0043493851,-0.00166169196,0.00290915885,-0.0032076793,-0.00374360441,-0.003558713,-0.0105709572,0.00497421812,0.00360521679,-0.00364728576,-0.000282112449,0.00625290947,0.00637498597,0.00216443657,0.00163180055,-0.00228180557,0.00888015021,0.000349922719,-0.00451205743,0.00323240932,0.00137097005,-0.000313527292,-0.00168981689,0.00385361402,-0.00204469017,0.00442277985,0.0145957969,-0.000574207292,0.00939737966,0.00766093143,0.00485685042,-0.00350536793,0.00950989993,0.0104979414,0.00752242454,0.00194986774,-0.00380256481,-0.0208680358,-0.0144714839,0.0166092697,0.000520878737,-0.00415851123,-0.00830823316,0.00031067563,-0.013521144,-0.000110081634,0.031706344,-0.00244753275,0.00657092116,-0.00080498851,0.0076494979
0.00385850564,-0.000444689323,0.00276947406,0.00508929079,0.00265413366,0.00320111425,0.00172622134,-0.00558162977,-0.00672460196,0.00140157395,0.00467245973,8.53345628e-05,0.00239767978,-0.000423753686,-0.0036524043,0.00240332986,0.00603666129,-0.00690801494,0.00474149966,0.00454738923,-0.00226245932,-0.00446632966,0.000922004667,-0.00459804631,0.00223908195,0.00653109211,0.00806185014,0.00104314179,0.00321843026,-0.00680599785,-0.00365493332,-0.00655988913,0.00353374843,0.00180008539,0.00390487666,-0.00181941839,-0.00418748365,-0.0033804072,0.0110166313,0.00385391438,0.00226715799,0.00448136073,0.00718738077,0.00136877041,-0.00918095608,0.0016119386,-0.00026991569,-0.00469713313,-0.00311444767,0.00543542404,0.00489497536,-0.00595510643,0.00634908619,-0.0047317202,-0.00808936327,-0.00540548507,0.00612941131,0.000370457011,-0.00369678443,-0.0020343909,0.0041316855,-0.00508224086,-0.00886060852,0.000597552041,0.00622451938,-0.00628042759,0.00845312546,-0.00251257506,-0.00853657306,0.00664598604,-0.00263017587,-0.00631192764,-0.00188376434,0.007092972,0.0010475668,-0.00231690582,-0.00549733628,0.0072205707,0.00317399647,0.00338759147,-0.00658936095,0.000522248555,0.00794127313,-0.00807298659,0.0047219748,0.011121763,0.00175876416,-0.00143489091,-0.0154856619,-0.00732727737,-0.0138464346,-0.00234507133,-0.00567877795,-0.00401034674,0.00233952561,-0.00821680101,-0.00620651035,-0.00322259687,0.0015489221,0.000657174784,0.0025211655,0.00317253879,-0.000548328527,0.00103381019,0.000698816794,0.000860829531,0.00435458235,0.0057373995,0.000248113555,0.000288475033,-0.00122040737,-0.00264909677,0.000197422761,0.00322901653,-0.000368646429,0.000599837859,-0.0010625273,0.000879141703
0.00385850564,-0.0045724272,0.00181820562,0.000563825357,-0.0015312018,0.00442124861,-0.00498490977,-0.00198176464,0.000798833846,0.00612447533,-0.00470682494,-0.00600684708,0.00202436736,0.00262100452,-0.000932979588,0.000454490468,-0.0038346344,0.00892671398,-0.000762429373,0.00357116579,-0.00144238817,0.00453294237,0.00582181035,0.00711872805,-0.00160968027,0.00463065944,-0.000644717519,0.0038063366,0.00625615746,0.00163026277,-0.000947421666,0.00424502918,0.0045293905,0.00779293919,0.00277678709,-0.00409267944,-0.00194464372,0.00565631258,-0.00226469369,0.000703054406,-0.000504980701,-0.0100855502,0.00103945188,0.00149267697,-0.0110824002,-0.00548355036,0.00527975007,-0.00449842942,0.00164249666,-0.00427135868,0.00213758668,0.00220608348,0.00672875057,0.00219614373,-0.000643072304,0.00477482366,0.00851787917,0.00341538193,-0.00524557807,-0.002000003,-0.000110745437,-0.0010478107,-0.00787475208,0.00584448075,-0.00483397732,-0.00328865531,0.00173737795,0.00184095278,-0.00234747478,0.0049082402,0.0139762371,0.00371344394,0.00159608185,0.0102075761,-0.00584072715,-0.00105296875,0.00297267164,0.0226167642,0.00622626413,0.000346483472,-0.000387450258,-0.00414543704,-0.00273420325,0.00637545206,0.00151734036,-0.000855555924,-0.00338446325,0.0145990976,0.0132147126,0.00994408717,0.00420613898,-0.0203469942,0.00058798649,-0.000909516419,0.000977702723,0.00503286793,0.00426208202,0.00330441674,1.92258561e-05,-0.000298577029,0.00240028617,-0.00110207417,0.00769442462,-0.00276035988,0.0046546047,0.00230422498,-0.000144263844,0.00845860059,-0.00109910276,0.000394430273,-0.00127886404,-0.00676824307,0.0130470713,-0.00191339823,0.00690341598,-8.18684625e-05,-0.00206299769,5.3647727e-05
0.00385850564,-0.00734667919,-0.000210488465,-0.00889104494,0.000279919791,0.00258252669,0.00774034178,0.00179866323,0.00204897138,0.00537309484,0.00642379531,0.00207584949,-0.00136739036,0.012697375,0.000484256756,-0.00494965694,-0.00765842087,-0.0155174624,0.000870968314,0.0016330353,-0.000267534327,0.00511429769,-0.014473167,0.000321640625,-0.000838442885,-0.000828220718,-0.000914478371,-0.00252552764,0.00699770107,0.0124805325,0.00151820834,9.60303513e-05,-0.0114727347,0.00684890413,0.00894036108,-0.0133429782,-0.00363680941,-0.00389421064,-0.002237728,0.0157108354,0.0050504188,0.000576530249,0.00423084636,0.0050865864,0.00728809407,-0.00975435571,0.0095462606,-0.00640935843,-0.00483622844,-0.00475863729,-0.0106937663,-0.00148013315,-0.000147162449,0.000176963728,-0.000250381515,-0.0017001284,0.0107405638,0.00738006797,0.00217491664,-0.00181401005,0.00283359057,0.00503725197,-0.0102255726,0.008049119,-0.000998646834,0.0148772839,0.000106126064,0.0029192356,-0.00189419348,-0.00340669677,-0.00486837406,0.0121058258,-0.016789183,-0.00217596403,-0.01583345,-0.00118115874,0.0111978147,1.70867781e-05,0.00507791988,0.0106853346,0.00428790222,0.000796583575,0.00932091441,-0.000243713534,0.0159926241,-0.0170904275,0.0223465248,-0.0235598588,0.0189129944,-0.0188152248,-0.0224676181,0.00928404312,-0.00174722552,-0.011864748,-0.000156423882,-0.00648622689,0.00305618871,0.0634567875,0.0218125412,0.00273553267,-0.00237159141,-0.00373092842,-0.0184655824,0.0022359397,-0.00351438392,0.000271617205,-0.00425344188,-0.00152534996,-0.00126165078,-0.00699538618,-0.0252099288,0.00044105343,0.00656781604,0.00173780776,0.0276909927,-0.000427604843,-0.00263204276,-3.21889975e-05
0.00385850564,0.00523900897,0.00256332851,-0.00492416033,0.00408808244,-0.0010081376,-0.00458229546,0.00375751993,-0.0018560118,0.00417436276,0.00159940956,-0.000498848348,-0.00405498424,-0.00524748898,0.00254863696,-0.00264484076,-0.00510473716,-0.0014685823,-0.00281344713,0.0034871996,-0.00519298589,-0.00507084289,-0.000184614003,-0.00368026671,-0.00165024792,-0.00216555691,0.00483587356,0.00936824951,0.00147185086,-0.00548503046,0.00051719063,0.000987940676,-0.00783785291,0.00696778097,0.00575979723,0.00056088275,0.0053737718,0.0082106581,0.00225586517,-0.0092611464,0.00395507358,0.00122102252,0.000110142583,-0.0126413856,0.0101162754,-0.00176155653,0.00872500718,-0.00296992156,0.00641029315,0.00465750493,-0.00210278588,0.0044603833,0.00865195402,-0.00137087903,0.00718420113,-0.00760913186,-0.00967327213,0.00176017775,-0.00233815974,-0.00888300852,0.00297338408,-0.00154198486,-0.00937790793,0.00264845141,-0.00774298217,-0.00302485898,0.0114130154,0.00203372119,-0.000966590223,-0.000386920137,0.00233380005,0.000710001807,0.00647905048,-0.0109125639,-0.00714671161,-0.000890432122,-0.0108992002,-0.00235519516,-0.00416117073,0.00283809253,-0.0041156517,-0.00531583204,0.00258810966,-0.00433802016,0.000328275239,-0.00140775273,0.00354822774,0.00105773636,-0.00195341283,-0.000957121438,-0.00168879266,-0.000459326506,0.0118250289,-0.00101853143,0.00635293547,0.00856056989,0.000131175462,0.000603763868,-0.00293142287,-0.00794409993,1.5219914e-05,-0.0175695697,0.00088640112,-0.00409242446,-0.000881636043,0.0073869357,-0.00215590772,-0.00645315125,0.00251229228,0.00537124233,-0.000476804718,-0.000535818399,0.00421152637,0.0203967279,-0.00156415221,0.00421937241,-0.000147035891,0.0065837441
0.00385850564,0.00188358552,0.00188809525,0.00355679462,0.00499014155,0.00261566046,0.00536853022,0.000534386553,-0.00607954665,0.00109425858,-0.0021389665,0.00648684188,0.000675195634,0.00129910138,0.00164910816,0.00539995251,0.00233099881,0.000878789217,0.00656291239,0.00637129948,0.00404446637,0.00467352975,0.0035080131,0.00761938929,0.00287763493,-0.00428404927,0.00171190717,-0.000124706887,0.00104258907,0.00466078537,0.00383259094,-0.00356924461,-0.0071073797,-0.000216865705,-0.00539492253,-0.00214554855,0.00785301796,0.00365621911,-0.00202350184,-0.00438368552,-0.0155526343,0.00227868809,0.000498767865,-0.00487400498,0.00234467133,-0.00231042618,0.00297805742,0.00255929062,-0.0030807201,0.000595968496,-0.00778864165,0.00701748933,-0.00524372841,0.00757495474,0.0103472758,0.0016451566,-0.00331902348,0.00958007788,-0.00147822201,-0.00851475458,0.00614088885,0.00642469484,0.00934124301,0.00227147848,0.0064065065,-0.00555424801,-0.00401632997,-0.00765769643,0.00155843872,0.00418998891,0.00196759358,0.0138366261,0.00387461857,0.00934480445,-0.000900918425,0.00211923601,0.00454613358,-0.00280763829,0.00708753358,-0.00478956477,-3.72332747e-05,-0.0107934803,0.0130927465,-0.00202075693,-0.0050557155,0.013162152,0.00108873851,0.000439315955,0.00442488963,-3.15714695e-05,-0.00172339065,-2.76846518e-05,-0.00201337227,-0.000337558683,-0.00161845888,-0.0113746494,-0.0117785222,3.95525941e-05,-0.00107031919,0.000498791118,0.00963837581,0.00155218802,-0.00248494327,-0.000776722777,-0.0083552421,-0.000144320403,0.0139734857,0.00455354049,0.00326135581,-0.00329405192,-0.000741939302,-0.00735422746,-0.00180613517,0.00897905782,-0.000670897138,0.00254143455,-0.000966116489,0.00418979216
0.00385850564,-0.00276394391,0.000886986503,0.00423314688,0.0024857372,0.0041474071,-0.00472517138,-0.00642602508,0.000870916332,0.00292218294,0.00142745483,-0.00330922587,0.00436147692,-0.0013103665,0.00404883102,-0.00703155457,0.00325695689,0.000433671097,-0.00598155137,0.00566129546,0.000245713325,0.00339934369,-0.00303891499,-0.00703698489,-8.35057186e-06,0.0033934306,-0.00682537961,-0.00661451765,0.000394189557,0.0034950322,0.00262298684,0.00615509662,-0.00524893929,-0.00225834192,-0.00548462879,0.0010455954,0.00911571629,0.00232965276,0.00747664974,-0.00638413616,0.00236942793,0.00545728523,-0.0143090433,0.00162693671,0.00289272355,0.000271997845,-0.00133241495,0.00721023788,-0.00603561417,-0.00396184156,-0.00519716833,-0.00533212427,-0.00871086015,0.00737406354,0.000969936222,-0.00492798247,-0.00440074422,0.00415334041,0.00696530446,0.00388305023,0.00364803713,-0.0113343992,-0.000722039604,-0.00349379571,-0.00680477557,0.00804110498,-0.00437989427,0.000805461211,0.00254031126,0.00128824549,-0.010676368,0.0012390086,0.000259595767,-0.00526141473,0.000266054408,-0.0144730725,0.00347787154,0.000766078744,-0.00837693049,0.0018253739,-0.00119418437,0.00121031955,0.00423549276,-0.00312934124,0.0105058115,0.000599826294,-0.00254487049,0.00864798175,-0.00362955375,-0.00732476234,-0.00938548467,-0.0180159808,-0.00381827816,0.00226008499,0.00213997549,-0.00369021872,0.00389334058,-0.0025070718,-0.00186582174,0.00223940826,0.00247045486,-0.00368138839,0.00422624159,-6.59774738e-05,0.00699498969,0.0025604376,0.00397089702,0.0131751176,-0.000784068499,0.000879317268,-0.00318152326,-0.00377426668,0.00433134157,5.32387958e-05,0.00141702421,0.000444795432,-0.00478808484,0.000551020014
0.00385850564,-0.00638706128,-7.25823023e-05,-0.00517809424,0.000192158936,0.00258773022,0.00082630506,-7.63239645e-05,0.00220234648,0.00453492864,-0.00373834899,-0.00103923287,-0.00164478623,0.00701111132,0.0011970636,0.00775730304,-0.0036497757,-0.00250374124,0.000460903831,0.00116703131,-0.00181130184,-0.0105311826,0.000206071758,0.00154126087,0.00143658773,0.00182467294,-0.00201284521,-0.0076897117,-0.00604914198,-0.00488559704,-0.0017256699,-0.00201813474,-0.001076248,0.00199316873,-0.00200329975,0.0122345692,0.00318115407,-0.00309868658,0.000910780237,-0.00309022321,-0.00466790128,-0.0032141335,-0.00259968913,-0.00777733035,0.00373120015,0.00101437432,-0.0129127396,-0.00223183629,0.00161014653,0.00493710771,0.000234434587,-0.00543123532,-0.00817071426,0.00845984882,-0.00738892212,0.00210711211,-0.0137080907,-0.0069062908,-0.00137364009,0.00940231861,0.00153954989,-0.00584190348,-0.00592948386,-0.00742638353,0.00476164765,-0.0125868939,0.0106676753,-0.00132181034,0.00662489541,0.00153108113,0.00655690121,-0.000998820464,0.000588992867,0.0064228733,-0.00196485197,0.0128252563,0.00116530196,-0.00602734071,0.00285800785,-0.00538331307,6.48556095e-06,0.00183481064,0.00141034107,-3.42839543e-06,0.00139436154,-0.00252048607,-0.00933303063,0.0110872335,-0.00446942539,0.00246570872,0.00110067703,7.00612311e-05,0.00273639339,-0.00203050938,0.000471128712,-0.00328062789,0.0028189895,0.0176505089,0.00337904172,0.00197073074,-0.000565198413,-0.00165936056,-2.75106035e-06,0.00260287693,9.89466244e-05,0.000859152429,-0.00070835855,0.00125893357,0.000286696857,-0.00152280647,-0.00402452674,-0.00266974727,0.00715101377,-0.000145253186,0.0121378909,-0.000191884955,-0.00212021004,-2.31289808e-05
0.00385850564,0.00618020355,0.00107236313,-0.00737606451,0.0022351717,0.00142220231,-0.00968870052,0.00239331628,-0.00191492252,-0.000360584488,0.0107559071,-0.00212469626,-0.00135765883,-0.000141887113,0.0029704593,0.0110124188,0.000703021614,-0.000578382584,-0.000700560955,5.25010783e-05,-0.00101902308,0.0112326646,0.00141471916,0.000313462805,0.00122575813,4.60414086e-05,-0.000108974022,-0.00641636856,-0.00917768511,0.000294062332,-0.00297207035,0.00325626695,0.00175544741,0.00119598623,0.00169091762,-0.00553983494,-0.00431487475,-0.00871948881,-0.00274512569,-0.00517883552,-0.000363309236,0.00252349942,-0.0010804595,9.8429957e-05,-0.00857689413,0.00612039502,5.47219448e-05,-0.00899535064,-0.00430737284,-0.00458316013,-0.00684115104,-0.00196278265,-0.00223976822,0.00339836767,-0.00197280049,-0.000757827928,-0.000242958768,-0.0141436571,0.00878170858,-0.00430695726,0.000158506041,0.00261542352,0.00531415828,0.00285673576,0.0060859393,0.0110128626,-0.0122273891,0.00340121085,0.00714436709,0.0114206429,0.00998273377,-0.0100895625,0.00723292787,0.0142986907,0.00386781805,0.00744000111,0.0160695286,-0.000995117964,-0.000239069732,0.0219897497,0.0128482598,0.0113998998,0.00663451002,0.00586646517,0.00851820647,0.0191134608,-0.0153106751,-0.0123064509,-0.00203661153,-0.00461591488,-0.00178701679,-0.000957819609,0.0160877213,0.00194857314,-0.00135993168,0.00581770054,-0.000695068496,-0.00560334562,0.0160702037,0.00923648784,0.00365874886,-0.0214771526,0.00293251546,-0.0103617928,0.00305758862,0.0097776149,-0.0107028542,-0.00572174879,0.0110937737,0.00848413384,0.000561126773,0.0100030358,0.00843994274,0.0162916029,-0.00126383863,0.00575108258,7.35665139e-05,0.00998984767
0.00385850564,0.00427236416,0.000932907566,-0.0011152282,0.00415340175,0.00250997699,0.00234658527,0.00560102308,-0.00407367864,0.000118781471,-0.00706761132,-0.00114446646,-0.00158828911,-0.000125747225,0.00597099374,-0.00769969203,-0.00225052182,0.00260024921,0.00643712567,0.000717725156,-0.00422555381,-0.00103377286,-0.00197852558,-0.00516884091,0.00775577765,-0.00421046177,-0.00345434343,-0.00292735326,-0.00240048609,-1.21112371e-05,-0.00106107511,0.00303645185,0.0121345146,0.00489974628,-0.00164636266,-0.00313069892,-0.00257068262,-0.00228759119,0.00611930068,0.0126282312,0.000748612194,-0.00312678524,8.37203417e-05,0.0021607777,-1.59342729e-05,0.0104094573,-0.00321590672,0.00374976162,0.00802441951,-0.00615926841,0.00165893567,-0.00584896292,0.00113793875,0.00283239239,0.0022164018,0.00364238484,-0.00107585874,-0.00465118568,0.0106417703,0.000552537006,-0.00320095248,-0.00579211258,-0.00503339698,0.00493772856,0.0117623548,0.00871224716,-0.00706315792,0.00234477725,-0.00335467209,-0.00247784945,0.00813312733,0.00316823263,0.00585523987,0.00357872078,0.00196162936,-0.00519286535,0.00127311375,-0.00914957204,-0.00145944587,-0.00147093439,-0.0171294313,-0.00512839352,-0.00560027982,-0.0018947699,0.00488993357,-0.00788570234,-0.00392766469,-0.00011681646,0.00475218982,0.0159944312,-0.00522653824,0.00596672536,-0.0137082136,-0.00926544403,0.00678018022,-0.00235967728,0.000515144463,-0.000580848533,-0.00439972607,-0.00268977441,0.00753271371,-0.0119070179,-0.000683580248,-0.00342764527,-0.00903554973,0.000119276122,0.00804304137,-0.00333993009,-0.00395402336,0.000203077808,-0.000210282988,-0.0100215041,-0.0024514729,0.0106121847,-0.000132973897,0.00356442675,-0.000289939917,0.0137372841
0.00385850564,2.74665082e-05,-9.90194955e-05,0.00577344831,0.0051398593,0.00384206639,0.00179767522,-0.00093705666,0.00117153154,-0.000242599473,0.0052899227,0.00680106332,0.00723846161,-0.000398406908,0.00371369076,0.0032448911,-0.000167088524,-0.000936651667,-0.00293631881,-0.00107111421,-0.00371907871,-0.00645178983,-0.000288034702,0.00558760788,-0.00866288967,-0.00512782306,-0.00677483321,0.00807405497,-0.00350602087,-0.000313356992,-0.00228118091,0.003726804,0.00554871139,0.000592423556,0.00256085537,-0.00271492045,-0.00123383392,-0.00313749164,-0.0154496344,0.00590549012,0.00420364218,-0.00710030739,-0.00298815146,0.000512927218,0.00210759127,0.0019346246,-0.000934139356,0.00110915722,0.00484922034,-0.00621870903,0.0086800839,0.0031497819,0.000384055752,-0.0083537897,-0.00171274824,-0.00162116915,-0.00762734427,-0.00579616323,0.0115258002,0.00317442074,0.00411736381,0.00374301,0.00161395065,-0.00341908104,-0.00129650953,-0.00365492556,0.00593739245,0.0128960081,0.000898372998,-0.00898995141,-0.00864014204,-0.00166458051,0.0012223287,-0.00683311907,-0.0156344186,0.00188299251,0.0097031559,0.00635967509,0.000756753799,-0.00166851361,-0.00853839158,0.0103720924,-0.00235460914,0.0023097314,-0.00749961432,0.0149194481,0.00101508639,0.000370487094,0.00341560424,-0.00702979288,-0.00186950352,-0.00295479675,0.00171455143,-0.00246343738,-0.00165609842,-0.0101426786,-0.00791766911,-0.00230314701,-0.000655075216,0.00177651871,0.00262408326,-0.00389312462,-0.00291703296,0.0035813297,0.00439485484,0.00234385647,0.0133388576,0.0080319459,0.00234345665,-0.000527824569,-0.00210350172,-0.00474705595,-0.000259685224,0.00148025006,-0.000405990378,0.00158904769,-0.00369964722,0.00251600651
0.00385850564,-0.00429441975,-0.00113757343,0.00093410753,0.00299609875,0.00156224791,-0.00604353137,-0.00464186429,0.00400609997,-2.72201597e-05,-0.00648591212,-0.00174890031,-0.00389634947,-0.000721691887,0.0063580026,0.0012518143,0.00188619754,-0.00159692599,-0.00145419634,-0.00092980787,0.0103012305,0.00303998115,8.67869394e-05,-0.00255379242,0.0058781167,-0.00115722196,0.00144191016,0.0101733138,-0.00119479559,-0.000373039758,0.0033212247,-0.00612878756,-0.0030086707,-0.00616135535,0.00503116215,-0.00501722764,-0.00238278832,-0.00684367041,-0.00232547148,0.00895647209,0.00432636635,0.00937231204,0.00489930702,-0.0004701654,0.00594141657,0.00805588831,0.00125617054,-0.00244884129,-0.00251482942,0.00136649214,0.00696706154,0.00891898254,-0.00307714538,-0.0127127425,0.0046772163,0.00424986911,-0.00436619787,-0.00323320582,-0.0022729809,-0.00674095148,-0.0122477447,0.00801192954,0.00361272216,-0.00372158177,0.000918356944,-0.00914869182,-0.00590826841,-0.000104267872,0.0016098972,0.00207204071,-0.000277523265,0.00124906008,0.0064440008,-0.00265037248,0.00918549596,0.00726080684,0.000100025377,-0.00505490826,0.00152370984,-0.00432194586,-6.85080554e-05,-0.000616967091,0.00246445592,-0.000651964939,0.0141996285,-0.00959726695,-0.000730348142,0.00504538957,-0.00021847056,-0.00266392075,-0.00315062351,-0.0104156092,0.00231479023,-0.002569194,0.00248379184,-0.00267619527,0.00159565351,0.00240220101,0.000829243726,0.00554825379,-0.00182726881,-0.00348786787,0.0191242057,0.00860923212,0.00559564326,0.00283561614,0.00641042249,0.0057309915,0.000841528652,0.00029956163,0.000150057584,-0.000697085681,0.00107168021,0.000872399816,0.00907194922,-5.00990071e-06,-0.00432391158,0.000139395946
0.00385850564,-0.00744254222,-0.00172839187,-0.00982846771,0.00286715898,3.78713212e-05,0.00935820872,-0.0012543305,-0.00017867146,-0.00121266119,0.00795102187,-0.00106192368,7.40276491e-05,-0.00275631207,0.0010212003,-0.00665215888,0.00144206658,0.00371647401,0.00018651892,-1.08554461e-05,0.00407581403,0.00407882565,0.00453011302,0.000852770822,-0.000236363132,0.00127502612,0.00152659839,0.0056475942,-0.00308446014,-0.004066201,-0.000663004311,0.000282208331,0.0071335925,-0.00359003748,-0.00386156562,0.0049783315,0.00183680454,0.00354646321,0.000904889761,-0.00624383049,-0.00148402586,-0.000459223907,-0.00324868359,-0.00239487386,-0.00600112714,0.00579905466,-0.00258717107,0.000112984096,0.00152251263,0.000475073109,0.00944100501,0.00254475318,0.00226738275,-0.00305273973,0.00240712389,0.000767307769,-0.000479411491,0.00149281563,-0.00491043121,-0.00649472283,-0.00237312869,0.00642675636,0.00395649023,0.000263171574,0.000794490375,0.00450961626,-0.0116026736,0.00244595314,-0.00202931181,0.0050733781,-0.00459051309,-0.00110946021,0.00358682509,-0.00876319554,0.007435408,-0.013605548,-0.00845155415,0.00618385961,-0.00579357158,0.000314190954,-0.00180953595,-0.000940713375,-0.00518692462,0.000620592894,-0.0103490845,0.0133780923,-0.0105427633,0.00717424894,-0.00893928424,0.0031715573,0.00591464478,0.00506539037,-2.73008898e-05,-0.00328094859,-0.00159156867,-0.0017310118,0.000613217784,0.0150102363,0.00313771282,0.000317622604,-3.72055358e-05,-0.00204185436,-0.00589963662,0.00300100732,-0.00588839243,-6.7106555e-05,-0.005284282,-0.000116690956,-0.00164589149,-0.00456843895,-0.0200793493,0.00519117193,-0.00331330354,0.00314158514,0.0245437425,-0.00045024841,-0.0047499797,-8.80976587e-05
0.00385850564,0.00583241256,-0.000426354875,-0.00546437922,0.000866908274,0.00373992655,-0.00477173268,0.00226278749,-0.00243979057,-0.00406709899,0.00172931688,-0.00384490881,-4.60953784e-05,0.00448592246,0.00314731026,-0.002378331,0.00630782205,0.0003499726,0.00189736169,-0.00432408221,-0.00536579278,-0.00429756001,-0.00164009721,0.00411347429,0.00210855156,0.00567655409,-0.00154429031,0.00905778176,0.00180656019,0.00460878863,-0.000651169317,-0.00056113243,-0.00910577194,-0.00256409697,-0.00959666942,0.00630513217,-0.000966215806,0.00017505869,-0.00124671373,-0.00165758764,-0.00520018533,0.000430800173,0.0052649704,0.0130491513,-0.00059923047,-0.0075040218,-0.00165574263,-0.000826178229,-0.00626116767,-0.0011672816,0.0102558919,-0.00274975318,-0.00865119498,-0.00455699917,-0.00419498233,0.00548575606,0.00649322005,0.00116928946,-0.00621066562,0.00714099844,-0.00112077648,-0.0028026298,0.00997032278,-0.000792933794,0.00258422746,9.58859499e-05,0.00644817692,0.00484609736,0.00368314895,-0.00788143744,-0.00848245179,0.00829945003,-0.00360419086,0.00109397108,-0.00100625022,-0.00303391722,-0.00361574617,0.00925846874,0.00230423407,-0.0113078101,-0.000852962233,-0.00819291734,-0.00846951836,-0.0120668848,-0.00239600176,-0.0106313366,0.00395397048,0.00302031101,-0.00575616426,0.00357478613,-0.00216339677,0.00312218545,0.00421396711,0.000962990149,-0.00986772163,-0.00707772652,0.00468854284,-0.00783549154,0.0239240158,-0.000728825624,0.0160997402,-0.0165766991,0.002818561,-0.00557115767,-0.000667695824,0.00535062264,-0.00447805008,-0.00471531854,0.00371928556,0.00646555724,0.000866434175,0.00782887431,0.00524978144,0.00618173149,-0.000182225737,0.00523126261,0.000154723481,0.0163539733
0.00385850564,0.00265396226,-0.000998452573,0.00304485137,0.00393836274,0.00386613679,0.00563197419,0.00595534664,0.00117267825,-0.0015990789,-0.00328174113,-0.000725475466,0.00608242783,-0.00071952262,0.00203227101,0.00458216644,-0.00690723002,0.00223221252,0.00329131515,-0.0044957085,0.00494458917,0.00657047882,-0.000228032428,-0.00636446146,-0.00451691192,0.00238593252,-0.00462600416,-0.00127650804,0.000344585262,-0.00274962539,0.00349513159,-0.00398189633,-0.00572946369,0.00105606555,0.00139283532,0.00623868927,-0.00442360397,0.00212706876,0.00711338175,-0.00901354643,0.00938019927,0.00103950179,0.00214738941,0.00468451689,0.00141554085,-0.00464149411,0.00102711179,-0.00477798926,0.000925370474,0.0022200361,0.000416171662,-0.00263786347,0.00388082449,-0.00228854155,-0.0112967572,-0.00230722549,0.00636939809,0.0021472121,-0.010160088,0.00232674898,-0.0116790264,0.00246465392,7.35232091e-05,-0.00506388735,-0.00803198278,-0.00190651161,0.00157869866,7.61375927e-05,0.00957148122,-0.00505912425,-0.00406514238,-0.0103022845,0.00172859152,0.0018044707,-0.00162785012,-0.00630892777,-0.000550515952,-0.00625299351,-0.000442989429,0.00439178092,0.0175291061,0.0018643335,-0.000125867254,0.00846929984,0.0043207443,-0.00458630256,-0.0117466096,-0.00439323793,0.00949605494,0.00542903678,0.00481309066,0.000766239498,-0.00422580501,-0.0148635169,-0.00855165815,-0.00924380277,-0.0137714963,0.000353819502,-0.0112453127,-0.0141768636,0.00983003501,-0.00234680839,-0.00730742339,0.00246913847,-0.0023238658,0.0113487041,0.0119932047,0.00545879844,0.0121884021,0.00331912599,-0.00307648078,-0.0117852848,-0.00625795561,-0.00153425852,0.0011059129,0.00206894804,0.000230937669,0.0124436995
0.00385850564,-0.00207418536,-0.00203432621,0.00458891521,0.00436098866,0.00112653548,-0.00445434574,-0.00198208895,0.00634710011,-0.00229803618,0.00241113755,0.00475159806,-0.00362182019,7.98169618e-05,0.00379969917,-0.00663773528,0.000707552467,-0.00246376276,-0.00342603168,-0.00668132781,-5.06871652e-05,0.00149226204,0.00243494738,0.00321547915,0.00623985416,-0.00789159738,0.00242741864,-0.0071878111,0.000630783106,-0.00203048986,-0.00402792072,-0.00585363938,-0.00294809199,0.00346581295,0.00161767781,0.00599147807,-0.0054075985,0.00641329218,0.00021999047,-0.00456185258,-0.00657970297,-0.0067418957,0.0124026724,-0.00182810919,-0.00740200611,-0.00312417592,-0.000518206605,0.00103626974,0.00423220468,0.00885226577,-0.00808260112,-0.00836335357,0.00638571838,0.00191442043,-0.000677693099,0.00456657339,0.00980679496,0.000485448532,0.00175582979,0.00734109485,0.00670319023,0.011149052,-0.00629626123,0.00925980569,-0.00362164262,0.00916587055,0.000926886053,-0.00276751067,0.00559315489,-0.00178701669,-0.00478721474,-0.00349624707,0.00846591325,-0.00110108419,0.00865572292,0.00517988421,0.000442490177,-0.00680154957,-0.00980303372,-0.00657501311,-0.00485040816,-0.00705989436,-0.0074431263,0.00145015618,-0.0067436396,6.6341896e-05,-0.00256952018,-0.00107597325,0.00331655195,-0.0128982197,0.00221820291,0.000473831581,-0.000386877755,0.00368602413,0.00488828266,-0.000952115144,0.0084443423,-0.00159567109,0.00677344663,0.00718450024,-0.00714593274,-0.00781371692,0.000679905598,0.00816574817,0.0137308066,0.00339491798,0.0184047871,0.00820076634,0.00408592526,-9.0754882e-05,-0.00326671927,-0.00248977111,0.000471115039,-0.000367524485,-0.00170219574,0.000656969354,-0.0141499503,0.0011666489
0.00385850564,-0.00593503273,-0.00256150287,-0.00489486873,0.00315267247,-0.00192017523,0.000507279363,-0.00215744259,-0.000927752764,-0.00461017817,-0.00428412635,-0.00078518383,-0.000714314159,-0.00712997266,-9.58135309e-06,0.0074816749,0.00326312046,0.00244228422,0.00178182213,-0.00158867546,-0.00189596145,-0.00808190779,-0.00367294791,-0.00318510177,-0.00327892404,-0.00123627533,0.0016116497,-0.00540121582,-0.00410679594,0.00713920278,0.000595260307,0.00257423526,-0.00115946478,-0.00049478425,-0.000696673419,-0.00767397728,-1.05352154e-05,0.0109182238,0.00171255115,-0.00428345195,0.00219704631,-0.000592486199,0.00175902246,0.00839514587,-0.00791588069,-0.000501337833,0.00902876428,0.0123277445,0.00043398172,0.000998597729,-0.00148175897,0.00423808827,0.00614522292,-0.00142941113,0.00258075312,-0.00650177695,0.0127252063,-0.00585210477,0.00931575368,-0.00444372582,-0.00108181009,0.00165471285,0.00200334102,0.0017109099,-0.000317117278,0.0064449677,0.0124226924,-0.00414151004,-0.000220937729,-0.00540340983,0.00143435878,0.00717554961,-0.0172571,-0.000668172188,-0.00749362033,0.00892346142,0.00483025552,-0.0136447206,0.00744396155,0.00233157034,0.00234456493,0.00371277128,0.00415494281,-0.00287168509,0.0026680697,-0.00261275194,-0.0109320102,0.0129651455,-0.00838003721,0.00288304272,0.00211583118,0.00544343466,0.00410854447,0.000649557549,0.0022139956,-0.00309057122,0.000942777863,-0.00813252489,-0.00545158358,-0.000105554391,0.00048236609,0.00132121269,0.00930464426,0.00336994156,-0.0021030521,0.000560354909,-0.0011279135,0.00108837726,0.00031712764,0.000406431941,-0.000422858643,0.00422990898,-0.00490992672,0.00307900478,0.0223393702,-0.000543852058,-0.0104894375,-0.000243124745
0.00385850564,0.00597169911,-0.00284710872,-0.00549191707,-0.00439609958,0.00509702431,-0.00359248816,-0.00648619189,-0.000572892896,-0.00683837754,0.00170098003,0.0063607687,0.00185655882,0.00738983237,-0.00453948265,0.000452583331,-0.000677883886,0.00817072793,0.000808653666,0.0017226921,0.00841767763,-0.00271541722,-0.00502401078,-0.00534404814,-0.00188707887,-0.0050327652,0.000373730057,-0.00239624098,0.00866351621,-0.00127419501,-0.000188121181,-0.00288928878,0.00705331672,0.00286161199,0.00391609978,0.00851586882,0.0060986107,0.00446783562,-0.000775288824,0.00781773398,0.00317539176,0.00213770634,-0.00017260532,-0.000740282011,0.00293761519,-0.000249702791,0.00994926395,0.00867935105,0.00606792549,0.0059650347,0.00407903679,0.00334441305,0.000815683427,0.00648730567,-0.00351694522,0.00211572933,-0.00953630345,0.00903126383,0.000836427561,-0.00170353291,0.00327187291,0.00364459836,-0.00760428162,0.000894864348,-0.00524449506,-0.00219945701,-0.00109437275,-0.0118758048,-0.0203158225,-0.00146198192,-0.0020980816,-0.00231853683,-0.00348525252,-0.00314584151,0.0079552576,0.00560761883,0.0079381621,0.00149608782,-0.00601160395,-0.00280902704,0.0089505746,0.0151352419,0.00236950436,0.0116750682,-0.00439617631,-0.00425754222,-0.00244139738,0.00293968392,0.00158293754,0.00112995092,0.00177940452,0.000423308232,-0.0203614012,-0.00262838062,-0.0063070987,-0.00730351119,-0.0041358297,-0.00205292408,0.00805262858,0.00453966675,-0.00333033354,-0.00449756774,0.00226213259,-0.00918620788,-0.00754070362,8.01574461e-05,0.00458294064,0.0056256053,0.00799289516,-9.03809051e-05,0.00453044078,0.0361571449,0.0197922436,0.00583130514,-0.00183328501,0.00188317642,-3.35673612e-05,0.0175911751
0.00385850564,0.00454896102,-0.00219984064,-0.00118551264,-0.000192750667,0.00431724057,0.0028062723,0.00339913968,0.00114169113,-0.00367812865,-0.00578018583,-0.00717427424,0.00361474279,0.000359677458,-0.000956049314,-0.00464587707,0.00312064193,-0.00713694487,-0.00123060439,-0.0038777522,0.00122125214,-0.00129884111,0.00690432411,0.00102816152,-0.00375440326,0.0040513448,0.00024189128,-0.00551578679,0.000315651005,0.00183152325,-0.00460246073,-0.00337603094,0.00283798854,-0.00478284462,0.00710325006,-0.00582672629,3.34283628e-05,2.45791391e-06,-0.00914510713,-0.00304457746,-0.00205821444,0.00263063856,-0.0058804603,-0.0108107442,-0.00201580225,-0.00164513727,0.000871122948,0.000355280467,-0.00745902191,0.00128425155,-0.00384890137,0.00368284612,0.00181595286,-5.552795e-05,0.00325013602,-0.00750938482,-0.00443548934,-0.00357436091,-0.00245143344,0.00306621661,0.00396977535,0.00204377165,-0.000839139336,0.0097560538,-0.00548787184,-0.00427374385,-0.00071449877,-0.00188012309,-0.00994024244,0.00438064921,-0.00134563285,0.00285720652,-0.010936522,0.0038312137,0.00725847874,0.00269442922,-0.00130211531,0.00200689366,-0.00816207693,-0.0132519603,6.04633457e-05,0.0104337179,-0.000282242021,0.00244813709,0.000583400301,0.00296319511,-0.00210997908,-0.00477648205,0.00182000257,-0.000584741181,-0.00267105175,-0.00249969179,0.00531762192,0.00028136567,0.00363134538,-0.00267629954,0.00605773989,-0.000637494327,0.00226781971,-0.00391167485,-0.00494355658,-0.00053051442,0.00260237748,-0.000887011501,0.00313358641,-0.00691847011,-0.0111359874,-0.00356865602,-0.00596556867,-0.000999610269,0.000715901009,-0.0205333236,-0.0150490982,-0.0159823818,0.00397039934,0.00207003453,0.000682555431,0.0511851873
0.00385850564,7.99434217e-05,-0.00286733703,0.00536155957,0.00362940238,0.00113090985,0.000637433254,0.00382647201,0.00762494494,-0.00205167518,0.00582650435,0.00288212054,-0.00202513381,0.00119897764,-0.00295961615,0.000642471602,-0.00563094488,0.00628181202,-0.00306662615,-0.00544989596,-0.0042488709,-0.00513190991,-0.000582322524,0.00289155267,0.00599091524,0.00682703779,0.00903749651,-0.00116255223,0.000953849488,0.00558708133,0.00601471062,0.0034718064,0.00574245527,-0.00164282081,0.000685590446,-0.00500695474,-0.00215828429,-0.00128178476,0.00820358139,0.00306231321,-0.00596831699,0.0103701979,-0.00623289783,-0.00512427181,0.00145164923,0.00144348529,0.00374686102,-0.00403644362,-0.00580521116,0.00504975829,0.00504324857,0.00238369118,-0.00567396293,0.00606838838,0.00966952567,0.00458563754,-0.00190689683,0.00065537505,-0.00287585447,-0.000254597576,-0.00294608452,-0.00965372456,0.00311497451,-0.00219809154,-0.00387307224,-0.000340569757,-0.000702811744,-0.00379213341,-0.000348217585,-0.00151651695,0.00893064891,0.00061389224,-0.0124645913,-0.000224986644,-0.0046971658,-0.000893311315,-0.0033248693,0.00711303693,0.00305306991,0.00807034359,-0.00224335299,0.00691008029,-0.00828096867,0.000104740917,0.00296925316,-0.00196486436,0.00365074567,-0.00484062079,-0.00612818066,0.00358207499,0.0129062858,0.00847007258,0.00235544037,-0.00174623133,-0.00301186363,0.00262181716,-0.00396898937,-0.00267220372,0.000992741271,0.00597348935,-0.00690074308,-0.00806232393,-0.00891200395,0.0103757138,0.00973633005,0.00476278585,0.0162413139,0.00775245969,0.00254658296,-0.00063960094,-0.00314967289,-0.00267939938,0.000194645974,-0.00088709759,-0.00117662578,0.00081084717,-0.00240615697,0.00339197378
0.00385850564,-0.0039444896,-0.00339569945,0.000425262064,0.00338754608,-0.00308800795,-0.00529902732,-0.00139950309,0.00102823093,-0.0057577729,-0.00571670705,0.00243428207,-0.00484272299,-0.0029839944,-0.000866573952,0.0014235965,0.00113270299,-0.00694895933,0.00705200865,-0.00246046334,0.000440341455,0.00581407547,-0.00466638568,-0.0010726615,-0.00906486495,-0.00165738171,0.00452421573,0.00477124968,0.00592164506,-0.0011647196,-0.00304618082,0.00618238807,0.00471350088,0.00179868856,-0.00874740241,0.00143290434,-0.00297196761,-0.00467595093,0.00140131651,-3.95287947e-05,-0.00182612572,-0.00650511885,-0.0121676574,-0.00671103903,0.000388302956,-0.00609283721,0.000392724856,-0.00661546266,-0.0011252321,-0.00507914433,0.00413657105,-0.00418515254,0.00101586406,0.00872113306,-0.00327952782,-0.00349683914,-0.00345183045,0.00749547537,-0.00386795781,0.000161512224,0.00470033025,-0.00768732195,0.00514614118,-0.00190215358,0.0055469427,-0.000876192413,-0.000713553974,-0.000299068864,-0.00251091181,-0.00118834512,0.000167878958,-0.0063677536,-0.000598113587,0.00219256153,0.00188532924,-0.00105510565,-0.00656376222,0.00035376393,-0.000877075972,0.00836790156,0.00197320337,0.00115708029,-0.00319454224,-0.00625089697,-0.0128625013,-0.00110607401,0.00296914769,-0.0112439323,0.0115303892,-0.00111095681,-0.00484230925,0.00823887759,-0.000457254004,-0.000650028702,0.000110141905,-0.000517823022,-0.000322536655,0.004192101,-0.00220453906,-0.00125115305,0.00171921268,0.00264831346,0.0290313914,0.00292223114,0.00239303371,0.00151497265,0.00278367415,-0.000598563909,0.00327894008,0.00331012295,0.0106893964,0.00196582137,-0.00519590293,0.00122435937,0.00843392472,-0.000611899112,-0.0247643165,-0.000344119679
0.00385850564,-0.00676463621,-0.00277890976,-0.00811386749,0.00358221056,-0.00244408114,0.00635775854,-0.0018868805,-0.00289261199,-0.00606326829,0.00361403421,-0.00137165274,0.00304191643,-0.0129694452,-0.00160106306,-0.00143085443,0.00748136248,0.0146898478,-0.00277442901,-0.00151612902,-0.00432744759,-0.000580327173,0.0123349152,-0.000998127292,0.00280431453,-0.00338556184,-0.00362815634,-0.00617238224,0.00886847083,-0.00702482061,0.000583267503,-0.00112785429,-0.0160507497,0.00610391159,0.00339480717,-0.00294380025,-0.00545294182,-0.0166244703,-0.00334414264,0.020690711,0.00191385603,0.000774910041,0.000711003122,-0.00244014715,0.016017946,-0.0113960175,0.00451290503,-0.0121057052,-0.00513349893,-0.00375427479,-0.0147004174,-0.00579011033,-0.00441547106,0.00579017084,-0.00422129385,0.00168558652,-0.00460944348,0.00654762054,0.00182351638,0.0124889224,0.00302429142,-0.0123134145,-0.00149409456,3.82306269e-06,0.000252783416,-0.00875547277,0.00486233512,-4.36029598e-05,0.0017940512,-0.00171159012,0.00477430491,-0.0105235583,0.0135100224,0.00733665207,0.00168483504,0.00887713235,0.00181358125,0.00379004934,-0.00136551035,-0.0072061635,-0.0012880315,-0.00278294242,-0.00194968035,0.00218809519,0.000745716528,-0.00399982783,0.0120344511,-0.0108156824,0.0135076977,-0.00316822241,-0.00192370605,-0.0135236571,-0.00498770472,0.0104775726,4.74603306e-05,0.010481797,-0.00730737583,-0.0537656181,-0.00514220708,0.000279363173,-0.00450101622,-0.00282983832,-0.0210980631,0.0160309697,-0.0205632144,0.000509047345,-0.0113628599,-0.000739069706,-0.00314493161,-0.00716754077,-0.0342649296,0.0147058846,-0.0149028925,0.00817201272,0.0528094,-0.00102308257,-0.0118040775,-0.000266685854
0.00385850564,0.00347375332,-0.00403178835,0.00117751172,-0.00231753059,0.00233881423,0.00468781859,0.00254531388,0.00463217495,-0.000237431503,-0.00253443042,-0.00809459528,0.000224592829,-0.00354245357,-0.00531119403,0.00240717364,0.00398825303,-0.00609254119,-0.00708430717,0.00471316767,0.00224033629,0.00368357823,-0.00210125706,0.0019177432,0.000214144363,-0.00492261051,0.00454693922,-0.0014397985,-0.00188781008,-0.00784278321,-0.00491997757,0.00507481377,-0.000833838149,0.00642797164,-0.00225354477,-0.00150645959,0.00745503039,0.00251635469,-0.00802079171,0.00345250392,-0.00689751995,-0.00333735572,0.00735485796,0.00636755111,0.00427857814,0.00443633547,0.00410517173,0.00745728264,-0.00350768153,0.00115213008,0.00879083235,-0.0145125851,-0.00505935915,-0.00579518105,-0.000282133806,0.00502962471,-0.0015548893,0.00871190401,0.00287119847,-0.00568329408,-0.00477248411,-0.00553875267,-0.0016316657,-0.0106049128,0.00246563522,0.00811509628,0.00717115184,0.000160376134,-0.00222831354,0.0109882203,0.00693830378,-0.00181475845,0.00641624367,-0.00422762948,-0.000476073282,0.00160266513,0.00526852202,-0.00188508124,-0.00195508478,0.0129755604,0.00816142493,-0.00921853751,-0.00364737527,-0.000383669173,-0.00110224684,-0.000291339978,0.0103073633,0.00763226033,-0.00258510953,0.0014773373,-0.000523017432,0.00405967262,0.00644873806,0.000631596833,-0.0081453372,0.00219513327,-0.00393991723,0.000553819502,-0.003878366,0.000286210286,-0.00643002159,0.00368579468,-0.00187758563,0.00282102323,0.00261468152,0.000585117178,0.00251234832,0.00387602232,0.00361285274,-0.00103576686,-0.00152077475,-0.0025102638,-0.0023515577,-0.00570888938,0.000410110511,-0.00118515496,0.000237720566,0.0146691261
0.00385850564,-0.0013694079,-0.00439245365,0.00398189676,0.00209841435,-0.00341218243,-0.00362884618,0.00278080604,0.00382961361,-0.00289954785,0.00280004422,0.00279633722,-0.00761060262,0.00381654473,-0.00519948505,-0.00554459903,-0.00112202221,-0.000278782191,0.00907776305,0.00243835948,-0.00292974889,0.00196454493,0.00767330839,0.00233487834,-0.00401216822,0.00663515898,-0.00180531617,-0.00539746589,-0.00247214131,-0.00616286766,0.00243376382,-0.00259551892,-0.0023203584,0.00710868521,-0.000343126936,0.000817412187,0.0105530145,0.00108177271,-0.00613765972,0.000617421395,0.00915926004,0.00348346449,0.000653357631,0.0122512727,0.00183456669,-4.01595462e-05,-0.00407642349,0.00531944714,0.00247716662,-0.00780945864,-0.00540837347,0.00497812651,-0.00232667399,-0.00835001902,-0.000605570562,-0.00797231272,-0.00137490538,-0.00489384287,0.00126774657,-0.00912793659,-0.00111387748,-0.00105509808,-0.00221003078,-0.00259473312,0.00787321827,-0.0079557055,-0.00373304765,0.00222181155,-0.00465652867,0.00162888513,-0.00123733861,0.00410695099,-0.00382570839,0.000327925925,-0.000918891864,0.00227967653,-0.00464707659,0.00270911602,0.00294132467,-0.00387968425,0.00576422723,-0.00554993896,0.00543471133,0.00470403688,0.00473836634,-0.0010933045,-0.005504295,0.000774921407,-0.00361236493,0.00506139945,0.00187454468,-0.000676297666,-0.00386198439,0.00225524431,0.00121474756,0.00782007147,0.00958181475,-0.00213549084,0.00699504267,-0.00087480518,-0.00597511576,-0.000692862145,-0.0161856265,0.00173881433,0.003325243,0.00190749124,0.00704431313,-0.00359716411,0.0050915973,-0.00149147481,-0.00779112657,-0.00132222259,0.00102376453,-0.00250423558,-0.0111364662,2.64871311e-05,-0.0187453253,0.000916860133
0.00385850564,0.00520903079,-0.00352774723,-0.00304304304,-0.00444000156,0.0044537603,0.00085480424,-0.0040194146,0.001335255,-0.00429465246,-0.00349769051,0.000121982466,0.00199624361,0.0012769936,-0.00471554737,-0.00393246481,0.00180383455,-0.004652959,-0.0033232221,0.00196282979,0.00256579426,-0.00442424519,0.00653462277,0.00673881346,-0.00464984673,-0.00437409974,0.00367334326,-0.000822309314,-0.00112264474,0.00411053902,0.0115044752,0.00310499643,-0.00086366247,-0.000514770149,0.00144178818,-0.0021444847,0.000592263887,-0.00555014578,0.0101440479,-0.00539701135,0.00657192298,-0.00309001819,0.00213447565,-0.00512997843,0.000621386104,0.00785831381,-0.00305680528,-0.00953256977,0.00634685119,-0.00639858038,-0.00602257742,0.00130565152,0.00832163789,0.00518262778,0.00136332368,-0.00061229312,0.00805360298,-0.00417657671,0.00973054857,0.00116650964,-0.00270525023,0.00328383317,-0.0016653029,-0.0116248105,0.00488494072,-0.0045510578,-0.0110502727,-0.00356654196,0.0136424624,-0.00270832606,-0.00351054595,-0.00605728895,0.000399228981,-8.07572539e-05,-0.00758474982,-0.00578689278,0.00224888554,0.00195304047,0.0158339371,0.000699120746,-0.00386273257,-0.0125349055,-0.000545395684,-0.00738420668,-0.00617164286,-0.00493765042,0.00379581961,0.00382166055,-0.00602226837,-0.0093431083,0.00365766295,-0.00292917453,-0.0011950005,0.00539475685,0.00106656129,0.00655731843,-0.0049295172,0.00370816165,-0.00274978226,-0.00649034726,-0.000657426749,0.00555983849,6.10136719e-05,0.00516475644,0.00162576222,-0.00657725757,0.00190108839,0.00181813874,-0.00238311705,0.00152700057,0.0018367928,0.0184397947,0.00829288149,-0.005862518,-3.96980842e-05,0.00780954807,-4.0403008e-05,0.0236539921
0.00385850564,0.00124634078,-0.00583170421,0.00306212306,-0.00352665864,-0.00384059994,0.00156002472,0.00242077387,0.000897202864,0.00521915909,0.00369121957,-0.00426801186,-0.00457439997,0.000952062825,0.000143486257,0.00142532866,0.00654752073,0.00370829435,0.00319145866,0.00616028486,0.00190587259,-0.00340709512,-0.00214137532,-0.00373539304,-0.00067714336,-0.00731043083,-0.00874661713,0.00317952833,0.00226907182,0.00668873229,-0.00106285237,-0.00473561256,0.00101745264,-0.00231006656,0.00482272091,0.00290959763,-0.0106015126,4.23865925e-05,-0.000976813671,-0.00700699709,0.00240473144,0.000805934787,0.000695201742,-0.0103386127,-0.0058101672,-0.00645760908,-0.00556498046,-0.00275003171,0.000483213549,-0.00800769124,0.00100088871,-0.0076791328,-0.00136997017,0.000129336374,0.00617300577,-0.00838980945,0.00222681245,0.00622919861,0.00110431163,0.00393358771,-0.0071049196,-0.000191388953,-0.00167734759,0.00153924192,0.00867485899,-0.000508885039,-0.00324762808,-0.0157084593,-0.00302751306,-0.0175441206,-0.00439527331,0.00920875929,0.0103591872,-0.00674990261,0.0049098878,0.00891406259,0.00341593871,0.0106366388,-0.00205678955,0.00876491735,0.0019102395,0.00850812256,0.00273276899,-0.00794530742,0.00761234344,0.00256063623,0.00262314273,0.00961054856,-0.000263806045,0.0126745738,-0.0087215091,0.00725007242,0.00847927451,0.00142592747,-0.00570760365,0.00834603099,-9.38486799e-05,-0.000392089122,-0.00234144977,0.00247032677,-0.00142326004,0.004766397,-0.00545208928,0.00390191296,0.00241760822,0.00598100007,0.00436256126,-0.00122542446,0.000823759261,-0.00334525824,-0.00600316219,0.000200451533,0.00128951992,-0.00233588578,-0.00460420866,-0.000565293467,-0.00348327306,0.00344247005
0.00385850564,0.00347482269,-0.00581697315,0.000278329058,-0.00748208809,-0.000435413742,0.00357561269,-0.00552364579,0.000740949749,0.00603361583,-0.000786306176,0.00223739874,-0.00294240756,-0.0069874377,0.00505855045,0.00201035625,-0.000297622382,-0.00251468377,0.00191224968,-0.00283221361,-0.00818552809,0.00521457889,-0.00269103174,0.0059372193,0.0022722899,0.00463295462,-0.00436688363,0.000375605956,-0.00212219322,-0.00280686932,0.0038924717,-0.0032107684,0.00161802802,-0.00270497354,0.000254809221,0.00534720993,-0.00154867944,0.00334904725,0.00280289081,0.00621308572,0.00343272419,0.00456944787,-0.00266685769,0.00121911308,-0.000809553091,-0.00540016126,0.00817421712,0.00531306333,0.000887831573,0.00413455093,0.00100663068,0.00978167159,0.000746413394,0.010193595,-0.00401261247,0.000839822367,-0.00514827977,-0.0073845614,-0.00500886608,0.00234112853,0.00732434091,0.00667445449,0.00115091738,0.00659716834,-4.93201361e-05,-0.00570628568,-0.00450848268,0.0117549728,-0.00750978095,0.0027865043,-0.00573912795,-0.00944083438,-0.00618059371,0.00635824846,0.00119153948,-0.0006666837,0.0126796788,-0.00525540412,-0.00805628937,0.00464688327,-0.0026184696,-0.0155210239,-0.0111164543,-0.00625924296,0.0054199119,0.00148234737,0.00381628446,0.00557983266,-4.54945649e-05,0.00767236492,-0.0106156631,0.00365439422,0.0147684355,0.000132510607,-0.00467690698,0.00689378113,-0.000307986145,0.00178812929,-0.00996892509,0.0032829257,0.00699193387,0.0125412995,-0.00268909449,0.00627287757,0.000448169779,0.0119544354,0.00415420861,-0.00108335508,-0.00274491043,-0.00448442477,-0.00261002958,0.00864237015,0.00507618233,-0.00199435744,-0.00263481123,0.000740308844,-0.000997095695,0.00598557486
0.00385850564,-0.00167216256,-0.00599553261,0.0018217317,-0.00105111104,-0.00850883105,-0.00342144564,0.00318663873,-0.00826625894,-0.000260669906,-0.000483099204,0.000176630217,0.00745643903,0.00584809401,-0.00119034165,-0.00242453637,-0.00433067519,-0.0017927612,-0.00525418844,0.00189554287,0.00299279532,0.000248069846,0.00199676819,0.000626720018,0.00318681613,0.000471558431,0.000498412324,0.00266024111,-0.00797453935,-0.00455766464,-0.000178552183,0.000876896826,-0.00136127834,-0.004594624,-0.00345105172,0.00248939536,-0.00349345432,0.00292633054,0.00199773418,0.00808373488,-0.00255944273,-0.000283984771,-0.00151443567,-0.00181344571,-0.00181317433,-0.00326566427,0.011489136,0.000109767529,-0.00358224049,0.00606401633,-0.00233807928,-0.000996008563,0.00498624083,0.0064706702,0.00477163852,-0.0009471563,0.00403910312,-0.00620006181,0.00617303415,0.00993850461,-0.00664675994,0.00554894437,0.00171746917,-0.0143825156,-0.00483162616,0.0034325592,0.00704706649,0.0102765645,-0.00280546691,0.00630821841,0.000768847871,0.00621897864,0.0065528502,0.00404695891,5.81811816e-06,-0.00961041841,-0.00589058407,-0.00169078117,0.0061075422,-0.0087680786,-5.15433185e-05,0.0116505701,0.0166030957,0.00180168293,-0.00696767173,-0.000958113296,-0.00334772016,-0.00103300165,0.00127571339,0.0094469172,-0.0116622536,0.00580913921,-0.00443870125,0.00649805445,-0.00834544526,0.0152767197,-0.00282273375,0.000796514384,0.00425438211,-0.000290125197,-0.00171385501,0.000664019176,0.00983581895,0.00776762018,0.000562529599,0.00470142857,0.00254465015,-0.00433342396,0.00220444563,-0.00473830488,-0.0157290199,-0.00166130991,0.00348895463,-0.00264221438,-0.0107672456,-0.000190446728,-0.00366805073,0.00102574249
0.00385850564,0.00501053287,-0.00494885564,-0.00278242811,-0.00812935309,0.0032654942,0.00156470138,-0.0108411145,0.00100364677,-0.000784328877,-0.00262401121,0.0116081973,-0.000218439557,-0.00282731064,-0.00242103272,-0.00164001221,-0.0126425372,0.00292210659,0.00207424652,0.00320868685,-0.00167194361,0.000358701054,0.00284425379,-0.0106277047,0.00475947937,0.00412193248,-0.000626691652,0.00320702768,-0.00526040835,0.00103526675,-0.0118383669,0.00144535104,-0.00600048884,-0.00177414962,-0.00379585341,-0.00909165203,-0.00555895787,-0.00191106874,-0.0069735769,-0.00603125455,-0.00796702139,-0.00397880413,-0.000634614379,0.000612843059,-0.00339694998,-0.00384770245,-0.011292321,-0.00339034972,-0.00722808476,-0.00223280975,-0.00238375512,-0.0100534663,-0.00686943905,-0.0162590163,0.00922376377,-0.00693660566,0.00326015391,0.00135136146,-0.00402610634,-0.00171841575,-0.00898458394,-0.00865012337,0.00347969446,0.00390652997,-0.000297212196,0.00449156632,0.0120383548,0.00559442357,0.00847518975,0.00467186153,0.0118567287,0.00958128385,0.00104041298,-0.00112194118,-0.00444476323,-0.0052888591,-0.0166321741,-0.00671373604,-0.00502829078,-0.00640782259,-0.0114112357,0.00364973661,0.00126326393,0.0127824557,0.00247692682,0.00544108629,-0.00593501263,-0.0157546808,0.00511244985,-0.00339039816,0.00307784238,-0.00475854232,0.00561772726,-0.0052632477,0.012930754,-0.00570439761,0.0122014953,0.00285071437,-0.0181694579,0.0139709672,0.015096964,0.0263343382,-0.00448859807,0.00468707634,-0.00347292991,0.02295896,0.00708242867,-0.000414889083,-0.00770614623,-0.00776498295,0.00294233546,0.0340438127,0.0175395774,-0.00232723594,-0.00266673746,0.00565406707,-0.000786479144,0.0176116465
0.00385850564,0.000567228798,-0.00668492223,0.0023388133,-0.00517722378,-0.00734560103,-0.000168710691,0.000729743597,-0.0072238117,0.0081887403,0.00246546109,-0.0008587161,0.00422132921,0.00382946927,0.0112606746,-0.000508078509,0.00170434551,0.0024460178,-0.000584113406,-0.0122519642,0.00877665597,-0.00504053413,0.00313626788,-0.00295002446,-0.00580456494,-0.00123389318,0.0151959725,-0.00562002472,0.00685190357,0.000858768996,-0.00113303252,0.00757377974,-0.000578169547,0.0104970974,-0.0046934543,-0.0106880002,0.00919283519,-0.00533491681,0.000346713491,-0.00520997891,-0.0037322083,-0.00535498613,-0.00304362054,0.0121335477,0.00758806014,0.0100888724,-0.0119363901,-0.00504936689,0.00399994583,0.00659814689,-0.0014842291,0.00688678789,-0.00205390629,-0.016326149,-0.0124478287,0.00563788056,-0.00540834181,0.0056923239,-0.0054803767,-0.00622183074,0.00795551961,-0.00378713775,-0.000831592416,0.0251653065,-0.0114549516,0.000827719028,-0.00317551453,-0.015677173,0.0151257819,-0.00377459329,0.00103235852,-0.00703729729,-0.00402244535,0.00116738931,0.000435469185,-0.0052787135,0.0103155392,-0.00363511774,0.0011450234,-0.00595501402,-0.00947278788,0.0116327548,0.00422694182,-0.00328294704,-0.00349381053,-0.000254030798,-6.44949827e-05,0.00691362816,-0.0012220509,0.0105263174,-0.016775461,0.00598665416,0.00239435549,0.00707090875,-0.0138885609,0.0179111697,-0.00952633646,0.00171775054,0.000197485499,0.000596028023,0.00250534366,0.00376096074,0.00642950353,0.00830850699,0.000462417469,0.00868290283,0.00191644866,-0.00337264662,-0.00113472351,-0.00488445781,-0.00921774107,0.000463922118,0.00276810252,-0.00175053616,-0.0057508168,-0.000466722768,-0.00146221942,0.00168360812
0.00385850564,0.0057908353,-0.00386657947,-0.00478877294,-0.00668541104,0.00509606496,-0.00150887781,-0.0104938533,0.000349147045,-0.00607904918,-0.000863060782,0.0125111458,0.00186410442,0.00489515291,-0.00699274017,-0.00190676645,-0.0108578968,0.00990917427,0.00152615469,0.00634010874,0.0101928347,-0.00554021728,-0.000717411128,-0.0197090383,0.000732458551,-0.00809746789,0.00245084021,0.00108225424,0.00945658426,0.00419384451,-0.0165206403,-0.000470190181,0.00710661375,0.015202309,0.00454877306,0.0119067486,0.00488718674,0.00435165201,-0.0215419063,0.00133677821,-0.00868002429,0.0199526629,-0.00321486704,0.00120954094,0.000171099707,0.00684348519,0.0112143033,0.00719705012,-0.0303058423,-0.0024310462,0.000996480054,-0.00242521299,0.009915915,0.0118673416,-0.0129445474,0.00510431199,0.0038318403,-0.0255366252,-0.0225949901,0.000477769929,0.00259163984,-0.00469730725,0.00458312038,0.0115207788,0.00272706496,0.00161201395,-0.0108386061,0.0169168531,0.0104345993,-0.0264760427,-0.00782628617,0.00193088373,0.011365258,0.00461350217,-0.00844358863,0.00244492306,-0.00765515543,-0.00406983344,0.0101022486,0.0122617138,-0.00745500108,-0.0160422393,0.00272379463,-0.0134988212,0.00775974241,0.00384478626,-0.00413063189,0.00846662409,-0.000291652238,-0.00245174601,-0.000321040489,-0.000750657426,-0.00344277922,0.0100213274,-0.00129422243,0.0188208834,-0.0193766126,0.00583785305,0.000398502427,-0.00325563022,-0.0129503432,-0.00465718645,0.00101261636,0.00141580487,0.00356015141,-0.0324413051,-0.0032231703,0.00353807501,0.0121532835,0.0180573657,-0.00405618752,-0.0146540478,-0.00931442995,-0.00655064848,0.00284021197,0.0129587114,0.000800182634,-0.00459806658
0.00385850564,0.00403041379,-0.0058067929,-0.000855272158,-0.00868735967,0.000508517576,0.00309920603,-0.00922083177,0.000169498476,0.00511924685,-0.00164449834,0.00856537937,-0.00223679693,-0.00743825307,0.00554866481,0.000808264358,-0.0086895424,-3.80695243e-05,0.00450875668,-0.00516445396,-0.0103451119,0.00592845924,-0.000287097113,-0.00116358394,0.00534054494,0.0161752321,-0.00351369684,0.000868653676,-0.00478856123,-0.00240567499,-0.00675372173,-0.00389197268,-0.00675326916,-0.0178799979,-0.00320361803,-0.009080212,0.00509093886,-0.00193716236,-0.00427224586,0.00183750636,-0.00301626688,-0.0178612678,0.00511763148,-0.00550290005,-0.000568905244,-0.00381592538,0.00713281229,0.00751326726,-0.00197608448,0.00446547162,0.00398627798,-0.0195742902,0.000577468994,-0.00440967399,0.00482823734,-0.00933646751,-0.0106432705,0.000537339643,-0.00264590445,-0.00686563266,-0.0117442238,-0.00628539826,-0.0135801857,0.000875300807,-0.00174941318,-2.8849547e-05,-0.0202171997,-0.0156040154,-0.00399566815,-0.0190551188,0.00245094433,-0.00499297612,0.00372158316,0.00056692102,-0.00587529439,-0.000612944853,0.00528775266,-0.00119815776,0.0213715091,0.00294891717,0.000893455188,0.00137368395,0.00673221505,0.00834206695,-0.0140062747,-0.00749473625,-0.00335532708,0.00453833035,-0.0102858381,-0.0194940762,0.00930186872,-0.00518489542,-0.0160343951,0.00805573958,-0.00674350581,0.00371512713,-0.00852650207,-0.00067394717,0.0156062606,-0.00897554582,0.000165591649,-0.0131046951,0.00470592495,-0.00153917775,0.00356208479,0.00621926961,-0.00635419343,-0.00542723019,-0.0105776081,-0.00696708496,0.00331169974,-0.0137214001,-0.00731476924,0.00192576317,0.0010817987,-0.00743412321,-0.00028601998,-0.00339783974
0.00385850564,0.00273430273,-0.00637050937,0.000983097297,-0.00783869572,-0.00284598066,0.00289671778,-0.00503204047,-0.00205802168,0.00906954664,0.000768485929,0.00301669256,-0.00195080749,-0.00558616005,0.0116407371,0.00218117287,-0.000295431549,0.000548894102,0.00492736235,-0.012132299,-0.00634487295,0.00353702718,-0.00254652681,0.00250450693,-0.00142549028,0.0119449141,0.00153435301,-0.00412087207,0.00826681696,0.000336831128,-0.000634436476,-0.00355384432,0.00218029275,-0.00835539087,0.00412196518,0.00319446676,0.0189416654,-0.00231008602,-0.00533256677,0.00190862469,0.00187093749,-0.00529585725,0.00709218123,-0.0057491429,0.00539300999,0.0145006981,0.0121489614,0.000172540576,-0.00389213423,-0.0043113066,0.00165669041,-0.00505373965,0.0116359134,0.00897547975,-0.00889425763,0.00816266282,0.00835383544,-0.00106480726,0.00818682673,0.00096381394,0.00165193175,-0.000218014194,0.0028710174,-0.0143985361,0.0041295746,0.00497670632,0.00421385816,-0.00926191532,0.0162445315,0.00367865811,-0.00263243062,0.00989326136,0.00749757711,-0.00776662291,0.00267061402,0.00262893639,-0.0140610436,0.0144228253,0.000681834186,-0.00525301255,0.00801804813,0.0147253278,0.00858016389,-0.0110079828,0.00485059159,0.00366312301,0.00358643574,-0.00873200787,0.00785380544,0.0125791746,0.00364875575,0.00265393799,0.00785912912,-0.0109158025,0.0162522977,-0.0173465208,0.0188683544,-0.00417418725,-0.00509356457,0.00271198895,-0.00702429023,-0.000866715908,-0.00381582281,-0.00376903088,-0.00313838298,-0.0147421446,0.00182582662,0.00527571719,0.0101072289,0.0078662783,-0.00155272649,0.00191226135,0.00100400576,0.000266456751,0.000992792849,0.00351706633,0.00134343107,-0.00212263345
0.00385850564,-0.0013517277,-0.00634440031,0.00184526597,-0.00209686394,-0.00925711602,-0.00310157661,0.00309509826,-0.0104270768,0.00172413129,-0.000167370738,-0.00013435591,0.010854037,0.00699227646,0.00241742211,-0.00237937443,-0.00528436544,-0.0011674624,-0.00995653173,-0.0031287385,0.00681500623,-0.00186306355,0.00225109575,0.000824710072,0.00797512188,-0.00153649182,0.0115705938,0.000987775572,-0.00790987894,-0.0047911085,0.000195784702,-0.00498123368,0.000322623016,0.00408705607,-0.0159295392,-0.00637879696,-0.0012289238,0.000229770272,-0.00117278644,0.00414206956,0.00488282781,-0.00722021826,-0.0134749374,0.00660702619,0.000987314659,-0.00986310868,0.0118043811,0.00284646672,-0.00153066385,0.00521989504,-0.0023572129,0.00447740846,0.00696135124,0.00432559342,-0.00924963998,-0.0182354136,-0.00285461756,-0.00767673512,0.00168144211,0.00902262232,-0.0102057653,0.00760548955,0.00256558801,0.00130639646,0.0224881681,-0.0101348622,0.00104827318,-0.015608374,0.00839067717,0.00241320637,0.00139884719,0.0138971732,0.00530482068,-0.0104914662,0.00465060574,0.003747853,0.000955530553,0.012678403,-0.0179206884,0.00929804798,-0.00429238846,-0.00824946149,-0.0149783293,0.00781802625,0.0127513523,0.00248010305,0.00609345893,-0.000513303865,-0.00310352126,-0.009171974,0.0094671446,-0.00369663716,-0.00197062876,-0.0012395521,-0.000673174639,-0.00362655681,-0.00413031749,0.00405114502,-0.000746605703,-0.000828863983,0.00261553692,0.000395734205,-0.0146134606,-0.0119173039,0.00483727009,-0.000924186138,-1.76006604e-06,0.00362249219,-0.00405609366,0.00557435805,0.0264348699,0.00121950482,-0.00717402828,0.00322472956,0.0137950297,-0.00080694784,-0.0023879111,-0.000696189904
0.00385850564,-0.00286998126,-0.00569898574,0.000324662529,0.000266444985,-0.00908048634,-0.00395526587,0.00271197231,-0.0107882881,-0.0040415055,-0.00344242633,0.00110111722,0.0130793739,0.00240068122,-0.00412714177,-0.000311076148,-0.00810222633,-0.00332250438,-0.0143756079,0.00206194196,-0.00455274259,0.00388737459,-0.00570837581,0.00654440433,0.0185618448,0.00117152302,0.00138443118,0.00243046267,-0.0014047623,0.000930266628,0.00276565735,-0.022093633,0.00793694201,0.00149011404,-0.0045892108,0.00550850232,0.00479708557,-0.000592185969,-0.00939142892,-0.00857421516,0.0156648256,0.00271323819,-0.000749803646,-0.00743565362,-0.000914706822,0.000663044119,-0.00500084451,-0.000849368835,0.00125995032,-0.0239768608,0.00329566816,-0.00199991048,-0.00475145783,-0.00137153523,-0.00233124836,0.00249646058,0.00739645134,0.0145951828,-0.00231417275,-0.016958475,0.0129078233,-0.0139679131,0.00254530959,0.0116401215,0.00473240246,0.00276068969,0.0014054295,-0.006100162,0.00182102959,-0.0056750734,0.00169740269,-0.0126140773,-0.0153022542,-0.00386545432,-0.00277018681,0.0168106821,5.13911082e-05,-0.00933602713,0.000175977901,0.00412527937,0.00302467844,-0.0067828042,-0.0140673009,-0.00602566845,-0.00106039755,-9.03035582e-05,-0.00477017286,0.000815647715,0.00273922224,-0.00809071376,0.0082655224,-0.00711763697,0.000996536608,-0.00504068543,0.00835233766,-0.0131240749,-0.00254924825,-0.00515378896,-0.00192877759,0.00199513452,-0.000699054197,-0.00439835988,0.0135195716,0.0088850861,-0.009237601,-0.00359587985,-0.00637819276,-0.00194586861,0.000812501779,-0.0057229924,-0.0271573835,-0.00230328088,0.00835830303,-0.00264523826,-0.0132492587,0.000911325576,0.0106931573,9.89741066e-05
0.00385850564,0.00554991105,-0.00390685937,-0.00411545294,-0.00626103457,0.00465568184,-0.000595405204,-0.00869637091,0.000656653962,-0.00483902396,-0.00160415132,0.00858818898,0.00150763129,0.00286379723,-0.00550462095,-0.00221421406,-0.006426059,0.00434723309,5.33635313e-05,0.00428759944,0.0056887522,-0.00403774767,0.00165007441,-0.00765603323,-0.000641057369,-0.0049393969,0.00199182503,0.000789988815,0.00307129711,0.00314667963,-0.00221267967,0.00102170569,0.00165665042,0.00499938069,0.00118361177,0.00343137202,0.000594913089,-0.000660963948,7.06721813e-05,-0.00154199954,0.00122317322,0.00330620769,0.000302174932,0.000182859921,6.91295481e-05,0.00256858396,-0.000123497941,-0.00426762793,0.0042515826,-0.00209857173,-0.00134366549,0.00446382432,0.0011063346,0.00265772814,9.0884335e-05,0.00134479459,0.00262679327,0.00267040111,0.0102965349,0.00183739863,0.00225365666,0.00519116487,0.000138032102,-0.00876259352,0.00180650184,-0.00230122792,-0.000393204338,-0.0062922328,0.000346890474,0.0144061295,-0.000959983458,-0.0056898968,-0.00608707816,-0.000601092975,0.00405938195,-0.00164439599,0.0110652609,0.00619579922,-0.00104034586,-0.00370962049,0.00756599777,0.00173754187,-0.00416710985,-0.00335126472,-0.00535616982,-0.00412149694,0.00830104582,0.000866490115,-0.00369673784,0.00359686727,-0.00252898066,0.00332946,0.0104893742,-0.00467590147,-0.00332261657,-0.0103318174,0.0131446984,-0.00625324038,0.00644806399,-0.00763880854,0.00543700925,-0.00899313592,0.000542115367,0.000409235105,0.00228092061,0.0198225705,-0.00324083921,-0.0063713701,-0.012572247,-0.0151559179,0.000417700697,-0.0221530437,-0.00997071687,0.00606146646,-0.000757059397,-0.0195448725,-0.000488252177,-0.0134931088
0.00385850564,0.00483338086,-0.00491334108,-0.00229189077,-0.00760005636,0.0030023022,0.00209738525,-0.00909304275,0.00139110205,-0.000194551078,-0.00283428931,0.00799387725,-0.000488378309,-0.00372012348,-0.00210014211,-0.0013472513,-0.00809707339,-0.000743348052,0.000302698955,0.00297923989,-0.0032284018,0.00136495834,0.00312749483,-0.00197801603,0.00312837376,0.00205169566,-0.000879500457,0.00231369857,-0.0080822414,-0.0009481144,-0.00089375971,0.00276442617,-0.00529943958,-0.00102504114,-0.00378182302,-0.00882775692,-0.00883637317,-0.00160448892,0.00569047972,-0.00400019172,-0.000591160794,-0.00306123912,-0.00180162307,0.00243168167,-0.00138820933,-0.00419201327,-0.0123362627,-0.00479945579,0.00836834544,-0.000342989609,-0.00193420764,0.00602854147,-0.00620810629,-0.00691172472,0.00413967858,0.000894050453,0.00189921925,0.00887282172,0.00366634389,0.00199213735,0.00412736805,0.00245541196,0.00402144658,0.000236238928,-0.00168611113,-5.63788928e-05,0.0120109695,0.0032265269,-0.00577528173,0.00898832289,-0.00121819578,0.00242119799,-0.00283168988,-0.00153492751,0.00574681706,0.00288816603,0.000246895551,0.00101860675,-0.0121271423,-0.000985708448,0.00329183851,0.00367805973,-0.0020210629,-0.00261211267,0.00601863715,0.00171359824,0.00074539553,0.0035340548,0.0048059239,0.0104926599,-0.00467827385,0.00386047237,-0.00375155966,-0.000813641163,-0.0039909033,0.00216844924,-0.00770370629,0.000177058696,0.00269310635,-0.000174791855,-0.0124705805,-0.0088853941,0.00103862613,-0.00507149375,-0.0021373221,-0.0273501218,0.000267354197,0.00697539176,0.0187717204,0.0163761644,-0.00323619381,-0.00606824235,-0.00341080979,-6.62909482e-06,0.00195000906,0.00731145625,0.0012614282,-0.0083675335
0.00385850564,0.00182915245,-0.00636752024,0.00207695964,-0.00611052097,-0.00434992903,0.00209818553,-0.00108811357,-0.00232060554,0.00856951277,0.00234860074,-0.00143343977,-0.00181385567,-0.00167891894,0.00892467601,0.00191958947,0.00494986874,0.00177842378,0.00325103435,-0.00644431482,0.000514986121,-0.0010272033,-0.00227744091,0.000248709656,-0.00415134158,-0.00164970899,0.000185112845,-0.00216953341,0.00881259944,0.00366573474,0.0011893419,-0.000803033334,0.00443705559,0.00388133808,0.00605816425,0.00776828546,0.00204202267,7.74978957e-05,-0.00139804702,-0.0031911058,0.0011961775,0.00854603201,0.00128351507,-0.00407392492,-0.00235386278,0.00232049961,-0.00522774067,-0.00620083385,-0.000980068211,-0.00838731531,-0.00274489931,0.00105166405,-0.00350260002,-0.000634523732,0.00961147956,-0.00122572069,0.00938475792,0.00342177155,0.00445038304,0.00438043263,-0.00458516258,-7.64773518e-05,0.00499726518,-0.00902916475,0.00392898706,0.000817099225,0.0129675918,0.0133274388,-0.0117025496,0.00671308415,0.00510598481,0.00575579325,-0.00116763065,0.000508200928,-0.000536896472,0.00115868628,-0.00541882643,-0.00692562741,-0.00562063511,0.00273025748,-0.00137151276,-0.0083996212,-0.00505067509,0.0140349522,-0.000680066906,-0.0011950715,-0.00528739702,-0.000876632296,-0.00284916448,-0.0163795711,0.00845023227,-0.00660623508,-0.0149422363,0.00554199614,-0.0055955444,0.00470215927,-0.0142802123,0.00325437681,0.00692898537,-0.0021252784,0.00206350996,-0.00477636264,0.00173560673,-0.00362295777,0.00195382959,0.00293411073,-0.00390934169,-0.00220358123,-0.00665816794,-0.00193587128,0.0076161771,-0.00375885212,-0.00367832839,0.0012410339,0.00312273699,-0.00233492511,-0.000490693755,-0.000739234467
0.00385850564,5.92474839e-05,-0.00644088668,0.00262331605,-0.00375694899,-0.00740739553,-0.000976685046,0.00227110308,-0.00619725526,0.00575743005,0.0025723091,-0.00163039465,0.00310668375,0.00540606852,0.00579263462,-0.00147038492,0.00180013792,0.00224576475,2.78181197e-05,-0.00364795024,0.00836937751,-0.00503248871,0.00420639702,-0.00398740662,-0.00510455551,-0.00410028529,0.00480566432,-0.0012544891,-0.00106888111,0.000253632951,-0.00111994418,0.00734252091,-0.00416358665,0.00242033571,0.000102709845,-0.00633829887,-0.00678038346,-0.000299197234,0.00386758205,-0.000845703477,-0.00403558014,-0.000278064363,0.00232801434,0.00139385457,-0.00192792653,-0.00476470015,-0.00519333216,0.00437143807,0.00205901826,0.00363079028,0.00291563039,-0.00340565879,-0.00513172036,0.00148312411,0.00689548905,0.00284086374,-0.00684120071,-0.00174784506,-0.00482558634,-0.00393877893,0.00197614896,-0.000717395993,-0.00589421514,-0.00605915078,-0.00662025134,0.00103213439,-0.0102011889,0.0146933353,-0.0158403894,-0.00489277234,-0.00449004944,-0.00939856916,-0.00134484816,0.00721828658,-0.00352026665,0.00137979457,0.000151592682,-0.00352081841,0.0115813971,0.00243838011,0.00965168758,-0.00944214263,0.00226211434,-0.00616759771,-0.00380143779,-0.00170574049,-0.000160319129,-0.00308340966,0.00145578287,-0.00148182335,0.00801696881,-0.00174910461,0.00660736742,-0.0081816938,0.0157776067,-0.0180286389,0.0179510294,-0.00504197129,-0.00333985161,4.83583174e-06,-0.00310363389,-0.00110597145,-0.00205389443,-0.00160591359,-0.00312936777,-0.00780567294,-0.000442525405,0.00276108299,0.0044574431,0.00287214043,-0.00378492855,0.00102647811,0.00163241447,0.000143752939,-0.000199204144,0.00146671778,0.00356204748,-0.000964375983
0.00385850564,-0.00341246105,-0.005105499,-0.000387179315,0.00127054082,-0.00759802277,-0.00346195248,0.00173469069,-0.00784881667,-0.00535748638,-0.00375297233,0.00125006848,0.00816902374,-0.000862360526,-0.00492532227,0.00091209163,-0.00451118055,-0.00255257439,-0.00715018153,0.00266384741,-0.00663862607,0.00391961423,-0.00546751838,0.00395409464,0.00759884464,0.00149176769,-0.0038484978,0.000935172068,0.00380363214,0.00305233392,0.00107737094,-0.00651306153,0.00411211549,-0.000553757315,0.00533741858,0.00472221613,0.00328825801,-0.000710572284,-0.00184434789,-0.00558992006,0.000580821144,0.003487941,0.00487635837,-0.00347829233,4.81716185e-06,0.00616220202,-0.00845611927,-0.00299061738,0.00160214048,-0.00243068589,0.00149231859,-0.00112270544,-0.00431912354,-0.0048464387,0.00258558568,0.00744474355,-0.000116608938,0.00396527353,-0.00275181379,-0.00179232558,0.00235261247,0.00025762638,-0.00377563303,0.0028752771,-0.0100539806,0.00442591481,-0.00401021277,0.0057782869,-0.00409272896,-0.00219155228,-0.00214808551,-0.00355917109,0.00357343144,0.00371835308,-0.00231671331,-0.00503897025,0.00492014485,-0.00138169174,0.00702819016,-0.00576838839,0.000653736641,0.00243835866,0.010066331,-0.000459317689,0.000242671663,0.000600826187,0.00471015816,-0.000767198254,-0.00480978004,0.00981596766,-0.00462148633,0.000156216817,0.00279971988,0.0011757683,-0.00401948268,0.00665435052,0.00722603833,0.0016545695,-7.77420557e-05,-0.000722654022,-0.000482043386,0.00347234505,-0.0182350809,-0.00470176449,0.00401911528,0.00246457005,0.00407141402,0.00493703729,-0.000305842771,0.00911752996,0.0371504787,0.00383727919,-0.0106556892,0.0042796941,0.0223710299,-0.000865239236,-0.015008822,-0.000641668294
0.00385850564,0.00419705872,-0.00476812821,-0.000672645298,-0.00573660897,0.00224370796,0.00355329403,-0.00375946585,0.00263577991,0.000911345932,-0.00307731968,-0.00135501834,-0.00079565735,-0.00485420454,-0.00248997725,-0.000124479932,0.00178367785,-0.00710083974,-0.00413662752,0.00384612044,-0.00292155908,0.00277575357,0.00196130825,0.00922307097,-0.000171171183,-0.00546221556,0.000384601726,-0.00020864733,-0.00834724527,-0.0050723069,0.00898499533,0.00495487995,0.000143389274,0.00852455932,-0.00119230135,-0.00272598582,-0.00729977546,0.00237969634,0.00724052072,0.00133554368,0.00179557399,0.00752895281,-0.00287319519,0.00607868932,0.00359640481,0.00190524163,-0.00294102088,0.00317971267,0.000851005181,0.00177280644,0.00418519275,0.00843675564,0.000430211759,0.00527650876,-0.0108828253,0.0116057446,0.000205173313,0.00159437645,-0.00819915174,0.00048528898,0.00715387144,-0.00243592483,0.00306816415,0.00589697288,-0.00215636618,0.00655997606,0.00337621352,0.000200265092,-0.00205627226,-0.0159227521,-0.00306847822,0.0105768572,0.0114554897,-0.002941527,0.00138132347,0.00821070255,-0.0131362727,0.00349070464,0.00352602463,0.00404869344,0.00328464659,0.0123615756,0.0121454621,0.000371128582,0.00301751008,0.003904054,-0.00768767081,-0.00366122546,0.00278539298,-0.00499028622,0.00868207697,-0.00340088915,-0.00939801937,0.000608700981,0.00809309703,-0.00363568357,0.0022797816,-0.00101895298,0.00478125477,0.0034808946,0.00128796473,-0.00237554683,0.000221817594,-0.00223898037,0.0013626763,0.0113692471,-0.00453144494,-0.0061344855,-0.0139482688,-0.0105276708,0.00351964558,-0.00617084062,-0.00325933826,0.00147159586,-0.000281940775,-0.00734212979,-0.00120648799,-0.000719939603
0.00385850564,0.0027297589,-0.00560761035,0.0016983275,-0.00529659276,-0.00113845521,0.00369177482,-0.000664736957,0.00231049435,0.00531806207,0.000811645749,-0.00411879788,-0.00395275584,-0.00458259399,0.000746748554,0.00329025018,0.00615545425,-0.00166952412,-0.000870846024,0.00448047737,-0.00281202541,0.00239414872,-0.00582575682,0.0039383232,0.00225686175,-0.00810356977,-0.00569016706,0.00301295749,0.00081325816,-0.000386135256,0.00242998923,-0.00379985685,0.00574187139,0.00778159047,-0.00119701823,0.0122095719,-0.00781649659,0.00499395396,-0.000939486458,0.00462140159,0.00020549683,0.00881738963,-0.00727665123,0.00513636175,-0.0040493643,-0.00931715279,0.00203866898,-0.000437894192,-0.00270415009,0.00456013997,-0.00471210987,0.00179849698,-0.00255028746,-0.00735202978,0.00355764896,-0.00978641964,-0.00446541712,-0.00617245072,-0.000474090898,-0.00338264175,-0.00544723173,-0.00163135605,-0.00300903147,0.00630393261,-0.00200078884,-0.00351374139,-0.00564369447,-0.00950001664,0.0175639884,0.00932988548,0.00853924545,-0.0066674803,-0.00681775723,-0.000186029705,-0.00547265155,-0.0119998286,0.00213440409,-0.000326338654,0.00841444356,-0.0118292945,-0.00812260369,0.00796493146,0.00318027049,0.00454555791,-0.0108015887,-0.0037808739,0.00296313006,-0.00734543395,-0.00234978113,-0.00158311975,0.000933205163,-0.000679037804,-0.00133265433,-0.00253396616,0.00408504396,-0.00727302095,0.00986849753,-0.00221703205,0.00179998903,-0.00371844671,-0.00269005141,-0.00483306521,0.00352029919,-0.00151132735,-0.00263704967,-0.0113150747,0.000253008715,0.00411081225,0.00910231259,0.00780704649,-0.00117805101,0.000366051045,0.000484831752,0.00157839696,0.00164126437,0.00320744141,0.00272379977,-0.00540756596
0.00385850564,-0.000502082268,-0.00580857787,0.00315886118,-0.00141651915,-0.00628851692,-0.00190536382,0.0036489712,-0.00225283608,0.00176366815,0.00292172035,-0.00128275192,-0.00187178547,0.0057416755,-0.00230278954,-0.00289397949,0.0014654839,0.00205329966,0.00512655208,0.00655382104,0.00327896269,-0.00283019106,0.00581881941,-0.00390020009,-0.00577652799,-4.51256272e-05,-0.00938848059,0.00126891685,-0.0070678676,-0.00100287586,-0.000702315314,0.00540378893,-0.00746323745,-0.00915440191,0.00826504992,-0.00187812721,-0.00693009039,0.00245991437,0.00244112157,0.00257625828,-0.000749042563,0.00127950485,0.0114041918,-0.00448351994,-0.0012930965,-0.000406007579,0.00343526644,0.0105734711,0.000196854013,-0.0035826912,0.00610143348,-0.00350626979,0.000146013771,0.00827321094,-0.00272323971,0.0119219274,-0.00190138816,-0.00141915399,-0.00213425658,-0.0120135812,0.0122109889,-0.00541549123,0.000518702026,0.000870512418,-0.000855225043,0.00125197568,-0.000521687335,-0.0040651273,0.0170811197,0.00989890678,0.00224916421,-0.0062239566,-0.0100678453,-0.00463191385,-0.00102552923,0.00179456908,-0.00365364506,0.00144242666,-0.00756940636,-0.006180393,-0.00473951935,0.00272083452,-0.0103613145,0.000167345917,0.00324235803,0.00205513792,0.00225171291,-0.00612948147,0.00246730634,-0.00319541498,0.00202705451,-0.00408355346,-0.00391136515,-0.000116452114,-0.00424062183,0.00124360476,-0.0133322764,0.0037300454,-0.000500613607,0.00046605198,0.00394668024,-0.00108541206,0.00353603235,-0.0019148764,-0.000399854688,0.000442336162,-0.0028453514,0.000282280178,-0.00431389869,0.00152567595,0.0114981404,0.000648486453,-0.00262409775,0.00196974881,0.00624880451,-0.000382214052,-0.00134478015,-0.00112397506
0.00385850564,-0.00248917026,-0.00508384004,0.00166005303,0.00122290687,-0.00656680386,-0.00438550531,0.00230492874,-0.00361764089,-0.00404682438,-0.00187379932,0.00184859171,0.000457059562,0.00251275646,-0.00512495326,-0.00213496466,-0.00268509978,-0.00416727163,0.00409997464,0.00435678427,-0.0029770708,0.0048461773,0.000735641651,0.00119311342,-0.00708186829,0.00488732869,-0.00679963552,0.0023276766,-0.00149189881,-0.00498402372,-0.00101634178,0.0110692486,0.000506653425,-0.00516152668,0.00470780281,0.0105276114,0.00471989913,0.00179187839,0.0032736652,0.00856492848,-0.010671742,0.00260917358,-0.00112375827,0.00126416142,0.00169206995,0.00898059167,0.00157496058,-0.012838194,-0.00240886516,0.00817347762,-0.00792024029,0.00375626872,0.00203662284,-0.0102223478,0.00277454145,-0.000466182477,0.00496646415,0.00303177793,0.0043708509,0.00760343319,-0.00500961719,4.1105144e-05,0.0027683026,0.00895669701,-0.00575659684,-0.000764238993,0.0035608702,-0.00792233322,-0.00213929049,-0.00914792611,0.00076883314,0.00206066979,0.00129749534,0.00152645778,0.00322458807,0.00166661408,0.00674033693,-0.00133945903,-0.00205561272,0.0103990486,-0.00314326372,-0.00231676196,-0.00639139051,-0.00142525813,0.000518769057,-0.00151454967,-0.00320256442,0.0111082384,-0.000105954243,-0.00901428728,0.00309206697,0.00177803325,0.00549961353,-0.00251819077,0.00564154127,-0.0110038063,0.000270217619,-0.00249749046,-0.00394618012,0.000411696341,0.00180648346,-0.000107215064,-0.00233474169,-0.00548333795,-0.000260105643,-0.00359368,-0.00279806329,0.00142133627,-0.00241370352,-0.00138193299,-0.00627007358,-4.25168132e-05,0.00224205991,0.000266557006,0.000310481252,0.000468051577,0.0177625037,-6.93223178e-05
0.00385850564,0.00462123369,-0.00340002968,-0.00137784171,-0.00287796929,0.00397015125,0.00290141528,8.66081155e-05,0.00243815465,-0.0030622608,-0.00487544858,-0.00592999194,0.00231124341,-0.00101117708,-0.00423734352,-0.00326979262,0.00461457478,-0.00921228829,-0.00536116721,0.000933713061,0.00185896754,-0.00118916066,0.00690626278,0.00778418992,-0.00498928283,-0.00277442532,0.00434968411,-0.00453458357,-0.00308836475,-0.00100381503,0.00437646389,0.00344756908,0.000575474299,0.000781141797,0.00520700212,-0.00780170037,0.00350074342,-0.00194411034,-0.00407733611,-0.00480214365,-0.00088439723,0.000175096154,0.00155363774,-0.00999426034,0.0027555898,0.00918462288,0.00153797138,0.00108061099,-0.0107464769,-0.00465707648,0.000818496988,-0.00906978616,0.00691900024,0.00381255881,0.000584403833,-0.00387006262,0.00208777347,-0.00284161142,-0.00403344755,0.00364634079,-0.00732884939,-0.00271037273,-0.00315429596,0.00132052374,-0.000459470257,-0.00394841125,-0.00563524893,-0.00339338467,-0.0123017289,-0.00807789473,-0.000996224664,0.00497119102,-0.0104307192,0.00534692421,0.00349872222,-0.000997819365,0.000658497126,-0.00187541253,-0.00680664013,-0.015137613,-0.00448807753,0.000755941851,-0.0105531248,0.0122097546,-0.000409887998,-0.00321894818,-0.00659463781,-0.0062847503,-0.000713620531,0.000882741237,-0.00882793461,-0.00100408624,0.00821045669,-0.00415479049,-0.0081885373,-0.00125972071,0.00160332963,-0.00122222829,-0.000295377688,-0.00305381692,0.0150511504,-0.000663946752,-0.000824050908,-0.000960924331,-0.00388531864,0.00340026182,0.00414240387,0.00117437648,0.0138679027,0.0110546072,-0.00363517488,0.00260492709,0.0034674278,0.00819592963,-0.000791819107,0.0063385816,0.000729219164,-0.0298095155
0.00385850564,0.00200166437,-0.00475065399,0.00323601167,-0.00165818479,-0.000425676898,0.00357646091,0.00424762203,0.00548885751,0.00192468232,0.00256574597,-0.00685242694,-0.00422940321,-0.00141982263,-0.00584922491,0.00424175151,0.00414463138,0.00277262244,-0.00285721683,0.00852425459,0.00086730244,-0.000472815801,-0.00716616052,-0.00420447948,0.00643165185,-0.00382429972,-0.000260858201,0.00495271643,0.00312160044,0.00286714714,-0.00551905339,-0.00374776703,0.000589936046,-0.00250441704,-0.00892356178,-0.000953215397,0.0052839454,-0.0040399758,-0.00182477467,0.00115205238,-0.00342155169,-0.014419282,-0.00360157129,0.00276206258,0.00150207741,0.00444036413,0.000381622481,-0.00693279966,0.0022798288,0.00658619384,-0.00902736625,-0.000133092958,0.00902248891,-0.0061237071,-0.00187146866,0.000353469068,8.89715899e-05,-0.00502884465,0.0061016151,-0.00191795116,0.00703631624,0.00232082976,-0.0014556991,-0.0051040424,-0.00941757166,-0.00281297529,-0.00441028294,0.00581670565,-0.00209304848,-0.000924650425,-0.0114195329,-0.00155288788,-0.00808038444,0.0066433999,0.00329128111,0.00323797517,-0.00808634574,-0.000191508325,-0.00255704759,-0.00858332859,0.00714086292,-0.00447638865,-0.0016802212,-0.0071393335,0.00852350623,0.00164173321,-0.0106317861,-0.00182708059,0.00767586103,0.000811316707,0.00202878022,-0.00410384205,-0.00427327378,-0.00118779633,0.00487508738,0.000480940399,-0.0106877499,0.00191840161,0.000851365825,0.00224464915,0.00477005383,-0.00122737003,-0.00140938111,-0.00330667005,-0.000971197352,5.88655717e-05,-0.00373740194,-0.00547866907,-0.00911785832,-0.0027550167,0.00341498669,0.00187549786,0.000919079727,0.00242266578,-0.000952354403,-7.72074731e-05,-0.00345424034,-0.00400199841
0.00385850564,0.00054089132,-0.00493739946,0.0040931304,-0.000398568351,-0.00252567682,0.000515097926,0.00434519444,0.00473714609,0.00112646253,0.0049584397,-0.00276935024,-0.00689920926,0.00254324834,-0.00579229978,-0.000290253658,0.00264249094,0.00552845623,0.00376350443,0.00813260089,-0.000971508243,-0.00413723479,0.000563210302,-0.00313730268,0.00415605864,0.000983317859,-0.00465003546,0.000816875522,-0.000747967542,0.00639146057,0.000453951891,-0.00826654056,0.000406044389,-0.00477056244,-0.00104659504,-0.0105586532,0.00275596848,-0.00403510783,-0.00176238472,-0.00807550665,0.005921416,-0.00658254629,-0.00377170015,-0.00240707283,0.00635117922,0.00566327033,0.0026444553,-0.000956937424,9.20026686e-05,0.00130190608,0.00630632472,0.0064931694,0.00282322357,0.00356659661,-0.0169726578,0.00152603308,0.000306461235,0.00492184325,-0.00422477417,0.0117183452,-0.00235369508,0.00586729829,0.00494549812,0.00906779336,0.00148066589,0.00358285927,0.00893798468,0.00483777176,-0.00437435645,0.00432214502,0.00405365116,0.0016956773,0.00975945724,0.00361863762,-0.00122266483,-0.00990575993,0.00789344031,-0.0100535824,0.00159614461,0.00459084203,-0.00324817061,-0.00656553672,0.00680673071,0.00799403871,-0.011365659,-0.00237113949,0.00406851338,-0.00160815862,-0.00460166681,-0.00610422651,-0.000526779871,0.000106454733,-0.00112389375,0.0015599847,0.00194893494,-0.004041356,0.0126516281,-0.00135950107,-0.000373584086,-0.00289037671,-0.00136687414,0.000243684129,0.00833741393,0.00101080364,-0.00190823181,-0.00186603408,-0.00169286947,0.00375671295,0.00403786312,0.00237820954,-0.000575358297,-0.000422632922,-0.000206537087,1.03170294e-05,0.00399386291,0.000130089157,0.0105816003,7.31389098e-05
0.00385850564,0.00594701951,-0.00200914021,-0.00547139237,-0.00233298392,0.00491394492,-0.00397062306,-0.00260628184,-0.00108716696,-0.00662401588,0.00144236911,0.000597664788,0.00186238805,0.00730096742,-0.00213951605,-0.00109591218,0.00545136868,0.00337982403,0.000305765665,-0.00191640948,0.00396172264,-0.00443591836,-0.0023624831,0.00415166052,-0.0031766778,-0.000494119194,0.000116225213,0.000760245429,0.00769303162,0.00348107009,0.00800560603,-0.00374146517,0.000348970543,-0.00671301185,-0.00175286632,0.00999281448,0.00641219796,-0.000713008168,0.00743131297,0.00471643616,0.00543226775,-0.00766311358,0.00552858386,0.00482727515,-0.000525198499,-0.00704062196,0.009255548,0.000835599228,0.0111869139,0.00529890266,0.00796147215,-0.00314463358,-0.00917108642,-0.00345378332,0.00153737902,-0.00226826038,-0.00907872101,0.00444367201,0.00473255038,-0.0018668006,-0.00184278423,-0.00348380144,-0.000505052424,0.00675999741,-0.00100238953,0.00646691232,-0.000375114055,0.000844932814,-0.00233052246,-0.000271738685,0.00754129511,0.00398811289,0.00352055576,0.00441959394,-0.000652212633,0.00186379299,-0.00621517891,-0.00501469304,-0.00122151148,0.00463194672,-0.00435784936,0.00186097462,0.003446059,0.004777693,0.00618751871,0.00915930411,-0.00869144473,-0.0086313232,0.00220362581,-0.00396678679,0.0011204162,-0.00308565959,0.00876041915,0.00290890581,0.00775217466,0.00843539321,-0.00131660494,0.00325999518,-0.00713946053,0.01123383,0.0053359775,0.0098641958,-0.00210339034,0.00386035248,0.0043196718,-0.000285594621,-0.00435030817,-0.00417999817,0.00117160126,0.0116204726,-0.00441786158,-0.0171711197,-0.0107895704,-0.00890808743,0.00222515588,0.0209780488,0.000237452415,-0.00998312128
0.00385850564,0.00543726474,-0.00204748294,-0.0037772197,-0.0013978872,0.00472531306,-0.00087847207,0.000335519015,-0.000364804855,-0.00541659845,-0.00297842436,-0.00417217837,0.00250211352,0.00407695774,-0.00112455671,-0.00571190271,0.00639598333,-0.00411071394,-0.000495871279,-0.00362005337,-1.16960615e-05,-0.0069708997,0.00542648654,0.00703398935,-0.00382724487,0.00293207728,0.000646197844,0.0016320577,0.0043402987,0.00905487567,0.00616167296,-0.00356163851,-0.00140152201,-0.00980277032,-0.00135647105,0.00343367675,0.00271100524,-0.00495584788,0.00100815841,0.000194321566,0.000830454616,-0.00585835536,-0.00132386097,-0.00227308054,-0.00515053128,-0.0027502422,0.000224277216,-3.31479865e-05,-0.00574332214,0.0011103855,-0.00937523039,-0.00373473672,0.00172965208,-0.00515336469,0.00493401879,-0.00642823269,-0.00160921448,-0.0106640309,-0.0105098639,-0.0078481839,-0.000503830781,-0.00165365725,-0.000791509801,0.00648479844,-0.00137994947,-0.000408462098,0.00551800513,0.0119210561,0.00915750744,0.0035623667,0.00365412668,-0.0078594766,0.00751261985,-0.00556257948,-0.00454195431,-0.00112411152,0.000951204917,-0.00798690784,-0.00629580694,0.0141600005,6.89285716e-05,-0.000238135988,0.00501636382,-0.000436779262,0.00370470225,0.00354935178,0.00613850876,0.00820531714,0.00762843208,0.0126302951,0.000517979879,0.00606685017,-0.0157948745,-0.00367667848,-0.000839957476,-0.00666693351,-0.00117613158,-0.00158585676,-0.00167979216,0.0138966253,-0.0178192823,-0.00088459379,0.00103861979,-0.00924864525,-0.006266767,0.00250825505,0.00308975143,0.00574317846,0.00190640438,-0.0144882344,0.00236480841,0.000599669851,0.00191075401,0.00827947231,-0.00191742563,-0.0278130818,-0.000289612577,-0.0102586358
